3.100308030843734741e-02,2.586278021335601807e-01,-6.810849905014038086e-02,1.970916986465454102e-01,1.111922189593315125e-01,3.732935339212417603e-02,-1.070256978273391724e-01,2.164593040943145752e-01,1.524060405790805817e-02,1.486832946538925171e-01,4.903746768832206726e-02,1.014699488878250122e-01,8.311214298009872437e-02,9.182956069707870483e-02,9.127689152956008911e-02,-1.242537517100572586e-02,2.568178176879882812e-01,-2.371723651885986328e-01,9.042032063007354736e-02,1.837900429964065552e-01,-4.277028515934944153e-02,1.408654451370239258e-01,5.414283648133277893e-02,2.861290872097015381e-01,-1.059232279658317566e-01,-8.114331401884555817e-03,1.945422291755676270e-01,1.584956049919128418e-01,2.067952007055282593e-01,1.325833946466445923e-01,-3.669141232967376709e-02,-4.599397256970405579e-02,6.176083907485008240e-02,-2.234839498996734619e-01,-7.582756131887435913e-02,2.301833331584930420e-01,-5.771212652325630188e-02,-2.091249972581863403e-01,-1.694906353950500488e-01,-1.539716590195894241e-02,1.100037246942520142e-01,-4.886319488286972046e-02,1.105607114732265472e-02,-1.030315011739730835e-01,-1.571417152881622314e-01,-9.842155873775482178e-02,2.670910581946372986e-02,2.146953493356704712e-01,-2.475300133228302002e-01,5.330212786793708801e-02,-9.188578277826309204e-02,-1.296355724334716797e-01,-2.327207475900650024e-01,-5.935199186205863953e-02,2.188938111066818237e-01,-1.439545601606369019e-01,1.087053120136260986e-02,6.373192369937896729e-02,-1.008154451847076416e-02,-1.387569308280944824e-01,1.384953707456588745e-01,8.731791377067565918e-02,-9.290286898612976074e-02,3.611791506409645081e-02,5.270325019955635071e-02,-4.757272452116012573e-02,7.129185646772384644e-02,1.753331348299980164e-02,2.433655597269535065e-02,-1.883721537888050079e-02,1.905576735734939575e-01,2.488473430275917053e-02,-6.530385464429855347e-03,-4.454549401998519897e-02,1.382079422473907471e-01,-1.925427317619323730e-01,2.066940367221832275e-01,3.093601390719413757e-02,-1.993927173316478729e-02,-7.612910587340593338e-03,2.439351677894592285e-01,-1.061377525329589844e-01,1.939039826393127441e-01,2.266826629638671875e-01,-8.471190184354782104e-02,1.286340802907943726e-01,6.429515033960342407e-02,1.949946731328964233e-01,8.182878047227859497e-02,-1.838897168636322021e-01,-1.071371063590049744e-01,7.932630181312561035e-02,-1.391470432281494141e-01,2.612474607303738594e-03,-4.519473016262054443e-02,-2.501418292522430420e-01,-1.215272322297096252e-01,-7.419327646493911743e-02,-2.958821654319763184e-01,1.356524229049682617e-01,1.070117056369781494e-01,-8.904109150171279907e-02,-1.380227059125900269e-01,-4.443084076046943665e-02,-5.056838691234588623e-02,-1.754155158996582031e-01,5.705113708972930908e-02,-1.172611489892005920e-02,-1.204064190387725830e-01,-8.888590335845947266e-02,-3.588009625673294067e-03,-1.465330421924591064e-01,-1.539527326822280884e-01,1.349344700574874878e-01,8.505592495203018188e-02,1.302202343940734863e-01,-1.372820585966110229e-01,-7.117104530334472656e-02,-1.917880475521087646e-01,-1.222355365753173828e-01,-6.850588321685791016e-02,3.448808938264846802e-02,1.332096010446548462e-01,-7.315919548273086548e-02,2.625171095132827759e-02,-1.409163475036621094e-01,-3.399801254272460938e-02,-1.037493720650672913e-01,-1.882417500019073486e-01,-4.647128283977508545e-03,-1.520975679159164429e-02,-1.748113781213760376e-01,-2.332762479782104492e-01,-1.747121475636959076e-02,9.021162986755371094e-03,-2.057021558284759521e-01,1.103991121053695679e-01,3.369981423020362854e-02,-1.443213075399398804e-01,-8.198851719498634338e-03,-6.571173667907714844e-02,-2.240266650915145874e-01,-3.505225777626037598e-01,-1.330740842968225479e-02
3.747351095080375671e-02,1.934254541993141174e-02,3.392954170703887939e-02,1.658325642347335815e-01,3.998414576053619385e-01,1.817259043455123901e-01,1.817059069871902466e-01,2.002090215682983398e-01,4.645837098360061646e-02,-1.981927603483200073e-01,-4.267305508255958557e-02,1.388269066810607910e-01,-1.667003631591796875e-01,-1.167174577713012695e-01,-4.418692737817764282e-02,1.026579514145851135e-01,1.065701842308044434e-01,7.049426436424255371e-02,7.874801754951477051e-02,1.563929487019777298e-03,-1.648732833564281464e-02,-6.421143561601638794e-02,-1.655904576182365417e-03,3.444024622440338135e-01,-9.924075007438659668e-02,-6.945132464170455933e-02,-5.322697386145591736e-02,-1.770751923322677612e-02,-1.803343929350376129e-02,5.568858608603477478e-02,1.093384176492691040e-01,-1.362635642290115356e-01,-1.013216525316238403e-01,-9.656750410795211792e-02,1.642158925533294678e-01,1.014965251088142395e-01,4.409826174378395081e-02,1.721741706132888794e-01,5.984331481158733368e-03,-3.149122595787048340e-01,1.475871503353118896e-01,-6.376939266920089722e-02,-1.102947667241096497e-01,2.103749215602874756e-01,1.856041401624679565e-01,6.210254877805709839e-02,-2.951729483902454376e-02,4.046313092112541199e-02,7.336177676916122437e-02,-1.310227662324905396e-01,-2.672192752361297607e-01,-1.220643403939902782e-03,3.032942488789558411e-02,-1.219663619995117188e-01,2.368402332067489624e-01,-7.191637903451919556e-02,5.426953360438346863e-02,2.639875188469886780e-02,-1.538329012691974640e-02,2.219584770500659943e-02,-8.105565607547760010e-02,9.581731259822845459e-02,-6.660018861293792725e-02,-2.159065753221511841e-01,-2.544041275978088379e-01,1.427537854760885239e-02,1.780605912208557129e-01,2.607778012752532959e-01,-1.928829550743103027e-01,-4.386658221483230591e-02,3.959342837333679199e-02,4.575363174080848694e-02,-4.775499179959297180e-02,-1.633769720792770386e-01,-1.489246636629104614e-01,1.488162577152252197e-01,-1.621494591236114502e-01,2.157875895500183105e-01,-3.968775644898414612e-02,-6.447046250104904175e-02,4.549182951450347900e-02,-6.809300184249877930e-02,6.959522515535354614e-02,-3.362639993429183960e-02,7.685378938913345337e-02,-4.588607698678970337e-02,4.816012829542160034e-02,-5.620434880256652832e-02,5.133983865380287170e-02,1.370080467313528061e-02,-1.502691358327865601e-01,-1.479518413543701172e-01,-7.601924706250429153e-03,7.182017900049686432e-03,3.007367067039012909e-02,-1.594872176647186279e-01,-9.517551399767398834e-03,8.608441054821014404e-02,-1.261354517191648483e-02,1.491879671812057495e-01,-1.213513538241386414e-01,-2.189738154411315918e-01,-1.097887009382247925e-01,1.075179204344749451e-01,4.472045600414276123e-02,1.183203160762786865e-01,-2.019980922341346741e-02,4.391771554946899414e-02,-3.902010247111320496e-02,-1.285186689347028732e-02,8.316919207572937012e-02,6.917580962181091309e-02,-1.604333370923995972e-01,1.732193827629089355e-01,-1.323433667421340942e-01,-2.130946069955825806e-01,-1.302160173654556274e-01,-3.706760704517364502e-01,-3.209437131881713867e-01,7.347971200942993164e-02,-3.416056185960769653e-02,1.339584030210971832e-02,-2.869605123996734619e-01,6.991635262966156006e-02,-1.110365092754364014e-01,-1.992476433515548706e-01,-1.676939725875854492e-01,-1.511720716953277588e-01,-2.061368674039840698e-01,2.599977329373359680e-02,-6.697575747966766357e-02,8.977852016687393188e-02,2.802128903567790985e-02,-7.389925420284271240e-02,-2.319172769784927368e-01,-8.553326874971389771e-02,1.558230370283126831e-01,3.394274786114692688e-02,2.214963175356388092e-02,-7.638783752918243408e-02,-1.084931492805480957e-01,6.117777433246374130e-03,1.268993914127349854e-01,9.921270608901977539e-02
-2.913086675107479095e-02,4.331145808100700378e-02,5.349963437765836716e-03,1.889268308877944946e-01,2.078277617692947388e-01,9.792783856391906738e-02,-1.394449919462203979e-01,-2.827995456755161285e-02,1.687706708908081055e-01,-1.260982155799865723e-01,-9.963814169168472290e-02,1.465231627225875854e-01,-8.347400277853012085e-02,5.566010624170303345e-02,2.521503567695617676e-01,-2.213335782289505005e-01,1.835997700691223145e-01,2.498044818639755249e-01,1.290720850229263306e-01,-2.935366332530975342e-02,3.543933853507041931e-02,1.832062602043151855e-01,-4.306969791650772095e-02,-1.864218153059482574e-02,2.245577126741409302e-01,6.645553559064865112e-02,1.604204438626766205e-02,-1.175240948796272278e-01,7.506717741489410400e-02,-3.307462111115455627e-02,1.979617774486541748e-01,9.837961941957473755e-02,-2.664914540946483612e-02,-5.606104061007499695e-02,2.246553152799606323e-01,-3.693614900112152100e-02,-2.557266950607299805e-01,-8.810955286026000977e-02,-1.097335014492273331e-02,-1.829218417406082153e-01,-3.323294520378112793e-01,6.186343729496002197e-02,-1.510150283575057983e-01,-3.522226214408874512e-02,-3.081981837749481201e-02,1.206799075007438660e-01,9.554537385702133179e-02,6.615579128265380859e-02,-2.244103550910949707e-01,-1.605977714061737061e-01,6.292459368705749512e-02,-8.277275413274765015e-02,6.532593071460723877e-02,1.625104993581771851e-02,-1.014998406171798706e-01,4.435763694345951080e-03,-2.633365988731384277e-01,-2.987496554851531982e-01,4.268280044198036194e-02,-1.530198454856872559e-01,-8.341412991285324097e-03,-2.074623256921768188e-01,-1.687395572662353516e-01,-2.273406982421875000e-01,-3.701502680778503418e-01,-3.445530235767364502e-01,-1.854532659053802490e-01,-1.858520209789276123e-01,-1.889544725418090820e-02,-1.849149316549301147e-01,-2.158842235803604126e-01,-1.600382626056671143e-01,1.206676438450813293e-01,7.564717531204223633e-02,1.252564638853073120e-01,-1.083953827619552612e-01,4.116373881697654724e-02,1.876189857721328735e-01,-1.283001154661178589e-01,1.173770651221275330e-01,9.852807968854904175e-02,-4.657424613833427429e-02,-1.778371334075927734e-01,-7.333429157733917236e-02,-1.838582307100296021e-01,-1.338532865047454834e-01,-2.075545787811279297e-01,1.995277106761932373e-01,-6.096038594841957092e-02,1.311760544776916504e-01,-1.776898205280303955e-01,-3.772190809249877930e-01,-2.673310935497283936e-01,-2.934303879737854004e-01,-2.648164629936218262e-01,-6.307861953973770142e-02,-1.415706872940063477e-01,-1.679139770567417145e-02,1.443057209253311157e-01,-1.907699704170227051e-01,-5.539174005389213562e-02,1.533246636390686035e-01,-3.009119629859924316e-01,7.260813564062118530e-02,8.655891567468643188e-02,7.668513804674148560e-02,8.402876555919647217e-02,1.079814881086349487e-01,-3.090786561369895935e-02,1.205416470766067505e-01,-1.529799848794937134e-01,-1.192487329244613647e-01,1.493590790778398514e-02,1.339476555585861206e-01,2.449587918817996979e-02,8.870651572942733765e-02,-3.891880810260772705e-02,-9.048649668693542480e-02,-6.261526048183441162e-02,-1.057754904031753540e-01,1.391538977622985840e-01,-1.178472563624382019e-01,-3.274984285235404968e-02,2.042879611253738403e-01,-1.635355316102504730e-02,-1.670259833335876465e-01,-1.122758537530899048e-01,1.193950399756431580e-01,6.273195892572402954e-02,-1.753348559141159058e-01,-2.148099392652511597e-01,-1.394411474466323853e-01,-1.395027041435241699e-01,-9.231459349393844604e-02,-2.876089513301849365e-01,1.209637075662612915e-01,-9.612669795751571655e-02,1.535921096801757812e-01,3.818289935588836670e-02,2.437996566295623779e-01,2.428488582372665405e-01,1.828961223363876343e-01,-1.925850287079811096e-03,9.027515351772308350e-02
-1.433643400669097900e-01,-1.043162867426872253e-01,6.284215301275253296e-02,-2.800629436969757080e-01,-8.133486658334732056e-02,-1.184613481163978577e-01,-2.892489731311798096e-01,-2.025064080953598022e-01,5.005785822868347168e-02,9.285180270671844482e-02,-1.261921674013137817e-01,-3.528512548655271530e-03,1.913277655839920044e-01,-6.684528291225433350e-02,-6.457432359457015991e-02,-1.512581110000610352e-01,-1.078943684697151184e-01,-8.532756567001342773e-02,-5.001517385244369507e-02,-3.208738937973976135e-02,1.663386076688766479e-01,4.909214004874229431e-02,5.615888535976409912e-02,6.317303329706192017e-02,-1.510754823684692383e-01,5.074378475546836853e-02,-3.705571591854095459e-02,1.823639497160911560e-02,-9.356299787759780884e-02,-3.628708422183990479e-02,2.724435329437255859e-01,2.537254989147186279e-01,3.022633790969848633e-01,5.026818439364433289e-02,1.091618612408638000e-01,-3.425981150940060616e-03,-1.720256358385086060e-01,-2.099656760692596436e-01,-6.788888480514287949e-03,-2.600651383399963379e-01,-2.857546508312225342e-02,-1.124320924282073975e-01,-9.811137616634368896e-02,2.125008031725883484e-02,1.665929704904556274e-01,-4.602638259530067444e-02,1.865881308913230896e-02,7.329232245683670044e-02,-5.419294908642768860e-02,-2.965323813259601593e-02,6.770168989896774292e-02,4.978237673640251160e-02,7.398618757724761963e-02,-2.471199817955493927e-02,-1.334758549928665161e-01,1.036019716411828995e-02,-1.640338003635406494e-01,-2.433694340288639069e-02,-2.084315419197082520e-01,-2.119167335331439972e-02,1.154736578464508057e-01,1.763239037245512009e-03,-2.763052880764007568e-01,-2.348759174346923828e-01,-6.290080398321151733e-02,-4.843648523092269897e-02,1.502786725759506226e-01,-2.819444425404071808e-02,-1.381760239601135254e-01,-3.546424210071563721e-02,-6.183143705129623413e-02,-3.209329396486282349e-02,-2.369621209800243378e-02,9.947475045919418335e-02,1.618154197931289673e-01,2.198994755744934082e-01,1.474106311798095703e-01,9.298180043697357178e-02,-6.715398747473955154e-03,2.172819823026657104e-01,4.990639165043830872e-03,7.142537087202072144e-02,3.573399409651756287e-02,-9.940025955438613892e-02,5.345950648188591003e-02,-4.993189498782157898e-02,-1.826853007078170776e-01,-4.262182861566543579e-02,1.628841157071292400e-03,4.059845581650733948e-02,6.258594244718551636e-02,-1.114105358719825745e-01,-1.045546606183052063e-01,-6.142005696892738342e-02,5.986347794532775879e-02,-7.883204519748687744e-02,-8.138546347618103027e-02,-1.416279226541519165e-01,-1.314979046583175659e-01,1.068559102714061737e-02,-2.616024017333984375e-02,-1.369383335113525391e-01,4.964940249919891357e-02,-4.126915708184242249e-02,1.086307317018508911e-01,1.193009167909622192e-01,1.714281290769577026e-01,-1.791520118713378906e-01,5.094563215970993042e-02,-1.251836866140365601e-01,2.766163460910320282e-02,-1.966072171926498413e-01,-2.242413014173507690e-01,-6.679932028055191040e-02,-2.206882685422897339e-01,-1.111422479152679443e-01,-1.301228702068328857e-01,3.138670325279235840e-02,7.619162090122699738e-03,-7.539873570203781128e-02,1.359721273183822632e-01,-7.221032679080963135e-02,1.072423905134201050e-01,1.518090814352035522e-01,4.836155474185943604e-02,-7.787186652421951294e-02,-4.443819075822830200e-02,5.923131853342056274e-02,-1.568014025688171387e-01,-2.208836525678634644e-01,1.163984835147857666e-01,7.197024673223495483e-02,-2.461657375097274780e-01,-1.163319312036037445e-02,-1.082160323858261108e-01,-6.023903191089630127e-02,-3.976180031895637512e-02,1.303597539663314819e-01,1.081181466579437256e-01,6.832624971866607666e-02,6.081424281001091003e-02,6.728675216436386108e-04,2.511622011661529541e-01,-1.658290177583694458e-01
2.053824812173843384e-02,7.419211417436599731e-02,7.812419533729553223e-02,-3.659809008240699768e-02,-1.076763719320297241e-01,-1.166713424026966095e-02,4.944258183240890503e-02,9.926562051987275481e-05,-1.916634589433670044e-01,-1.256327927112579346e-01,6.252633780241012573e-02,-1.373933721333742142e-02,-3.743397817015647888e-02,-2.980656623840332031e-01,2.952249050140380859e-01,-1.703826189041137695e-01,-8.002905547618865967e-02,2.140203416347503662e-01,-1.598828881978988647e-01,1.055348739027976990e-01,9.219800680875778198e-02,-1.445394009351730347e-01,-4.238538444042205811e-02,-1.511282324790954590e-01,-1.505188047885894775e-01,-6.711844354867935181e-02,-1.263574659824371338e-01,-1.604552865028381348e-01,1.505917310714721680e-01,2.020325884222984314e-02,-1.059734970331192017e-01,7.258220016956329346e-02,7.350506633520126343e-02,-1.705001890659332275e-01,-1.141032576560974121e-01,-6.016188859939575195e-02,1.521145701408386230e-01,2.808179855346679688e-01,1.689939796924591064e-01,1.946814060211181641e-01,7.789614051580429077e-02,-2.037533670663833618e-01,2.017701417207717896e-01,2.621818184852600098e-01,1.851599849760532379e-02,-4.400132223963737488e-03,-2.285046577453613281e-01,-5.334434285759925842e-02,-1.614990979433059692e-01,1.559811923652887344e-02,-9.151051193475723267e-02,8.610949851572513580e-03,1.406904757022857666e-01,2.056903019547462463e-02,-1.335108280181884766e-01,1.924837008118629456e-03,9.849610179662704468e-02,2.552086412906646729e-01,8.603475242853164673e-02,1.323206275701522827e-01,-1.968895047903060913e-01,1.002196297049522400e-01,2.710560560226440430e-01,6.352867931127548218e-02,-2.636294253170490265e-02,1.163998432457447052e-02,2.965335920453071594e-02,2.009349465370178223e-01,-2.812184626236557961e-03,-6.781777739524841309e-02,-2.065800130367279053e-02,5.727546289563179016e-03,-1.576882302761077881e-01,-1.560706347227096558e-01,2.118794433772563934e-02,-2.738343179225921631e-01,6.432123482227325439e-02,2.189493179321289062e-02,-6.783356517553329468e-02,-2.222998440265655518e-01,-1.286432147026062012e-01,5.160817503929138184e-02,-1.900197006762027740e-02,2.417771816253662109e-01,4.829826578497886658e-02,1.056999713182449341e-01,-3.988996893167495728e-02,6.544435769319534302e-02,-1.463195681571960449e-01,1.345831900835037231e-01,1.189885288476943970e-01,1.345262527465820312e-01,-8.404715359210968018e-02,2.262179404497146606e-01,8.841774612665176392e-02,6.680775433778762817e-02,6.907127797603607178e-02,-8.650157600641250610e-03,1.921668201684951782e-01,-2.053567953407764435e-02,-1.191758140921592712e-01,-1.020089760422706604e-01,-1.283357851207256317e-02,-9.733758121728897095e-02,-1.123167052865028381e-01,2.823813259601593018e-01,1.987413018941879272e-01,-1.321935933083295822e-02,3.865409269928932190e-02,2.046053707599639893e-01,-9.118035435676574707e-03,1.146955341100692749e-01,-3.148688375949859619e-02,5.486264079809188843e-02,-8.769684284925460815e-02,1.645349413156509399e-01,1.778844743967056274e-01,1.222595795989036560e-01,2.063145861029624939e-02,-2.576451934874057770e-02,-6.608790159225463867e-02,8.820083737373352051e-02,-5.288084968924522400e-02,4.616332799196243286e-02,4.298241809010505676e-02,-1.619724631309509277e-01,-9.728068858385086060e-02,3.810154646635055542e-02,-7.194874435663223267e-02,7.780712842941284180e-02,-1.778129339218139648e-01,-1.835500746965408325e-01,5.616093426942825317e-02,1.204367727041244507e-01,-1.836623549461364746e-01,1.469473540782928467e-01,9.503708034753799438e-02,3.385312482714653015e-02,8.743506669998168945e-02,-8.979766815900802612e-02,1.142934858798980713e-01,1.343366503715515137e-01,2.335371077060699463e-02,3.130390346050262451e-01
-3.708341121673583984e-01,-2.305305898189544678e-01,-2.664152085781097412e-01,-4.597759991884231567e-02,5.142050795257091522e-03,-1.303646564483642578e-01,-2.147740572690963745e-01,-1.630766540765762329e-01,-1.993092298507690430e-01,-1.055158860981464386e-02,2.055019699037075043e-02,-2.775563895702362061e-01,3.601159527897834778e-02,-5.609216541051864624e-02,-2.274668067693710327e-01,1.938368976116180420e-01,1.028305366635322571e-01,-2.048649787902832031e-01,-4.930724203586578369e-02,-1.701840311288833618e-01,-5.358498077839612961e-03,-6.905673444271087646e-02,2.284153737127780914e-02,1.101995483040809631e-01,-1.009329482913017273e-01,5.809183418750762939e-02,5.830706655979156494e-02,3.455693274736404419e-02,-1.217731088399887085e-01,1.746051162481307983e-01,1.052764281630516052e-01,4.756103735417127609e-03,-2.349827885627746582e-01,2.688012421131134033e-01,1.643042415380477905e-01,5.706433579325675964e-02,-1.785376518964767456e-01,-1.583747118711471558e-01,-2.734993398189544678e-02,-2.546817958354949951e-01,6.962396204471588135e-02,1.312176585197448730e-01,-2.583595514297485352e-01,-1.154898107051849365e-01,1.064122170209884644e-01,1.124734356999397278e-01,2.610491812229156494e-01,1.224940642714500427e-01,-1.298756003379821777e-01,2.000105800107121468e-03,-2.304095476865768433e-01,-1.815921217203140259e-01,4.991497099399566650e-02,1.263710409402847290e-01,-1.663799285888671875e-01,-7.983966171741485596e-02,-1.239841878414154053e-01,-1.676355302333831787e-01,-7.857523113489151001e-02,-2.470536231994628906e-01,-2.383560240268707275e-01,-2.217820137739181519e-01,-8.784525096416473389e-02,-9.927085041999816895e-02,7.076815515756607056e-02,-4.831120371818542480e-02,-2.237718403339385986e-01,-6.703416258096694946e-02,3.812455385923385620e-02,-2.738222666084766388e-02,1.278387010097503662e-01,6.555812805891036987e-02,-3.996746987104415894e-02,-6.167585030198097229e-02,-1.657909005880355835e-01,3.660487532615661621e-01,-5.908875539898872375e-02,-2.615217268466949463e-01,2.100518047809600830e-01,4.866697639226913452e-02,2.044127881526947021e-02,-6.917587947100400925e-03,5.900508910417556763e-02,-8.646302670240402222e-02,-1.133179217576980591e-01,1.365395486354827881e-01,6.492345780134201050e-02,-2.896151840686798096e-01,-3.297344967722892761e-02,-2.937159538269042969e-01,-1.051279008388519287e-01,-1.003288999199867249e-01,3.393661081790924072e-01,-2.531068325042724609e-01,-3.197805285453796387e-01,-6.195233017206192017e-02,-2.556095719337463379e-01,-1.369171589612960815e-01,1.256781220436096191e-01,-2.494794316589832306e-03,1.297422349452972412e-01,1.313720550388097763e-02,2.986108511686325073e-02,6.198229268193244934e-02,1.180156469345092773e-01,-2.388838529586791992e-01,-1.396304648369550705e-02,2.686930000782012939e-01,-3.881501778960227966e-02,-1.585118770599365234e-01,9.596314281225204468e-02,-1.368850767612457275e-01,-4.019386693835258484e-02,8.848150819540023804e-02,-1.997477859258651733e-01,-1.779075413942337036e-01,7.654953002929687500e-02,-1.318789422512054443e-01,-7.746279239654541016e-02,-1.026728227734565735e-01,5.948292836546897888e-02,-5.563807790167629719e-04,-1.484687924385070801e-01,-2.034489512443542480e-01,9.349112212657928467e-02,-1.347380280494689941e-01,1.138760223984718323e-01,-2.966593950986862183e-02,-2.042080163955688477e-01,2.117568850517272949e-01,1.216256394982337952e-01,2.732740528881549835e-02,8.658188581466674805e-02,-1.778232902288436890e-01,1.486477404832839966e-01,-4.372346699237823486e-01,-2.417765110731124878e-01,-2.544276118278503418e-01,-4.512391388416290283e-01,-1.734039932489395142e-01,-3.135097622871398926e-01,-2.726110517978668213e-01,-1.148441359400749207e-01,-4.684742689132690430e-01
-1.535141468048095703e-01,-1.431968659162521362e-01,4.792247116565704346e-01,-7.649665325880050659e-02,7.364736497402191162e-02,2.257064580917358398e-01,4.272801801562309265e-02,5.389539524912834167e-02,6.604337692260742188e-02,1.449057832360267639e-02,2.348890006542205811e-01,4.275088310241699219e-01,-1.689348071813583374e-01,-7.994957268238067627e-02,3.979973196983337402e-01,-1.435581892728805542e-01,4.016005620360374451e-02,3.591620028018951416e-01,1.285144984722137451e-01,2.903620004653930664e-01,2.335768342018127441e-01,-1.222497373819351196e-01,-1.091287508606910706e-01,-2.478067427873611450e-01,2.097765505313873291e-01,1.426028273999691010e-02,2.758652344346046448e-02,-5.218080058693885803e-02,1.384855210781097412e-01,3.104356825351715088e-01,1.301072984933853149e-01,1.910050027072429657e-02,1.795300394296646118e-01,-1.682383120059967041e-01,2.702115476131439209e-01,9.127176553010940552e-02,1.927502825856208801e-02,-7.036206871271133423e-02,5.682186782360076904e-02,1.901493668556213379e-01,-8.011329919099807739e-02,-1.485334243625402451e-02,4.116097465157508850e-02,-3.818734735250473022e-02,-7.575911283493041992e-02,-5.708058550953865051e-02,1.486264467239379883e-01,5.030772835016250610e-02,1.323344558477401733e-01,1.728458851575851440e-01,4.483568295836448669e-02,-2.380325496196746826e-01,1.361309289932250977e-01,-1.047255992889404297e-01,-1.506855934858322144e-01,-4.087032377719879150e-02,-2.097596973180770874e-02,-6.203214824199676514e-02,6.270340830087661743e-02,9.358730912208557129e-02,-1.184816882014274597e-01,-1.359307207167148590e-02,-2.580284886062145233e-02,2.807741053402423859e-02,-4.735724627971649170e-02,8.936080336570739746e-02,-1.978242099285125732e-01,-7.762961089611053467e-02,8.784043043851852417e-02,-2.271330505609512329e-01,9.565995633602142334e-02,7.776213437318801880e-02,1.257552951574325562e-01,5.241939052939414978e-02,1.328373402357101440e-01,-2.636091709136962891e-01,4.215295240283012390e-02,4.742746800184249878e-02,-5.431582033634185791e-02,-1.448464673012495041e-02,1.714949160814285278e-01,8.806416392326354980e-02,1.375735253095626831e-01,1.222688034176826477e-01,-9.805592894554138184e-02,2.247980684041976929e-01,-4.482046887278556824e-02,-1.799947470426559448e-01,6.170012429356575012e-02,5.195836722850799561e-02,7.856746017932891846e-02,1.426775157451629639e-01,8.535693585872650146e-02,-1.282681617885828018e-02,-1.822737790644168854e-02,-1.431881934404373169e-01,1.590938493609428406e-02,-2.120660692453384399e-01,-1.586081385612487793e-01,3.165753930807113647e-02,-7.548775523900985718e-02,-2.099052369594573975e-01,-3.130126744508743286e-02,-7.211869210004806519e-02,-7.521078735589981079e-02,-8.982296288013458252e-02,-1.086479518562555313e-02,-8.565905690193176270e-02,-2.268294692039489746e-01,1.653749048709869385e-01,5.741320177912712097e-02,-7.803625613451004028e-02,1.818624436855316162e-01,-3.437508270144462585e-02,-2.998166084289550781e-01,1.287078857421875000e-01,2.529709637165069580e-01,-8.118402957916259766e-02,-4.967128485441207886e-02,1.620040833950042725e-01,-4.229670763015747070e-02,-5.406625103205442429e-03,1.978834345936775208e-02,1.815176606178283691e-01,-3.761197999119758606e-02,6.770294904708862305e-02,-8.419165760278701782e-02,-1.737262904644012451e-01,-1.805037558078765869e-01,1.591695472598075867e-02,-2.199848741292953491e-01,-2.178055197000503540e-01,5.575762316584587097e-02,-2.599742114543914795e-01,-1.781805604696273804e-01,-1.116087138652801514e-01,-2.262673527002334595e-01,1.654396057128906250e-01,4.612181335687637329e-03,9.303538501262664795e-02,-9.260166436433792114e-02,1.862836070358753204e-02,-2.841602563858032227e-01,-2.463175207376480103e-01
-5.122327804565429688e-02,4.384136199951171875e-02,1.175678521394729614e-01,-1.514689177274703979e-01,-2.579015195369720459e-01,6.044855713844299316e-02,9.606172144412994385e-02,-4.420664906501770020e-02,4.033153951168060303e-01,-1.487521827220916748e-01,-1.690894216299057007e-01,2.443198859691619873e-01,5.671173799782991409e-03,-1.271679699420928955e-01,-1.981168426573276520e-02,-5.414490774273872375e-02,2.654705643653869629e-01,-1.293691396713256836e-01,1.192540768533945084e-02,9.682332724332809448e-02,-6.829261779785156250e-02,-2.528294920921325684e-01,7.755640894174575806e-02,-1.854180693626403809e-01,-1.348184328526258469e-02,-7.026763260364532471e-02,-1.888448446989059448e-01,-8.081811666488647461e-02,-2.681676298379898071e-02,-9.225089102983474731e-02,1.939570903778076172e-02,4.734666645526885986e-02,-1.505727916955947876e-01,9.174262732267379761e-02,1.936792284250259399e-01,2.746888669207692146e-03,-3.082261420786380768e-02,-2.573798000812530518e-01,1.690785139799118042e-01,1.115811988711357117e-01,-6.877468898892402649e-03,-7.699301093816757202e-02,-2.077164202928543091e-01,2.606629431247711182e-01,2.604357153177261353e-02,-6.020263954997062683e-02,-1.450083553791046143e-01,-1.281100362539291382e-01,3.487218916416168213e-02,5.358554050326347351e-02,5.757107585668563843e-02,1.427803635597229004e-01,-6.397771090269088745e-02,-7.670546323060989380e-02,1.472395360469818115e-01,8.116545528173446655e-02,-9.393149614334106445e-02,8.198982477188110352e-02,2.304558455944061279e-02,3.844105824828147888e-02,1.076061651110649109e-02,-1.308810561895370483e-01,1.317121237516403198e-01,1.402046680450439453e-01,-1.403600424528121948e-01,5.850007012486457825e-02,-1.052542924880981445e-01,-1.354468315839767456e-01,2.288019657135009766e-01,2.238658629357814789e-02,-2.173750102519989014e-01,-5.487957224249839783e-02,7.856368273496627808e-02,-2.461194396018981934e-01,-1.883277297019958496e-01,6.557161360979080200e-02,-6.272523105144500732e-02,9.000407904386520386e-02,7.676748931407928467e-02,1.173716410994529724e-01,-2.032168656587600708e-01,-1.236122325062751770e-01,-8.020704984664916992e-02,1.119163781404495239e-01,-2.013441771268844604e-01,8.056473731994628906e-02,-1.578416861593723297e-02,9.869721531867980957e-02,8.012545853853225708e-02,4.140453040599822998e-02,-9.876823984086513519e-03,-5.623880401253700256e-02,9.686205536127090454e-03,-2.240099199116230011e-02,1.737526804208755493e-01,3.793115168809890747e-02,4.647485446184873581e-03,-1.959079355001449585e-01,-7.475269585847854614e-02,-1.344158202409744263e-01,1.434899494051933289e-02,2.458620220422744751e-01,-1.046985853463411331e-02,-2.588436305522918701e-01,-6.485351175069808960e-02,-1.207209601998329163e-01,9.479444473981857300e-03,-8.193373680114746094e-02,-2.308799177408218384e-01,1.283267140388488770e-01,-2.240589708089828491e-01,-2.323211356997489929e-02,4.563362896442413330e-02,-1.001450121402740479e-01,1.541826277971267700e-01,-1.526483446359634399e-01,2.106805890798568726e-01,-2.200889959931373596e-02,1.612937077879905701e-02,3.512508422136306763e-02,7.025752216577529907e-02,-1.277011334896087646e-01,1.698612123727798462e-01,2.521312236785888672e-01,1.942278146743774414e-01,2.861614525318145752e-01,8.031528443098068237e-02,1.028292030096054077e-01,-7.066043466329574585e-02,2.197600305080413818e-01,1.091624796390533447e-01,1.507372707128524780e-01,-2.448457628488540649e-01,7.967913895845413208e-02,1.293191164731979370e-01,-3.348003327846527100e-02,1.157026663422584534e-01,-9.902717173099517822e-02,1.827187836170196533e-01,1.995895355939865112e-01,2.656699717044830322e-01,9.916201233863830566e-02,3.315561115741729736e-01,2.716877497732639313e-03
-2.435375005006790161e-01,-4.588922485709190369e-02,2.537717483937740326e-02,1.758731156587600708e-02,1.069778278470039368e-01,1.516378223896026611e-01,2.529654093086719513e-02,-2.610419131815433502e-02,3.095585666596889496e-02,-1.736273318529129028e-01,8.846143633127212524e-02,1.228125467896461487e-01,-3.985727578401565552e-02,1.372911036014556885e-02,-2.202369272708892822e-02,8.767952769994735718e-02,2.805917523801326752e-02,2.249838970601558685e-02,-7.956314086914062500e-02,-7.592036575078964233e-02,2.494901604950428009e-02,-2.158551812171936035e-01,1.060514599084854126e-01,4.316574335098266602e-02,-6.722526997327804565e-02,-4.570753499865531921e-02,1.280492357909679413e-02,1.729248017072677612e-01,-1.317861527204513550e-01,4.469002038240432739e-02,-7.380851358175277710e-02,2.957570180296897888e-02,1.528068482875823975e-01,-3.887069225311279297e-02,1.263031363487243652e-01,-1.298866122961044312e-01,-7.864503562450408936e-02,1.810905784368515015e-01,6.371199339628219604e-02,1.395905669778585434e-02,1.327586323022842407e-01,-1.015566065907478333e-01,-2.337250560522079468e-01,-1.960446685552597046e-02,7.578425109386444092e-02,-1.518106609582901001e-01,-2.168977409601211548e-01,-2.153104841709136963e-01,-2.075872719287872314e-01,-2.070322036743164062e-01,-1.003768742084503174e-01,-2.642895579338073730e-01,-3.364517688751220703e-01,-8.898822218179702759e-02,1.649051159620285034e-01,-1.433987263590097427e-02,9.475824981927871704e-02,6.509630382061004639e-02,1.181722525507211685e-02,-1.181585565209388733e-01,2.383914440870285034e-01,4.946769680827856064e-03,8.726948499679565430e-02,-4.210949409753084183e-03,2.708596549928188324e-02,-1.424390077590942383e-01,-2.394989598542451859e-03,3.342898562550544739e-02,-2.267651855945587158e-01,2.093548886477947235e-03,-1.593417674303054810e-02,-1.103711724281311035e-01,-6.520039588212966919e-02,3.426188486628234386e-04,-7.005822379142045975e-03,2.225822210311889648e-01,-8.674222975969314575e-03,-1.957138329744338989e-01,8.996663615107536316e-03,-3.768182545900344849e-02,1.230372264981269836e-01,1.033959239721298218e-01,2.372002601623535156e-01,1.394429504871368408e-01,-1.301860362291336060e-01,1.104164719581604004e-01,-6.566416937857866287e-03,-1.614069938659667969e-01,-2.404490858316421509e-02,-7.486537098884582520e-02,-3.928362578153610229e-02,-7.971451617777347565e-03,-2.953314408659934998e-02,-5.339898169040679932e-02,-1.011999621987342834e-01,1.179275736212730408e-01,-4.562109708786010742e-02,4.527476057410240173e-02,4.888713732361793518e-02,-1.215622350573539734e-01,-3.071950376033782959e-01,-2.954689040780067444e-02,-4.119344353675842285e-01,-2.036325633525848389e-01,-3.804806470870971680e-01,-2.191778719425201416e-01,-2.177109867334365845e-01,-1.335351844318211079e-03,-2.284643948078155518e-01,3.212687745690345764e-02,2.076037228107452393e-02,1.749301515519618988e-02,-6.078919023275375366e-02,7.861902564764022827e-02,-2.641278803348541260e-01,-1.062914431095123291e-01,3.860155120491981506e-02,2.670162916183471680e-01,7.106003165245056152e-02,2.844069600105285645e-01,-5.988071113824844360e-02,2.271272838115692139e-01,1.369689404964447021e-02,2.391189634799957275e-01,1.418083459138870239e-01,8.571413159370422363e-02,-2.482955455780029297e-01,-1.694719046354293823e-01,-1.038420423865318298e-01,-8.645583689212799072e-02,-1.943685114383697510e-02,2.809479460120201111e-02,-1.412253379821777344e-01,-9.672417491674423218e-02,-2.024586051702499390e-01,4.614611715078353882e-02,1.872670501470565796e-01,-3.990510106086730957e-02,-1.982574313879013062e-01,1.492574363946914673e-01,-4.143812227994203568e-03,2.194178551435470581e-01,3.612886415794491768e-03,1.004294119775295258e-02
-1.225979849696159363e-01,1.650101854465901852e-03,6.637015845626592636e-03,-1.676114797592163086e-01,-1.317486912012100220e-01,6.816090643405914307e-02,-3.448785841464996338e-02,7.080501317977905273e-02,4.674698784947395325e-02,1.012040674686431885e-01,-1.476735174655914307e-01,-2.041616737842559814e-01,-2.861529029905796051e-02,-3.189246729016304016e-02,-1.790161579847335815e-01,7.408265024423599243e-02,1.319704800844192505e-01,2.331160157918930054e-01,-3.218601346015930176e-01,-1.545822769403457642e-01,-1.933537572622299194e-01,-3.694528937339782715e-01,1.324623008258640766e-03,8.015307784080505371e-02,9.456556290388107300e-04,-9.122319519519805908e-02,-8.950929157435894012e-03,-1.670736968517303467e-01,-1.059309840202331543e-01,-3.036577403545379639e-01,-4.692963510751724243e-02,-3.059274554252624512e-01,-4.277410507202148438e-01,-3.342933952808380127e-01,6.448137760162353516e-02,8.214925415813922882e-03,7.323709130287170410e-02,3.207168579101562500e-01,2.991560697555541992e-01,-2.015944868326187134e-01,2.281301170587539673e-01,7.292325049638748169e-02,1.112854480743408203e-01,-2.442583069205284119e-02,1.699258089065551758e-01,1.561452001333236694e-01,-1.315580606460571289e-01,-6.211901828646659851e-02,-6.441465020179748535e-02,2.194337174296379089e-02,-1.121678669005632401e-02,2.168183475732803345e-01,-9.775198996067047119e-03,1.800898164510726929e-01,-2.101548612117767334e-01,4.751342535018920898e-02,-2.474869340658187866e-01,-2.163260579109191895e-01,-4.129318520426750183e-02,-2.745597362518310547e-01,-9.006389975547790527e-02,-7.510940730571746826e-02,1.102957874536514282e-01,-3.662819266319274902e-01,-5.814355239272117615e-02,-2.168519645929336548e-01,2.075110189616680145e-02,-1.554066687822341919e-01,-5.633569881319999695e-02,1.643709093332290649e-01,1.121649295091629028e-01,9.613788127899169922e-02,-1.343420445919036865e-01,4.081474989652633667e-02,-3.138651549816131592e-01,-1.341193318367004395e-01,-8.108443580567836761e-03,-2.717776298522949219e-01,4.697757214307785034e-02,-2.054817741736769676e-03,-2.212423235177993774e-01,8.602175116539001465e-02,-2.234988361597061157e-01,-3.199419379234313965e-01,-1.257462650537490845e-01,-6.623823940753936768e-02,-2.154277712106704712e-01,-5.354935768991708755e-03,1.947323083877563477e-01,9.770736098289489746e-03,-5.291527602821588516e-03,1.173796877264976501e-02,9.732338041067123413e-02,-1.719971001148223877e-01,2.169376313686370850e-01,-9.351955354213714600e-02,-2.158446013927459717e-01,8.101903647184371948e-02,2.349057495594024658e-01,-1.420443877577781677e-02,4.094351455569267273e-02,1.755773089826107025e-03,-3.063256107270717621e-02,2.233999967575073242e-01,4.537563025951385498e-02,1.537556201219558716e-01,-3.737611696124076843e-02,-1.249718293547630310e-01,7.984661310911178589e-02,1.945349574089050293e-01,-1.728981174528598785e-02,2.174262516200542450e-02,1.828809082508087158e-01,7.925483398139476776e-03,-9.450075030326843262e-02,-5.419030040502548218e-02,-1.984151080250740051e-02,1.561533063650131226e-01,-1.289669610559940338e-02,-4.333304613828659058e-02,6.899491697549819946e-02,-1.136076375842094421e-01,-8.447740226984024048e-03,1.117038950324058533e-01,1.042332649230957031e-01,-1.782962083816528320e-01,2.033179253339767456e-01,-1.625836193561553955e-01,1.874923855066299438e-01,1.605018377304077148e-01,2.473445795476436615e-02,-3.910611383616924286e-03,-8.010768145322799683e-02,2.101119421422481537e-02,2.777042388916015625e-01,2.519900798797607422e-01,-2.635432779788970947e-02,2.411678135395050049e-01,2.095926851034164429e-01,1.632425189018249512e-01,1.323657780885696411e-01,7.927796989679336548e-02,1.457855105400085449e-01,1.324787177145481110e-02
2.540958225727081299e-01,-1.620408296585083008e-01,8.516443520784378052e-02,2.627000585198402405e-02,-5.751149356365203857e-02,1.598803251981735229e-01,2.937516570091247559e-01,-8.547194302082061768e-02,6.050648540258407593e-02,1.341712772846221924e-01,3.460141643881797791e-02,4.044154286384582520e-02,-1.250545680522918701e-02,-1.476792693138122559e-01,6.602004915475845337e-02,1.378594189882278442e-01,1.157414466142654419e-01,1.408935189247131348e-01,-2.930838763713836670e-01,-1.123837903141975403e-01,-5.996450036764144897e-02,-6.706040352582931519e-02,-1.997845806181430817e-02,2.213199138641357422e-01,-1.178433597087860107e-01,-6.990630924701690674e-02,2.530575692653656006e-01,-2.529345154762268066e-01,-1.169505566358566284e-01,-2.527400851249694824e-01,1.326494663953781128e-01,9.571548551321029663e-02,-5.488485842943191528e-02,-4.975895211100578308e-02,3.127515316009521484e-02,-4.772846028208732605e-02,-1.117669343948364258e-01,9.824729710817337036e-02,-7.931321114301681519e-02,-4.635531082749366760e-02,-3.155504167079925537e-01,-2.455755770206451416e-01,-1.488558575510978699e-02,-1.812589615583419800e-01,1.139535680413246155e-01,1.171913836151361465e-02,-4.892432130873203278e-03,-1.406067013740539551e-01,2.365961112082004547e-02,7.158984243869781494e-02,1.136909127235412598e-01,-3.576880320906639099e-02,-4.188760742545127869e-02,3.892956674098968506e-02,-1.549176871776580811e-01,1.116530820727348328e-01,-8.465982973575592041e-03,-3.405281007289886475e-01,-1.629057526588439941e-02,8.205389603972434998e-03,7.442431058734655380e-03,-1.317850053310394287e-01,-2.792112231254577637e-01,1.024189963936805725e-01,1.215713843703269958e-01,3.661385923624038696e-02,-4.085136204957962036e-02,9.766913950443267822e-02,1.554413437843322754e-01,2.409645169973373413e-02,-2.539767511188983917e-02,1.544655710458755493e-01,-1.827090419828891754e-02,-2.213566601276397705e-01,-1.025547366589307785e-02,5.727341398596763611e-02,2.452083528041839600e-01,5.193652212619781494e-02,1.059975996613502502e-01,-1.440904140472412109e-01,4.665985703468322754e-02,7.773365080356597900e-02,-7.784723490476608276e-02,4.219294339418411255e-02,-1.019928529858589172e-01,-1.294172555208206177e-01,3.736843168735504150e-02,1.792353689670562744e-01,1.268216818571090698e-01,5.177850648760795593e-02,-2.930104434490203857e-01,-9.783299267292022705e-02,-2.817145586013793945e-01,4.129066690802574158e-02,-9.868836402893066406e-02,4.488525539636611938e-02,-1.711920946836471558e-01,-8.599749952554702759e-02,1.322731822729110718e-01,1.158300638198852539e-01,1.613912284374237061e-01,-4.708751104772090912e-03,2.436874657869338989e-01,-8.516006916761398315e-02,2.251381427049636841e-01,6.368229538202285767e-02,1.169607564806938171e-01,-9.971453994512557983e-02,-1.921593695878982544e-01,7.601483911275863647e-02,7.636138796806335449e-02,4.781882278621196747e-03,2.589241862297058105e-01,2.502954751253128052e-02,-8.645019680261611938e-02,-2.617316693067550659e-02,1.366480737924575806e-01,9.551370888948440552e-02,-1.117968708276748657e-01,-1.590696424245834351e-01,-3.380126506090164185e-02,1.001088246703147888e-01,1.417658478021621704e-01,-7.184725254774093628e-02,4.128620959818363190e-03,-1.549353003501892090e-01,1.507042646408081055e-01,-5.252388119697570801e-02,1.466464549303054810e-01,2.262941598892211914e-01,-1.881573498249053955e-01,-1.844757050275802612e-01,-6.752936542034149170e-02,-5.562864243984222412e-03,-7.634700834751129150e-02,-1.857561767101287842e-01,-1.576045751571655273e-01,-2.295760661363601685e-01,-3.647665381431579590e-01,-1.214302703738212585e-01,-1.513515114784240723e-01,2.803319506347179413e-02,-1.222077533602714539e-01,-2.559747695922851562e-01
-2.176064997911453247e-01,-1.859035789966583252e-01,-2.344048172235488892e-01,-1.833608932793140411e-02,-1.886920332908630371e-01,4.707799851894378662e-02,-1.850430816411972046e-01,-2.648933231830596924e-02,4.029527679085731506e-02,-1.155420094728469849e-01,-4.476646333932876587e-02,2.436610758304595947e-01,1.868660375475883484e-02,6.548362970352172852e-02,-9.348922967910766602e-02,-1.226013451814651489e-01,-1.124054417014122009e-01,-3.644505143165588379e-02,-1.054404750466346741e-01,-4.089555889368057251e-02,1.597803533077239990e-01,1.830499023199081421e-01,2.380015552043914795e-01,-3.226275369524955750e-02,-9.511522948741912842e-03,3.232609331607818604e-01,3.452842310070991516e-02,-7.762026041746139526e-02,-1.655590534210205078e-01,-2.266038022935390472e-02,-4.446405172348022461e-02,-8.981198072433471680e-02,-1.839354634284973145e-01,-6.834301352500915527e-02,-1.911107152700424194e-01,3.383725881576538086e-02,1.069471910595893860e-01,2.092472910881042480e-01,7.643564045429229736e-02,8.349013328552246094e-02,-3.537487983703613281e-02,-2.084189355373382568e-01,1.097079440951347351e-01,-1.075901556760072708e-02,1.491611748933792114e-01,1.701882667839527130e-02,-1.262028962373733521e-01,-6.271006911993026733e-02,1.135402992367744446e-01,-3.078103065490722656e-02,-1.366152018308639526e-01,1.101414561271667480e-01,9.138433262705802917e-03,-2.424332201480865479e-01,1.547349896281957626e-02,-1.858370304107666016e-01,-6.809363607317209244e-03,2.408618479967117310e-01,-1.638602316379547119e-01,-2.757634781301021576e-02,2.287912219762802124e-01,-1.184736043214797974e-01,-1.198682934045791626e-02,5.966750159859657288e-02,-2.028925903141498566e-02,1.275214552879333496e-01,6.643725186586380005e-02,4.535395652055740356e-02,2.868737578392028809e-01,-1.400592029094696045e-01,1.295600235462188721e-01,2.391404509544372559e-01,-1.496666483581066132e-02,-1.578405052423477173e-01,2.846993878483772278e-02,1.307038664817810059e-01,-1.862716078758239746e-01,4.768856614828109741e-02,-3.558447584509849548e-02,-9.086710959672927856e-02,2.758855745196342468e-02,-3.365302085876464844e-01,-1.489547453820705414e-02,1.561198979616165161e-01,1.284605264663696289e-01,1.232382655143737793e-01,-1.334750950336456299e-01,1.595100462436676025e-01,-5.732654780149459839e-02,-1.469794064760208130e-01,1.980797201395034790e-01,5.383719503879547119e-02,2.700418829917907715e-01,-9.574550390243530273e-02,1.557711511850357056e-01,2.506774365901947021e-01,1.718558371067047119e-01,3.556827306747436523e-01,8.436345309019088745e-02,1.579838693141937256e-01,2.503080666065216064e-02,-9.572073072195053101e-02,2.271536886692047119e-01,-9.292400628328323364e-02,1.173774600028991699e-01,9.768094122409820557e-02,9.355169534683227539e-02,-6.227027624845504761e-02,-9.725784510374069214e-02,2.782953977584838867e-01,-7.224456220865249634e-02,-1.267230212688446045e-01,-1.458693593740463257e-01,2.913854084908962250e-02,2.485671490430831909e-01,-9.571129828691482544e-02,-5.587070435285568237e-02,-6.856697052717208862e-02,-3.809592500329017639e-02,-1.919449269771575928e-01,5.171814002096652985e-03,1.514008641242980957e-01,1.822120696306228638e-01,9.275293350219726562e-02,-1.881427466869354248e-01,-8.042454719543457031e-02,-7.692572474479675293e-02,1.266751885414123535e-01,-3.251119330525398254e-02,1.552540361881256104e-01,-8.392111212015151978e-02,-7.556192576885223389e-02,2.569138407707214355e-01,2.120077013969421387e-01,-1.785986125469207764e-01,-1.474277395755052567e-02,-7.289515435695648193e-02,-3.197792172431945801e-02,-4.207193478941917419e-02,-2.590695321559906006e-01,-4.003225266933441162e-01,-6.016676127910614014e-02,1.768189668655395508e-02,1.142443865537643433e-01
1.059136167168617249e-01,2.878611534833908081e-02,-2.488436177372932434e-02,1.040171924978494644e-02,1.601518988609313965e-01,-6.158716231584548950e-02,-1.225889772176742554e-01,-1.032425761222839355e-01,-7.615429162979125977e-02,6.700796633958816528e-02,1.838522106409072876e-01,5.209073424339294434e-02,9.550461918115615845e-02,-1.382347643375396729e-01,-4.590190201997756958e-02,-2.255571037530899048e-01,6.682866066694259644e-02,-2.391835898160934448e-01,4.218701273202896118e-03,-1.206431258469820023e-02,-2.303430289030075073e-01,-1.275811810046434402e-02,-4.771451652050018311e-02,8.505258709192276001e-02,-8.503900468349456787e-02,-3.291015978902578354e-03,1.147220563143491745e-02,1.725161522626876831e-01,-1.286191400140523911e-02,-5.109133198857307434e-02,1.209408342838287354e-01,-9.395582228899002075e-02,2.701726928353309631e-02,7.093800604343414307e-02,-1.765488460659980774e-02,-2.334856837987899780e-01,2.217851728200912476e-01,3.091361140832304955e-03,1.703768409788608551e-02,1.373547017574310303e-01,2.025566250085830688e-01,-1.190406307578086853e-01,4.581461846828460693e-02,-9.769027680158615112e-02,-9.483777731657028198e-02,1.652741581201553345e-01,-1.853309720754623413e-01,-2.283275127410888672e-03,-1.701407879590988159e-01,-1.690969988703727722e-02,-8.377009630203247070e-02,4.334318637847900391e-02,-7.783824205398559570e-02,-2.767385840415954590e-01,6.112600862979888916e-02,1.924484074115753174e-01,-1.021046414971351624e-01,8.226847648620605469e-02,1.001494377851486206e-01,-9.955331683158874512e-02,6.350791454315185547e-02,-6.142542883753776550e-02,2.698986558243632317e-03,5.880491435527801514e-02,-8.985438197851181030e-02,2.025638818740844727e-01,1.073194202035665512e-02,1.442567408084869385e-01,-1.516965404152870178e-02,-2.450598869472742081e-03,7.342559099197387695e-02,2.151409983634948730e-01,4.846224561333656311e-02,-1.400614040903747082e-03,1.301447600126266479e-01,-2.790869772434234619e-02,8.849966526031494141e-02,-1.580187678337097168e-01,6.313877552747726440e-02,-2.161662131547927856e-01,-5.808276310563087463e-02,-2.170851454138755798e-02,-1.339880228042602539e-01,4.319471865892410278e-02,5.529289320111274719e-02,-1.138598751276731491e-02,-1.274943649768829346e-01,2.301602959632873535e-01,1.603236943483352661e-01,-3.677488863468170166e-02,7.268620282411575317e-02,-6.843678653240203857e-02,-1.106763705611228943e-01,2.572386059910058975e-03,-4.742071405053138733e-02,-6.886669248342514038e-02,8.968451619148254395e-02,1.798699349164962769e-01,9.265511482954025269e-02,-1.109236702322959900e-01,-1.509879827499389648e-01,-1.156644299626350403e-01,5.842055752873420715e-02,-7.245562970638275146e-02,-1.372046768665313721e-01,4.062546789646148682e-02,-5.340415611863136292e-02,-2.710716724395751953e-01,1.588419228792190552e-01,-2.126272916793823242e-01,-8.509336411952972412e-02,2.068107277154922485e-01,1.250787377357482910e-01,-2.580516636371612549e-01,1.096801087260246277e-01,-1.698611974716186523e-01,-4.507534205913543701e-02,3.123880624771118164e-01,7.712090760469436646e-02,5.756124854087829590e-02,-9.423840045928955078e-02,4.043302312493324280e-02,-1.132112890481948853e-01,3.044090867042541504e-01,8.336354792118072510e-02,1.649298369884490967e-01,1.555999815464019775e-01,5.417336523532867432e-02,1.955581754446029663e-01,-4.437162727117538452e-02,-1.421290487051010132e-01,-1.620455235242843628e-01,2.443347424268722534e-01,-3.544487059116363525e-02,-1.291206032037734985e-01,-9.172434359788894653e-02,9.974794834852218628e-02,-8.246707729995250702e-03,-2.105476148426532745e-02,-1.252079457044601440e-01,-9.069108963012695312e-02,-1.419448554515838623e-01,-1.011839415878057480e-02,-2.190913707017898560e-01
1.120764315128326416e-01,-3.181495964527130127e-01,-1.266379058361053467e-01,5.488460138440132141e-02,-1.032532751560211182e-01,-4.862214997410774231e-02,3.945789486169815063e-02,2.813846990466117859e-02,-1.681550890207290649e-01,1.015911623835563660e-01,1.720451861619949341e-01,3.323668497614562511e-04,7.305601239204406738e-02,1.323852092027664185e-01,-7.807309925556182861e-02,-1.044994071125984192e-01,6.587798148393630981e-02,-1.231376230716705322e-01,1.519612967967987061e-01,-8.689347654581069946e-02,1.706620901823043823e-01,-1.719524711370468140e-01,1.297121495008468628e-01,2.479756176471710205e-01,-1.391176879405975342e-01,1.415162831544876099e-01,3.564998507499694824e-01,-3.863914404064416885e-03,1.424582600593566895e-01,5.269325524568557739e-02,-2.217362970113754272e-01,-9.830885380506515503e-02,-7.790520787239074707e-02,-7.763262093067169189e-02,-1.806493848562240601e-02,-8.996574580669403076e-02,1.044292077422142029e-01,2.408128976821899414e-01,-1.352890133857727051e-01,-1.757636070251464844e-01,-6.643915921449661255e-02,1.508118808269500732e-01,-1.747647821903228760e-01,-5.979009717702865601e-02,1.998323202133178711e-02,-1.171807199716567993e-01,2.004209347069263458e-02,-9.243161231279373169e-02,-1.291736811399459839e-01,8.400820940732955933e-02,2.455261498689651489e-01,8.748272061347961426e-02,1.063880771398544312e-01,-7.998187839984893799e-02,1.151044070720672607e-01,-1.360439416021108627e-02,3.529971092939376831e-02,-2.989354543387889862e-02,-5.874242261052131653e-02,-3.576351329684257507e-02,-4.107013344764709473e-02,1.053640171885490417e-01,-3.905426710844039917e-02,-9.585600346326828003e-02,-4.561617225408554077e-02,-2.525624036788940430e-01,-1.608776599168777466e-01,-6.190151721239089966e-02,-1.877748072147369385e-01,-1.658207476139068604e-01,-1.218577623367309570e-01,-1.034494414925575256e-01,-3.696896135807037354e-02,1.071968004107475281e-01,-8.899261802434921265e-02,1.016397178173065186e-01,-1.160303279757499695e-01,-1.775887794792652130e-02,-1.681527197360992432e-01,-3.354520350694656372e-02,-3.096686862409114838e-02,1.781494617462158203e-01,1.886609569191932678e-02,7.935977727174758911e-02,-9.868722409009933472e-02,-8.395136892795562744e-02,-1.510646641254425049e-01,-1.333013176918029785e-01,-1.635568216443061829e-02,2.592734806239604950e-02,1.839209347963333130e-01,1.232789158821105957e-01,3.008966445922851562e-01,1.051160916686058044e-01,9.082237631082534790e-02,-1.261911094188690186e-01,-2.631691843271255493e-02,7.123246043920516968e-02,8.236382901668548584e-02,9.904482215642929077e-02,3.419423103332519531e-02,2.981008589267730713e-02,1.137338951230049133e-01,-1.434892117977142334e-01,-1.822482794523239136e-01,2.683153450489044189e-01,-1.519915014505386353e-01,-2.204954810440540314e-02,9.257341176271438599e-02,1.364894509315490723e-01,-2.117390185594558716e-01,-1.408245265483856201e-01,6.281660497188568115e-02,-5.791208893060684204e-02,7.058239728212356567e-02,2.140211760997772217e-01,-1.064220219850540161e-01,-1.137044280767440796e-01,4.973120242357254028e-02,1.405695378780364990e-01,7.020087912678718567e-03,-1.564680784940719604e-01,2.350974082946777344e-01,1.831186860799789429e-01,-3.599907085299491882e-02,1.323526799678802490e-01,2.748436667025089264e-02,-6.076386943459510803e-02,-7.365835458040237427e-02,1.747249811887741089e-01,4.982928931713104248e-02,9.255139529705047607e-02,-5.926517769694328308e-02,-4.568714275956153870e-02,5.960168689489364624e-02,-1.957703232765197754e-01,-2.436714172363281250e-01,-4.071045815944671631e-01,-1.676176637411117554e-01,-1.364332437515258789e-01,7.972088456153869629e-02,-3.153243660926818848e-01,-3.567240536212921143e-01,-3.768171072006225586e-01
-1.398876607418060303e-01,-1.033908724784851074e-01,4.305989947170019150e-03,-1.824660040438175201e-02,7.913371920585632324e-02,-6.564082205295562744e-02,6.247928738594055176e-02,-1.323953121900558472e-01,2.781528532505035400e-01,-1.229721009731292725e-01,-1.373672299087047577e-02,1.789172925055027008e-02,-2.279914468526840210e-01,-1.620754450559616089e-01,1.520838439464569092e-01,1.228855643421411514e-02,1.469602584838867188e-01,-6.508918851613998413e-02,-7.912628352642059326e-02,-4.669111594557762146e-02,1.172817200422286987e-01,-3.014676086604595184e-02,1.578350056661292911e-04,7.244560867547988892e-02,1.036800891160964966e-01,2.549201548099517822e-01,2.894028425216674805e-01,6.021976843476295471e-02,6.273674219846725464e-02,1.714526265859603882e-01,-7.732844352722167969e-02,-1.065990999341011047e-01,-6.089996919035911560e-02,9.828369319438934326e-02,-2.604588866233825684e-01,7.845734804868698120e-02,-1.967181563377380371e-01,6.671567261219024658e-02,3.824484720826148987e-02,-2.638088166713714600e-01,2.618075907230377197e-01,1.003884971141815186e-01,-1.133084371685981750e-01,-1.175708249211311340e-01,-1.749802194535732269e-02,-3.916337713599205017e-02,8.128483593463897705e-02,1.054999604821205139e-01,-2.030110806226730347e-01,-6.660225335508584976e-03,4.839156568050384521e-02,-7.311532646417617798e-02,-5.389447510242462158e-02,-1.745262444019317627e-01,5.389280151575803757e-03,-2.957011014223098755e-02,-5.789669603109359741e-02,-4.692807793617248535e-02,-1.051952503621578217e-02,1.538787782192230225e-01,1.311070322990417480e-01,7.344967452809214592e-04,3.436370491981506348e-01,5.203797947615385056e-03,-1.833971589803695679e-02,1.600815951824188232e-01,1.969675868749618530e-01,-1.345823705196380615e-01,2.272062599658966064e-01,-2.324288152158260345e-02,2.366001158952713013e-02,2.238241396844387054e-02,-7.515472918748855591e-02,2.295817434787750244e-01,7.578355818986892700e-02,-2.243070006370544434e-01,-1.431008279323577881e-01,7.249982655048370361e-02,3.497413396835327148e-01,-2.422030568122863770e-01,1.994235515594482422e-01,7.271996140480041504e-02,-4.508456587791442871e-02,-9.527463465929031372e-02,-1.917973607778549194e-01,-1.501917392015457153e-01,7.802627235651016235e-02,-2.826032936573028564e-01,1.106542572379112244e-01,2.603979706764221191e-01,1.652795705012977123e-03,-4.424052312970161438e-02,2.509035766124725342e-01,7.917480170726776123e-02,-1.431372463703155518e-01,8.495340496301651001e-02,2.204648964107036591e-02,9.325133264064788818e-02,1.481922417879104614e-01,5.415331944823265076e-02,-1.245846319943666458e-02,-8.724163472652435303e-02,2.534486055374145508e-01,1.973672807216644287e-01,-2.221352159976959229e-01,-2.002933621406555176e-01,9.512764960527420044e-02,-2.528203725814819336e-01,-7.001034170389175415e-02,-2.006491422653198242e-01,-8.575894683599472046e-02,-1.153733581304550171e-01,-5.521092191338539124e-02,-1.444670110940933228e-01,9.713798016309738159e-02,1.573997437953948975e-01,-2.224715948104858398e-01,4.367451369762420654e-02,4.087480716407299042e-03,-1.749262809753417969e-01,-2.367416173219680786e-01,3.986653871834278107e-03,-6.973183248192071915e-03,-1.279132962226867676e-01,-8.645018935203552246e-02,1.499912738800048828e-01,2.662652134895324707e-01,-9.243942052125930786e-02,8.698502928018569946e-02,-5.293594300746917725e-02,-1.046960949897766113e-01,-5.931354314088821411e-02,1.947782039642333984e-01,1.431585550308227539e-01,7.006018608808517456e-02,-2.292754203081130981e-01,1.186354234814643860e-01,4.372289404273033142e-02,-7.901523262262344360e-02,4.948515817523002625e-02,1.078642234206199646e-01,-3.184795007109642029e-02,-1.153690293431282043e-01,-2.685825526714324951e-01
9.178922325372695923e-02,-1.453457325696945190e-01,9.791125357151031494e-02,-4.937456548213958740e-02,-1.120461225509643555e-01,-1.375090796500444412e-02,4.792213067412376404e-02,2.131850272417068481e-02,1.412795335054397583e-01,-6.632748991250991821e-02,-1.480050683021545410e-01,1.154849305748939514e-01,8.108097314834594727e-02,1.264918316155672073e-02,1.654331386089324951e-02,3.978890180587768555e-02,-5.580586567521095276e-02,2.308966368436813354e-01,-3.399777784943580627e-02,1.022879779338836670e-01,1.089762523770332336e-01,5.822828412055969238e-02,1.681285165250301361e-02,7.758709043264389038e-02,-1.145724877715110779e-01,7.033940404653549194e-02,1.714949868619441986e-02,1.880683451890945435e-01,-1.029136925935745239e-01,1.105573326349258423e-01,1.656069010496139526e-01,-1.040465906262397766e-01,3.282665088772773743e-02,-1.368287354707717896e-01,-1.090402081608772278e-01,-3.169811889529228210e-02,2.094919681549072266e-01,-7.528308779001235962e-02,-1.154220104217529297e-01,-7.676173001527786255e-02,-1.404686570167541504e-01,5.369917675852775574e-02,-1.678367517888545990e-02,6.295210868120193481e-02,-1.390455961227416992e-01,-3.104373440146446228e-02,-2.431266903877258301e-01,-5.360768642276525497e-03,-2.555540800094604492e-01,-3.015036284923553467e-01,-1.524327695369720459e-01,-2.610131502151489258e-01,-4.179317355155944824e-01,-2.126796245574951172e-01,1.933474466204643250e-02,-1.068361941725015640e-02,8.073378354310989380e-02,1.839692294597625732e-01,6.573617924004793167e-03,5.326814018189907074e-03,8.325216919183731079e-02,6.585992127656936646e-02,-8.321027271449565887e-03,-4.456501919776201248e-03,2.188591361045837402e-01,-2.757067233324050903e-02,2.343135327100753784e-02,-4.234828799962997437e-02,3.865624545142054558e-03,1.236624196171760559e-01,-7.357364147901535034e-02,6.222016736865043640e-02,2.868651226162910461e-02,1.942859441041946411e-01,1.259967982769012451e-01,-1.583676189184188843e-01,-1.533754635602235794e-02,-8.780623227357864380e-02,-6.270816922187805176e-02,5.157897248864173889e-02,1.541509479284286499e-01,-2.446091547608375549e-02,2.689510583877563477e-01,-5.014266353100538254e-03,7.568739354610443115e-02,-1.238426119089126587e-01,-2.924050018191337585e-02,6.604971736669540405e-02,-1.396971791982650757e-01,-1.064015626907348633e-01,-4.225454106926918030e-02,7.095273584127426147e-02,7.465903460979461670e-02,4.290750250220298767e-02,-5.351617932319641113e-02,3.590027615427970886e-02,2.079149484634399414e-01,-3.925874084234237671e-02,-2.597338706254959106e-02,-1.627884805202484131e-01,-1.345366686582565308e-01,-3.137658238410949707e-01,-2.703536748886108398e-01,-8.836566656827926636e-02,-4.301701188087463379e-01,-2.907922863960266113e-01,-2.828975319862365723e-01,-2.343913316726684570e-01,9.791412204504013062e-02,-1.341045945882797241e-01,-2.336235642433166504e-01,-6.419342756271362305e-02,2.615975141525268555e-01,-2.005802243947982788e-01,8.967596292495727539e-02,-5.172027274966239929e-02,3.579433262348175049e-02,6.017304211854934692e-02,9.497360140085220337e-02,2.669219076633453369e-01,-4.645203053951263428e-02,8.279789984226226807e-02,-1.573863774538040161e-01,1.763241291046142578e-01,3.596623986959457397e-02,2.319750338792800903e-01,-9.657143801450729370e-02,-4.023557007312774658e-01,-2.055756747722625732e-01,-8.000895380973815918e-02,-1.882091462612152100e-01,-2.244108915328979492e-01,-1.685265451669692993e-01,-1.128253564238548279e-01,-1.612586826086044312e-01,7.695039361715316772e-02,5.580030381679534912e-02,7.599910348653793335e-02,2.074047029018402100e-01,4.650603607296943665e-02,-1.199406832456588745e-01,-6.031487882137298584e-02,-1.057148724794387817e-01,-1.761451959609985352e-01
