-1.185420677065849304e-01,-2.590006887912750244e-01,-8.503606915473937988e-02,-3.183301910758018494e-02,-5.665051564574241638e-02,-5.610687658190727234e-02,-6.167670944705605507e-04,6.901779770851135254e-02,2.812107326462864876e-03,-1.178910955786705017e-01,-2.473150193691253662e-02,2.621861174702644348e-02,-8.229418657720088959e-03,-1.674816198647022247e-02,-6.102532893419265747e-02,-1.781984791159629822e-02,-7.778460532426834106e-02,2.321881055831909180e-02,-3.040267154574394226e-02,-1.523092687129974365e-01,-1.709979474544525146e-01,-1.136632636189460754e-01,-1.413329392671585083e-01,-1.306941062211990356e-01,3.437843546271324158e-02,1.351021416485309601e-02,6.951761245727539062e-02,-7.431991398334503174e-02,-7.169754803180694580e-02,-5.470764636993408203e-02,1.195139512419700623e-01,-5.554423853754997253e-02,-2.820235304534435272e-02,1.205089315772056580e-01,1.608521491289138794e-01,9.690354578197002411e-03,1.427689194679260254e-01,-9.404174983501434326e-02,6.960119120776653290e-03,5.499352887272834778e-02,1.394328325986862183e-01,8.479283004999160767e-02,1.176396086812019348e-01,8.452707529067993164e-02,-5.809214338660240173e-02,1.229079589247703552e-01,6.468868255615234375e-02,-1.769536584615707397e-01,4.720926284790039062e-02,4.235611110925674438e-02,-7.920401543378829956e-02,-2.384561859071254730e-02,-1.971882767975330353e-02,-7.107125967741012573e-02,-1.516416817903518677e-01,-4.462030902504920959e-02,7.811378687620162964e-02,-5.399881303310394287e-02,-5.261956900358200073e-02,3.494476201012730598e-03,-1.676673889160156250e-01,-2.354313153773546219e-03,-4.178531467914581299e-02,4.720157757401466370e-02,-3.854528814554214478e-02,-1.442827433347702026e-01,-6.037886068224906921e-02,-2.184927649796009064e-02,-2.959620440378785133e-03,-3.316859155893325806e-02,-1.784999296069145203e-02,-2.992958389222621918e-02,7.812473922967910767e-02,-2.258433774113655090e-02,2.073739916086196899e-01,-3.463867818936705589e-03,1.145884487777948380e-02,6.697169691324234009e-02,-5.111360922455787659e-02,-1.591097712516784668e-01,-1.250571012496948242e-01,-7.472861558198928833e-02,-2.680099941790103912e-02,6.355327367782592773e-02,-1.006983518600463867e-01,-9.252543002367019653e-02,-6.233569234609603882e-02,1.881420612335205078e-01,-1.489139497280120850e-01,-3.897819900885224342e-03,-2.073109894990921021e-01,-1.940858513116836548e-01,-2.345982193946838379e-01,3.535544127225875854e-02,-6.382717937231063843e-02,-2.540573477745056152e-01,1.719208061695098877e-01,4.763478413224220276e-02,3.688004240393638611e-02,1.863574683666229248e-01,1.681082695722579956e-01,1.272416561841964722e-01,7.074978947639465332e-02,6.461988389492034912e-02,5.165211483836174011e-02,-9.957222640514373779e-02,4.656499251723289490e-02,8.885957300662994385e-02,-2.370391041040420532e-01,-5.118471384048461914e-02,-4.744544997811317444e-02,-2.382966578006744385e-01,-4.810385289601981640e-04,8.327531628310680389e-03,-6.253699958324432373e-02,-2.669673226773738861e-02,7.586570084095001221e-02,1.615024805068969727e-01,2.577671408653259277e-01,8.055051416158676147e-02,8.991659432649612427e-02,1.239701658487319946e-01,-1.454282552003860474e-01,1.996515691280364990e-01,9.173110872507095337e-02,-9.918223321437835693e-02,-1.391952037811279297e-01,-1.297513246536254883e-01,-2.058728933334350586e-01,-2.971622720360755920e-02,-1.020945310592651367e-01,-2.759446799755096436e-01,1.036812514066696167e-01,-9.301155060529708862e-02,-8.588623255491256714e-02,-1.295252293348312378e-01,-2.076244801282882690e-01,-1.885137557983398438e-01,-8.150726556777954102e-02,-4.002011194825172424e-02,-2.535355687141418457e-01,-5.713941529393196106e-02,-1.475753933191299438e-01,-1.674435436725616455e-01,1.056790426373481750e-01,-7.998552918434143066e-02,-1.336971372365951538e-01,2.090147584676742554e-01,-1.217046007513999939e-01,-1.313515007495880127e-01,8.079382032155990601e-02,-2.787800319492816925e-02,-1.497933864593505859e-01,1.292800437659025192e-02,-6.000576168298721313e-02,-3.883187845349311829e-02,-2.132847607135772705e-01,-6.345568597316741943e-02,-6.776283681392669678e-02,-1.823164708912372589e-02,-1.074355989694595337e-01,-7.347992807626724243e-02,-8.382320404052734375e-02,1.112063527107238770e-01,-7.714804261922836304e-03,-7.740389555692672729e-02,4.651832208037376404e-02,-1.685691066086292267e-02,-6.866299360990524292e-02,1.400360465049743652e-01,1.022513508796691895e-01,7.208972238004207611e-04,-2.337382435798645020e-01,-6.553355604410171509e-02,1.508596073836088181e-02,-4.236091673374176025e-02,-1.180383265018463135e-01,5.726186931133270264e-02,-2.589014358818531036e-02,6.948101334273815155e-03,2.312909625470638275e-02,-6.690485775470733643e-02,4.128705710172653198e-02,-8.767773956060409546e-02,-1.860845685005187988e-01,-3.807603567838668823e-02,-3.317300928756594658e-03,-1.154535710811614990e-01,-2.283015251159667969e-01,-5.542719364166259766e-02,-1.661721765995025635e-01,-1.053133383393287659e-01,-1.734347045421600342e-01,-5.840871110558509827e-02,-7.276332378387451172e-02,-1.452677547931671143e-01,-1.514794677495956421e-01,7.510150969028472900e-02,-5.655870959162712097e-02,5.047639831900596619e-02,1.708850450813770294e-02,-8.797760307788848877e-02,1.004246529191732407e-02,-3.685249388217926025e-02,-6.832727789878845215e-02,-1.022514402866363525e-01,-1.947527378797531128e-01,-8.109903335571289062e-02,-5.230013746768236160e-03,1.682847142219543457e-01,-2.761067077517509460e-02,-1.052193269133567810e-01,-2.145148348063230515e-03,-5.498528108000755310e-02,-3.824568539857864380e-02,9.426417527720332146e-04,8.266251534223556519e-03,-3.605385124683380127e-02,-5.865141376852989197e-02,7.105212192982435226e-03,-1.883124560117721558e-02,8.928079158067703247e-02,-1.268474757671356201e-01,-2.426551282405853271e-02,8.833125978708267212e-02,-2.814694494009017944e-02,1.801800169050693512e-02,-1.486647427082061768e-01,-1.161863803863525391e-01,-9.842325001955032349e-02,9.987316280603408813e-02,-4.727592319250106812e-02,-2.140543460845947266e-01,-8.713701367378234863e-02,-1.163723841309547424e-01,-8.102738112211227417e-02,-8.361718803644180298e-02,3.323177248239517212e-02,-1.368392705917358398e-01,-1.114628016948699951e-01,9.371814131736755371e-02,-2.730049006640911102e-02,3.825774416327476501e-02,-1.152964606881141663e-01,-1.418695598840713501e-01,-3.235832601785659790e-02,-1.676140427589416504e-01,-1.347958147525787354e-01,-7.367019541561603546e-03,-1.283645182847976685e-01,9.024211019277572632e-02,6.427947431802749634e-02,-1.908948761411011219e-04,2.088334262371063232e-01,9.628885984420776367e-02,-8.826752752065658569e-02,-1.951497979462146759e-02,-3.429630771279335022e-02,-1.705796420574188232e-01,-2.564460635185241699e-01,-6.796177476644515991e-02,-1.824086755514144897e-01,-2.313291421160101891e-03,6.978674232959747314e-02,-1.575564034283161163e-02,-6.640704721212387085e-02,-1.028556600213050842e-01,-1.942459680140018463e-02,-2.304676622152328491e-01,2.757211960852146149e-02,-2.180567197501659393e-02,2.012217976152896881e-02,-8.599946647882461548e-02,-3.073867224156856537e-02,-3.086372092366218567e-02,6.750763952732086182e-02,6.983771920204162598e-03,-5.888202786445617676e-02,-1.277944892644882202e-01,5.936760455369949341e-02,-1.608076691627502441e-01,5.645444151014089584e-03,-6.796273589134216309e-02,1.382818352431058884e-02,3.123217076063156128e-02,8.179221302270889282e-02,5.450919852592051029e-04,2.152804471552371979e-02,1.420919597148895264e-01,-1.107646152377128601e-01,-2.721191942691802979e-01,2.312850579619407654e-02,-6.019678339362144470e-02,-2.544051110744476318e-01,1.202890351414680481e-01,6.789030879735946655e-02,-1.142626851797103882e-01,7.025373727083206177e-02,-9.835684299468994141e-02,-2.836128324270248413e-02,-6.813247222453355789e-03,6.581187248229980469e-02,-1.445326805114746094e-01,-1.380116771906614304e-02,5.689968541264533997e-02,8.870687335729598999e-02,-2.951061725616455078e-02,6.833290308713912964e-02,-1.714044660329818726e-01,3.794284909963607788e-02,-1.164666377007961273e-02,-1.104971617460250854e-01,-6.298121809959411621e-02,-2.638909779489040375e-02,-5.020588636398315430e-02,1.406192928552627563e-01,-1.925278827548027039e-02,2.940756082534790039e-02,5.093412473797798157e-02,9.510994888842105865e-03,-4.286784306168556213e-02,-1.216137111186981201e-01,-1.017911825329065323e-02,-6.951379776000976562e-02,-1.414322108030319214e-01,-1.256398856639862061e-01,-7.572765648365020752e-02,6.753291934728622437e-02,-1.031079590320587158e-01,-8.115726709365844727e-02,8.138324320316314697e-02,-2.426360268145799637e-03,-1.000628918409347534e-01,-1.850660443305969238e-01,-8.124218881130218506e-02,-2.840971648693084717e-01,-1.416223198175430298e-01,-8.935526758432388306e-02,-2.403876781463623047e-01,-2.432626336812973022e-01,-1.255683898925781250e-01,-1.723077446222305298e-01,-7.223471067845821381e-03,5.161364376544952393e-02,-1.102003082633018494e-01,1.541755944490432739e-01,1.003317013382911682e-01,1.751534454524517059e-02,8.269180357456207275e-02,1.988962590694427490e-01,8.946756273508071899e-02,-1.539258807897567749e-01,-6.625877320766448975e-02,-2.205635234713554382e-02,-1.147163137793540955e-01,-1.871791332960128784e-01,-1.803940534591674805e-01,-2.502294182777404785e-01,-1.335476338863372803e-01,-2.111054658889770508e-01,-2.144285589456558228e-01,-2.267091572284698486e-01,-7.362999767065048218e-02,-1.143203899264335632e-01,-4.675908014178276062e-02,-2.054297029972076416e-01,-1.579398065805435181e-01,-1.381139308214187622e-01,-5.639220029115676880e-02,-1.176546420902013779e-02,1.542576961219310760e-02,2.498403191566467285e-02,5.571722984313964844e-02,-1.456938218325376511e-02,1.386388987302780151e-01,-1.966399252414703369e-01,-1.738727837800979614e-02,-2.202529273927211761e-02,1.109427362680435181e-01,-1.503198407590389252e-03,-4.138031974434852600e-02,3.684446681290864944e-03,-1.020883470773696899e-01,1.060828045010566711e-01,-6.799970567226409912e-02,-3.358896821737289429e-02,5.338550731539726257e-02,7.973075658082962036e-02,1.424366957508027554e-03,-5.599161610007286072e-02,1.874361187219619751e-02,-8.693163841962814331e-02,9.066344797611236572e-02,1.251117140054702759e-01,-7.794087380170822144e-02,4.188374150544404984e-03,-1.321568787097930908e-01,-4.547281563282012939e-02,-1.684351265430450439e-01,-8.140879869461059570e-02,-1.653943061828613281e-01,-2.648808956146240234e-01,-2.061044871807098389e-01,-1.595581620931625366e-01,-3.492519631981849670e-02,-9.923735633492469788e-03,7.607161253690719604e-02,-1.127584129571914673e-01,3.368772193789482117e-02,1.008203402161598206e-01,5.121872946619987488e-02,-8.161593228578567505e-02,6.111526489257812500e-02,8.672374486923217773e-02,-1.109742224216461182e-01,6.240435689687728882e-02,-1.969601213932037354e-01,-1.932339370250701904e-02,-2.890912629663944244e-02,-5.427043884992599487e-02,-7.721751928329467773e-02,-8.696965128183364868e-02,-7.980392873287200928e-02,1.231685746461153030e-02,4.581411927938461304e-02,1.793503165245056152e-01,-8.479179441928863525e-02,1.200190931558609009e-01,1.714892089366912842e-01,1.207877174019813538e-01,6.985525786876678467e-02,3.045444376766681671e-03,2.164154052734375000e-01,-3.284364240244030952e-03,-1.153644174337387085e-01,1.858961880207061768e-01,-8.550616353750228882e-02,-7.180953770875930786e-02,-3.353845700621604919e-02,8.529627323150634766e-02,-1.035813521593809128e-02,3.222069144248962402e-02,4.394470527768135071e-02,-1.386545002460479736e-01,1.663397401571273804e-01,4.479330405592918396e-02,-8.661403506994247437e-02,8.840498328208923340e-02,1.300177127122879028e-01,7.988533377647399902e-02,1.082047075033187866e-01,-4.799910821020603180e-03,-1.333236694335937500e-01,-3.752033784985542297e-02,-9.098154306411743164e-02,-1.825584918260574341e-01,-1.709143444895744324e-02,-4.832904040813446045e-02,-2.124627307057380676e-02,4.394145309925079346e-02,-1.155973691493272781e-02,-8.445242047309875488e-02,-1.851133108139038086e-01,-1.758730113506317139e-01,-1.627059876918792725e-01,-2.009694576263427734e-01,-1.823383569717407227e-01,-9.879514575004577637e-02,-9.030765295028686523e-02,3.322667255997657776e-02,3.613447397947311401e-02,3.966018930077552795e-02,4.389324411749839783e-02,-3.354340046644210815e-02,9.547457098960876465e-02,-1.021070256829261780e-01,-3.371935710310935974e-02,3.631364181637763977e-02,1.731726080179214478e-01,-9.917526692152023315e-02,-5.612880736589431763e-02,-8.112723380327224731e-02,1.154660130850970745e-03,-1.057049036026000977e-01,-1.967072635889053345e-01,-1.902612298727035522e-01,4.109493643045425415e-02,-1.028887107968330383e-01,-4.155586287379264832e-02,1.394573450088500977e-01,-1.119705215096473694e-01,-3.973083570599555969e-02,1.175800636410713196e-01,-1.993443258106708527e-02,-1.544476673007011414e-02,-7.295505143702030182e-03,-1.362681537866592407e-01,-5.639257654547691345e-02,-9.227766096591949463e-02,-1.831914857029914856e-02,-2.005429416894912720e-01,-1.052208915352821350e-01,9.098420850932598114e-03,-3.662980347871780396e-02,-2.305602282285690308e-02,-1.700196117162704468e-01,-8.904343098402023315e-02,1.801550388336181641e-01,-1.006852686405181885e-01,-2.507360279560089111e-02,6.413458287715911865e-02,-4.352082312107086182e-02,-1.832633167505264282e-01,2.614901065826416016e-01,6.394209712743759155e-02,8.494923263788223267e-02,1.190359592437744141e-01,1.060788407921791077e-01,3.429726883769035339e-02,6.659435480833053589e-02,-7.472194731235504150e-02,5.727432295680046082e-02,1.310176104307174683e-01,6.178333982825279236e-02,-6.176378950476646423e-02,-5.189038813114166260e-03,-9.577055275440216064e-02,-1.173835471272468567e-01,-2.027823962271213531e-02,-2.099008560180664062e-01,-9.207790344953536987e-02,-3.589971959590911865e-01,-2.087598294019699097e-01,-2.318980842828750610e-01,-3.751811385154724121e-02,-2.298638820648193359e-01,-1.377914696931838989e-01,-1.176434755325317383e-01,-5.304997786879539490e-02,-8.004499226808547974e-02,-2.022405713796615601e-01,9.208312630653381348e-02,1.738635152578353882e-01,1.024731062352657318e-02,2.863073535263538361e-02,3.821009397506713867e-02,-9.081624448299407959e-02,4.748656973242759705e-02,2.703718282282352448e-02,1.021916195750236511e-01,-1.709629297256469727e-01,-1.655098497867584229e-01,-5.479255691170692444e-02,9.559530019760131836e-02,7.591103762388229370e-02,-8.582685887813568115e-02,-3.183249384164810181e-02,1.753655448555946350e-02,3.214522823691368103e-02,-1.995147168636322021e-01,-8.487400412559509277e-02,2.051789909601211548e-01,-4.981174692511558533e-02,-1.328466236591339111e-01,1.899814307689666748e-01,2.356964051723480225e-01,3.939689323306083679e-02,3.192858397960662842e-01,-9.484054893255233765e-02,-2.422425895929336548e-01,2.817235887050628662e-01,2.702287770807743073e-02,-2.081574648618698120e-01,2.503380477428436279e-01,1.321563720703125000e-01,-1.891607604920864105e-02
-7.397675514221191406e-02,1.175219118595123291e-01,-3.015107661485671997e-02,-1.080427840352058411e-01,-8.655959367752075195e-02,1.052327603101730347e-01,-7.931328564882278442e-02,-3.987629711627960205e-02,3.146220743656158447e-02,-9.250800311565399170e-02,1.014758497476577759e-01,1.438422966748476028e-02,-7.803459465503692627e-02,-1.037148106843233109e-02,4.478304088115692139e-02,-8.679326623678207397e-03,-9.001993387937545776e-02,4.452942311763763428e-02,-3.235271945595741272e-02,4.084381833672523499e-02,-3.512471169233322144e-02,-4.098094627261161804e-02,-1.249102503061294556e-02,1.992436498403549194e-02,-4.542384296655654907e-03,3.464587777853012085e-02,8.124485611915588379e-03,-6.319876760244369507e-02,-9.744865447282791138e-02,-1.169550418853759766e-02,-1.440864615142345428e-02,2.054428122937679291e-02,-9.869285859167575836e-03,-4.438254237174987793e-02,6.871299445629119873e-02,-1.970904916524887085e-01,-1.858938485383987427e-02,-6.908100843429565430e-02,-1.253936998546123505e-02,-3.495213016867637634e-02,-8.349216729402542114e-02,-1.038502156734466553e-01,-2.044201456010341644e-02,8.446569740772247314e-02,-9.503020346164703369e-02,-1.672412753105163574e-01,-5.043913051486015320e-02,6.983122974634170532e-02,-3.986049070954322815e-02,7.176765054464340210e-02,3.965088725090026855e-02,4.194764886051416397e-03,6.066866219043731689e-02,-7.346910983324050903e-02,-1.673346459865570068e-01,-1.408097892999649048e-01,6.466807425022125244e-02,-1.843498796224594116e-01,-3.474115207791328430e-02,8.784205466508865356e-02,-5.578627064824104309e-02,6.140215322375297546e-03,1.008593738079071045e-01,-8.638716489076614380e-02,-1.044594421982765198e-01,4.603748396039009094e-02,-5.758498609066009521e-02,2.876464277505874634e-02,8.461530506610870361e-02,5.366516485810279846e-02,-6.848443299531936646e-02,3.759989514946937561e-02,-2.306746318936347961e-02,-1.443607639521360397e-02,-4.831498116254806519e-02,1.952495425939559937e-02,6.687542796134948730e-02,-3.740454092621803284e-02,5.281214416027069092e-02,6.026316434144973755e-02,-1.198126524686813354e-01,-1.700592041015625000e-01,2.145808190107345581e-02,8.746428042650222778e-02,-1.142670400440692902e-02,-1.201358586549758911e-01,8.151032775640487671e-02,-2.139135599136352539e-01,4.063913226127624512e-02,4.067984875291585922e-03,-7.275644224137067795e-03,-9.185757488012313843e-02,-9.544619359076023102e-03,-1.748223155736923218e-01,-2.403774261474609375e-01,-1.556711085140705109e-02,-1.283224076032638550e-01,-1.061319783329963684e-01,5.178661551326513290e-03,-1.302406042814254761e-01,-8.743049949407577515e-02,-7.155296392738819122e-03,1.126773953437805176e-01,6.712394952774047852e-02,-6.222020089626312256e-02,6.309791654348373413e-02,6.783480197191238403e-02,-2.167546562850475311e-02,1.271356455981731415e-02,1.392928808927536011e-01,4.843205213546752930e-02,-6.467925757169723511e-02,-3.452874347567558289e-02,9.207201004028320312e-02,1.423633936792612076e-02,1.779558807611465454e-01,-3.333457186818122864e-02,-8.501459658145904541e-02,-1.261970102787017822e-01,-7.951796799898147583e-02,3.534901887178421021e-02,-3.172504529356956482e-02,-4.989761486649513245e-02,-4.461170360445976257e-02,-7.098150253295898438e-02,-6.099806725978851318e-02,5.364336073398590088e-02,-2.547871321439743042e-02,-2.429256215691566467e-02,-2.264232374727725983e-03,6.465401966124773026e-03,-1.123085767030715942e-01,-1.787741780281066895e-01,5.460599437355995178e-02,6.269688904285430908e-02,-4.837704822421073914e-02,-1.113303825259208679e-01,-1.134158298373222351e-01,-8.159974217414855957e-02,1.194587796926498413e-01,2.429463714361190796e-02,9.486905485391616821e-02,1.368350684642791748e-01,3.689716383814811707e-02,1.361253857612609863e-01,7.211229950189590454e-02,-3.561211051419377327e-03,-5.000686645507812500e-02,-9.009410440921783447e-02,3.053175285458564758e-03,-1.271515786647796631e-01,1.562106306664645672e-03,6.582809239625930786e-02,-6.863092631101608276e-02,1.904989592730998993e-02,-3.903255984187126160e-02,-6.020609661936759949e-02,-6.866905093193054199e-02,-7.318060100078582764e-02,-3.369635343551635742e-02,-1.763479039072990417e-02,-1.126847416162490845e-01,-2.532322518527507782e-02,2.375104092061519623e-02,-1.522971224039793015e-02,-1.574266850948333740e-01,-7.223678380250930786e-02,2.848747558891773224e-02,-9.995334595441818237e-02,2.577693946659564972e-02,7.960969209671020508e-02,-1.262229084968566895e-01,-5.980860814452171326e-02,-1.603467464447021484e-01,5.345433205366134644e-02,-8.568208664655685425e-02,1.814495585858821869e-02,2.520323731005191803e-02,-1.159314960241317749e-01,1.008487567305564880e-01,1.964814402163028717e-02,7.911200821399688721e-02,-1.393048018217086792e-01,1.925140619277954102e-02,8.564136922359466553e-02,-3.324352577328681946e-02,6.513151526451110840e-02,1.241131201386451721e-01,1.143126189708709717e-01,7.288706302642822266e-02,-6.573402881622314453e-02,-6.090763211250305176e-02,5.920397117733955383e-02,9.733810089528560638e-03,-4.541544243693351746e-02,-2.882629400119185448e-03,-7.433496415615081787e-02,-4.121439158916473389e-02,-3.675200790166854858e-02,-7.824479788541793823e-02,6.212186068296432495e-02,-1.038966327905654907e-01,-6.813345104455947876e-02,-1.152947545051574707e-02,-3.293736651539802551e-02,-5.852306727319955826e-03,-5.795983225107192993e-02,-5.664708092808723450e-02,-6.466571986675262451e-02,2.934720925986766815e-02,-8.955462276935577393e-02,-3.396299108862876892e-02,-2.248302102088928223e-02,-7.788414508104324341e-02,-1.404553204774856567e-01,-2.284155040979385376e-02,-2.147437632083892822e-01,-5.426621809601783752e-02,1.596835069358348846e-02,-2.618462443351745605e-01,6.504965573549270630e-02,1.608035527169704437e-02,-1.944340765476226807e-01,5.248861387372016907e-02,1.339046359062194824e-01,8.802392520010471344e-03,-1.516101956367492676e-01,5.854825675487518311e-02,-1.257651895284652710e-01,-1.119778230786323547e-01,-2.246962860226631165e-02,-3.301212936639785767e-02,-1.734338551759719849e-01,-4.697075486183166504e-02,-5.260161310434341431e-02,-8.273600041866302490e-02,-8.864815533161163330e-02,-1.300762221217155457e-02,-1.122720539569854736e-02,1.170602440834045410e-01,8.614934235811233521e-02,2.882854454219341278e-02,7.999350130558013916e-02,-1.447622030973434448e-01,-1.530895829200744629e-01,-1.911489479243755341e-02,-1.141052618622779846e-01,-1.465014065615832806e-04,5.268513411283493042e-02,-1.681776642799377441e-01,8.219530805945396423e-03,1.193052977323532104e-01,-5.875964462757110596e-02,4.663528408855199814e-03,3.301540017127990723e-02,-7.238327711820602417e-02,-3.206909820437431335e-02,2.287202328443527222e-02,-1.815560162067413330e-01,-4.776067286729812622e-02,2.054511010646820068e-02,9.828364849090576172e-02,-1.616116315126419067e-01,-1.270125955343246460e-01,1.287596859037876129e-02,-5.209667235612869263e-02,-3.993538022041320801e-02,-1.981602609157562256e-02,-1.354125589132308960e-01,2.642043121159076691e-02,-2.591687068343162537e-02,2.020358107984066010e-02,-1.427719183266162872e-02,6.873764842748641968e-02,4.275272786617279053e-02,-9.404736012220382690e-02,-1.920685358345508575e-02,5.376835167407989502e-02,-3.036714158952236176e-02,-2.240101397037506104e-01,-9.637013822793960571e-02,-1.214317530393600464e-01,-1.185352206230163574e-01,-1.738201826810836792e-02,-2.611238956451416016e-01,-7.491984404623508453e-03,-1.358636021614074707e-01,-1.144772991538047791e-01,-1.271837949752807617e-01,1.300034523010253906e-01,-2.671374380588531494e-02,-1.295659840106964111e-01,-4.766128212213516235e-02,4.679134488105773926e-02,-1.956802327185869217e-03,1.899265199899673462e-01,-7.789519429206848145e-02,8.885404467582702637e-02,1.014330685138702393e-01,-1.702348738908767700e-01,4.358618333935737610e-02,2.280821837484836578e-02,9.688393212854862213e-03,5.746390670537948608e-02,-1.287455856800079346e-01,-4.601078480482101440e-02,2.428131923079490662e-02,7.956862449645996094e-02,-4.029619693756103516e-02,1.300695985555648804e-01,-1.623621582984924316e-02,-5.935493856668472290e-02,-7.851255126297473907e-03,-5.816676467657089233e-02,-7.285449653863906860e-02,3.595006093382835388e-02,6.079480424523353577e-02,-1.070872973650693893e-02,1.864158809185028076e-01,-1.725998520851135254e-02,-2.449116855859756470e-02,6.831150501966476440e-02,1.479107141494750977e-01,-1.584148406982421875e-01,2.905706129968166351e-02,-3.300473839044570923e-02,-6.066586822271347046e-02,5.784533452242612839e-03,-7.581448554992675781e-02,8.755634725093841553e-02,2.178574167191982269e-02,3.749286010861396790e-02,-9.041777253150939941e-02,-6.898700445890426636e-02,-1.070732995867729187e-01,-1.087753940373659134e-02,1.225977092981338501e-01,-8.749034255743026733e-02,1.681597232818603516e-01,8.673384040594100952e-02,1.331279426813125610e-01,2.463650107383728027e-01,4.022484272718429565e-02,1.183121055364608765e-01,6.733579188585281372e-02,-4.484178498387336731e-02,1.363435573875904083e-02,6.641224026679992676e-02,-1.031470485031604767e-02,-2.731060422956943512e-02,-2.168278954923152924e-02,4.273594543337821960e-02,4.249064624309539795e-02,1.508508250117301941e-02,2.288170531392097473e-02,-5.700576305389404297e-02,2.154922811314463615e-03,4.646913707256317139e-02,-7.694610953330993652e-02,9.788256883621215820e-02,-1.279329061508178711e-01,2.861106768250465393e-02,-5.939563736319541931e-02,8.805841952562332153e-02,6.712209433317184448e-02,-6.136413197964429855e-03,-6.342954188585281372e-02,-6.742873042821884155e-02,-7.651954144239425659e-02,-7.718566805124282837e-02,-2.893048711121082306e-02,1.315454244613647461e-01,-1.161665990948677063e-01,3.818008303642272949e-02,-8.410096168518066406e-03,-1.277177035808563232e-01,2.581264078617095947e-02,3.619954362511634827e-02,-1.072954535484313965e-01,8.900617063045501709e-02,-5.333038792014122009e-02,-1.365306973457336426e-01,-1.073760464787483215e-01,-1.302943006157875061e-02,-1.724478751420974731e-01,1.672914177179336548e-01,-1.257752254605293274e-02,9.420519322156906128e-02,-2.578037325292825699e-03,-5.843074247241020203e-02,5.359153822064399719e-02,3.822078555822372437e-02,1.308095753192901611e-01,-3.199461475014686584e-02,-6.017327681183815002e-02,-2.698342688381671906e-02,4.864414408802986145e-02,-1.046787202358245850e-02,4.459319263696670532e-02,1.410426348447799683e-01,-6.565518677234649658e-02,8.976922929286956787e-02,5.125402659177780151e-02,-3.123924508690834045e-02,-2.318417467176914215e-02,-1.229230016469955444e-01,7.750905305147171021e-02,1.049142256379127502e-01,-1.808479614555835724e-02,9.985914826393127441e-02,2.204160690307617188e-01,-1.300433278083801270e-01,4.393101111054420471e-02,9.700962901115417480e-02,-4.454352706670761108e-02,-1.249273940920829773e-01,1.086117401719093323e-01,-2.451661229133605957e-02,-3.149184957146644592e-02,9.711337834596633911e-02,1.314224600791931152e-01,4.540128633379936218e-02,1.133063957095146179e-01,-7.600078731775283813e-02,-3.380252420902252197e-02,-4.077944159507751465e-02,-1.764500290155410767e-01,-5.415888875722885132e-02,1.846439391374588013e-02,-3.368865698575973511e-02,1.664335466921329498e-02,-1.102147996425628662e-01,3.082120418548583984e-02,-1.598205231130123138e-02,8.501347154378890991e-02,-3.931589797139167786e-02,-1.355604976415634155e-01,1.204894389957189560e-02,8.682941645383834839e-02,-6.285361200571060181e-02,-1.561692059040069580e-01,3.577928617596626282e-02,-1.580513715744018555e-01,-1.470537781715393066e-01,-3.855228656902909279e-03,-7.939599454402923584e-02,-8.747957646846771240e-02,-1.220028251409530640e-01,-1.390681415796279907e-01,6.473709642887115479e-02,8.733786642551422119e-02,1.592108234763145447e-02,-1.258979141712188721e-01,5.514393094927072525e-03,8.097303099930286407e-03,-1.425193343311548233e-02,5.027484148740768433e-02,3.155681863427162170e-02,-8.335809409618377686e-02,-4.599354043602943420e-02,1.330865174531936646e-01,-1.463021524250507355e-02,1.475215703248977661e-02,1.502851843833923340e-01,6.614194065332412720e-02,1.507406122982501984e-02,2.239950746297836304e-02,-1.203816756606101990e-02,7.984812557697296143e-02,-2.979260124266147614e-02,-1.997338235378265381e-01,-5.074422433972358704e-02,-9.613978862762451172e-02,-2.784487977623939514e-02,-1.597969681024551392e-01,-6.607604771852493286e-02,-1.332934647798538208e-01,-1.307520568370819092e-01,1.623719036579132080e-01,-9.586788713932037354e-02,-6.461641937494277954e-02,5.825171619653701782e-02,-8.012010902166366577e-02,6.978134810924530029e-02,1.332817673683166504e-01,-3.135802596807479858e-02,-3.069857507944107056e-02,-4.286662489175796509e-02,-7.847960293292999268e-02,-3.652624785900115967e-02,7.379782851785421371e-03,-1.823354810476303101e-01,-4.363997839391231537e-03,-3.836973011493682861e-02,-1.632938832044601440e-01,-4.382830113172531128e-02,-1.233976036310195923e-01,-3.228257223963737488e-02,2.342356555163860321e-02,3.561737760901451111e-02,-1.052838861942291260e-01,-9.748622775077819824e-02,1.587310060858726501e-02,-1.098155081272125244e-01,-3.228341462090611458e-03,-1.184497848153114319e-01,-1.429050862789154053e-01,-2.995176985859870911e-02,-6.129733100533485413e-02,-1.554864943027496338e-01,-9.740831702947616577e-02,-2.041502594947814941e-01,-4.426834359765052795e-02,3.806227073073387146e-02,9.124054014682769775e-02,-5.739296972751617432e-02,1.202115789055824280e-01,6.138737127184867859e-02,4.793822392821311951e-02,6.358600407838821411e-02,-5.915899761021137238e-03,-9.832693263888359070e-03,-1.404170691967010498e-01,8.204531855881214142e-03,-2.822957001626491547e-02,-6.325680762529373169e-02,-1.678803414106369019e-01,6.644023209810256958e-02,-1.385664492845535278e-01,-4.702587053179740906e-02,-7.551107555627822876e-02,-2.559056878089904785e-01,-1.360849142074584961e-01,-8.591355383396148682e-02,-4.540755227208137512e-02,-5.819194391369819641e-02,-1.309996992349624634e-01,-1.856417767703533173e-02,-3.999337926506996155e-02,-1.749894320964813232e-01,-1.179517898708581924e-02,1.017121151089668274e-01,-2.358272206038236618e-03,-7.309162616729736328e-02,1.125568896532058716e-02,-6.930774450302124023e-02,-3.718917816877365112e-02,2.167052589356899261e-02,6.135183572769165039e-02,-1.216559186577796936e-01,1.251678448170423508e-02,1.937065646052360535e-02,9.946780279278755188e-03,-1.511432975530624390e-01,-3.129474818706512451e-02,-3.564321249723434448e-02,4.144340753555297852e-02,-5.680999159812927246e-02,-3.564362600445747375e-02,-1.385153830051422119e-01,3.267618268728256226e-02,-3.934380412101745605e-02,-1.374761164188385010e-01,1.093246415257453918e-02,2.060819976031780243e-02,-1.118708103895187378e-01,-2.827996201813220978e-02,9.838571399450302124e-02,-4.455827642232179642e-03,3.377863392233848572e-02,1.247132122516632080e-01,-1.703286468982696533e-01,1.930106803774833679e-02,1.499377489089965820e-01,-1.100623756647109985e-01,-1.207901015877723694e-01
1.076266616582870483e-01,-2.754816040396690369e-02,-1.223286539316177368e-01,-1.034513935446739197e-01,-8.474946767091751099e-02,-2.007857412099838257e-01,-2.693868577480316162e-01,-1.351926242932677269e-03,3.852998837828636169e-02,-1.725463867187500000e-01,-1.654092520475387573e-01,-5.855998396873474121e-02,-1.004971936345100403e-01,-4.883709549903869629e-02,-1.076669916510581970e-01,-2.634024247527122498e-03,2.806067466735839844e-02,4.077222943305969238e-02,-1.214358210563659668e-01,-4.549967125058174133e-02,-1.273677498102188110e-01,6.505361292511224747e-03,-5.814039148390293121e-03,-1.827882230281829834e-01,-6.881454586982727051e-02,-4.476648569107055664e-02,-7.318092137575149536e-02,3.031291812658309937e-02,9.626334905624389648e-02,6.056860461831092834e-02,-8.893273770809173584e-02,5.788664519786834717e-02,9.288746118545532227e-02,7.668022811412811279e-02,7.415018230676651001e-02,2.140858322381973267e-01,5.291635170578956604e-02,-3.296130336821079254e-03,6.714127957820892334e-02,-1.068708449602127075e-01,-5.874642010894604027e-05,-2.658880688250064850e-02,-2.378174103796482086e-03,-5.696169286966323853e-02,-5.221756920218467712e-02,-2.886654734611511230e-01,-1.731425374746322632e-01,1.442225575447082520e-01,-1.451932489871978760e-01,2.180785685777664185e-02,1.032977849245071411e-01,-2.236280590295791626e-02,8.445729315280914307e-02,7.270438224077224731e-02,-2.112272381782531738e-01,-5.328691378235816956e-02,-5.681598931550979614e-02,-1.688397824764251709e-01,-2.680293917655944824e-01,-2.699711620807647705e-01,6.057157367467880249e-02,-1.938321590423583984e-01,4.555838927626609802e-02,-3.737308084964752197e-02,1.320955529808998108e-02,-5.224980786442756653e-02,-7.066022604703903198e-02,-1.114865839481353760e-01,-1.308903545141220093e-01,-9.165217727422714233e-02,-4.628835991024971008e-02,-1.032136678695678711e-01,-7.155762985348701477e-03,-3.749734023585915565e-03,-4.730908945202827454e-02,2.658746838569641113e-01,1.385500729084014893e-01,-7.263466250151395798e-03,1.065947264432907104e-01,-8.037823252379894257e-03,2.455554436892271042e-03,-6.032998207956552505e-03,-5.802464112639427185e-02,-1.050810441374778748e-01,-4.422518610954284668e-02,-3.840209916234016418e-02,-1.242941245436668396e-01,-1.631378680467605591e-01,-8.881337940692901611e-02,-7.521451264619827271e-02,-5.552941001951694489e-03,-1.216611266136169434e-01,-2.394352555274963379e-01,1.136789247393608093e-01,-2.624416351318359375e-02,-2.224174290895462036e-01,-2.161910571157932281e-02,-8.812545798718929291e-03,3.383947908878326416e-02,-8.000852912664413452e-02,5.656129121780395508e-02,-1.211640983819961548e-02,5.711929872632026672e-02,4.915520176291465759e-02,7.212177664041519165e-02,2.441997379064559937e-01,1.460172683000564575e-01,-9.915760718286037445e-03,7.197176665067672729e-02,2.312083914875984192e-02,-5.395896360278129578e-02,1.480002328753471375e-02,6.654582172632217407e-02,1.551623046398162842e-01,1.695492118597030640e-01,4.579187184572219849e-02,2.838037535548210144e-02,-4.662594199180603027e-02,-8.368163555860519409e-02,-6.158081442117691040e-02,1.479796767234802246e-01,1.020664274692535400e-01,-6.616862863302230835e-02,-1.369739510118961334e-02,6.986887753009796143e-02,-7.050123810768127441e-02,-5.733210965991020203e-02,4.768887534737586975e-02,-1.057107821106910706e-01,-5.553746595978736877e-03,-2.960574999451637268e-02,1.129491627216339111e-02,-7.575453817844390869e-02,-1.649405807256698608e-01,4.359373822808265686e-02,5.340404435992240906e-02,5.692075937986373901e-02,3.351601213216781616e-02,-3.922921046614646912e-02,-7.459340989589691162e-02,-3.151212260127067566e-02,-6.421060115098953247e-02,-9.443108737468719482e-02,-1.008529812097549438e-01,-1.575008630752563477e-01,-1.267307102680206299e-01,8.157483302056789398e-03,-1.975478976964950562e-01,-7.989933341741561890e-02,9.979683160781860352e-02,-8.541908115148544312e-02,-1.399252563714981079e-01,1.048645600676536560e-01,-1.300186067819595337e-01,-5.550201050937175751e-03,5.514176562428474426e-02,-3.172544017434120178e-02,-4.365158453583717346e-02,-1.993091553449630737e-01,-4.173320159316062927e-02,-8.624394237995147705e-02,-4.998360946774482727e-02,7.692864537239074707e-02,3.985206782817840576e-02,9.299888461828231812e-02,8.094055205583572388e-02,2.001887373626232147e-02,-1.210104078054428101e-01,-9.842935018241405487e-03,5.212906282395124435e-03,-7.812476158142089844e-02,6.497517228126525879e-02,-1.452786818845197558e-04,-7.956079393625259399e-02,-8.299393206834793091e-02,-2.844039164483547211e-02,-4.016577824950218201e-02,-5.207503959536552429e-02,-1.108923107385635376e-01,-1.096692383289337158e-01,1.183947101235389709e-01,1.023064833134412766e-02,1.609907299280166626e-01,6.409184634685516357e-02,6.074817851185798645e-03,8.614490926265716553e-02,1.533114612102508545e-01,1.146442145109176636e-01,-1.256194412708282471e-01,-6.726910918951034546e-02,-1.015474721789360046e-01,9.512862563133239746e-02,-3.664777055382728577e-02,1.572834700345993042e-02,-1.923055201768875122e-02,4.038310796022415161e-02,-2.161664143204689026e-02,-1.319964081048965454e-01,1.437219679355621338e-01,-1.736152917146682739e-01,-3.431268036365509033e-01,6.066854298114776611e-02,-4.231322556734085083e-03,-1.446023732423782349e-01,-1.477149035781621933e-02,1.343234069645404816e-02,-2.383829094469547272e-02,-9.724022448062896729e-02,-8.765511214733123779e-02,1.210443377494812012e-01,-6.718746572732925415e-02,-3.624547645449638367e-02,1.431130468845367432e-01,-7.208723574876785278e-02,-9.475696086883544922e-02,1.060944870114326477e-01,-6.473480165004730225e-02,-2.002782523632049561e-01,-7.515922933816909790e-02,-1.046669781208038330e-01,-8.023871481418609619e-02,-1.328249722719192505e-01,-2.593623995780944824e-01,-1.885652244091033936e-01,-1.079559177160263062e-01,5.266758613288402557e-03,-3.285903111100196838e-02,5.100054293870925903e-02,-3.879147768020629883e-02,2.635895833373069763e-02,-4.246678575873374939e-02,1.009025052189826965e-01,-1.497854292392730713e-02,-1.987191848456859589e-02,2.916052378714084625e-02,7.246782630681991577e-02,-1.299048513174057007e-01,-1.899181120097637177e-02,-2.282279878854751587e-01,-9.408581256866455078e-02,-7.598972320556640625e-02,-1.906809210777282715e-01,-1.809321492910385132e-01,4.065885150339454412e-04,-2.583381533622741699e-01,-2.836574316024780273e-01,-1.900895833969116211e-01,-9.303508698940277100e-02,-8.359916508197784424e-02,-7.084226608276367188e-02,-1.589776873588562012e-01,-1.566981226205825806e-01,1.663127392530441284e-01,-1.935331523418426514e-02,-2.024251073598861694e-01,2.181933373212814331e-01,-1.378688961267471313e-01,-7.231616228818893433e-02,6.636942178010940552e-02,-8.539780229330062866e-02,-3.636455163359642029e-02,-4.586869105696678162e-02,-7.985910773277282715e-02,2.471908330917358398e-01,-4.503253474831581116e-02,4.877120256423950195e-03,4.979594424366950989e-02,7.106754928827285767e-02,5.691630020737648010e-02,-4.889933019876480103e-02,-1.235046088695526123e-01,8.903910964727401733e-02,6.139526888728141785e-02,4.490572959184646606e-02,3.468260914087295532e-02,4.073296487331390381e-02,4.621127247810363770e-02,1.041380539536476135e-01,1.774660125374794006e-02,-3.354490175843238831e-02,-2.279836237430572510e-01,-1.689593195915222168e-01,-3.268747404217720032e-02,-1.229949891567230225e-01,-9.260077029466629028e-02,-1.482875458896160126e-02,7.276666909456253052e-02,-5.750913918018341064e-02,-2.420167922973632812e-01,1.278751413337886333e-03,-3.984406962990760803e-02,-1.322129666805267334e-01,-4.276208207011222839e-02,6.158849596977233887e-02,-9.881031513214111328e-02,-1.633471399545669556e-01,-1.392735987901687622e-01,-8.802360296249389648e-02,-1.803876087069511414e-02,-1.079275459051132202e-01,-4.361328110098838806e-02,-7.909927517175674438e-02,-2.000433951616287231e-01,-1.628686115145683289e-02,-2.332566119730472565e-02,-1.838215291500091553e-01,1.224832013249397278e-01,-1.146139502525329590e-01,-2.110229432582855225e-01,-1.853202469646930695e-02,-1.124438419938087463e-01,-1.377959400415420532e-01,-1.155333220958709717e-01,-2.072286903858184814e-01,-1.595976948738098145e-01,-2.986372709274291992e-01,-1.540116872638463974e-02,8.172478526830673218e-02,-2.175744622945785522e-02,-4.175851121544837952e-02,1.035310104489326477e-01,5.624246224761009216e-02,9.170047193765640259e-02,-7.696389406919479370e-02,-2.709326893091201782e-02,-8.598506450653076172e-02,-5.446177721023559570e-02,-3.025811724364757538e-02,-2.890973910689353943e-02,-3.499332442879676819e-02,6.928039342164993286e-02,3.787798061966896057e-02,-4.221482574939727783e-02,-1.449404805898666382e-01,-5.586636811494827271e-02,-4.994694888591766357e-01,-1.366956084966659546e-01,-6.165418401360511780e-02,-2.721063196659088135e-01,-1.107039377093315125e-01,-3.058939874172210693e-01,7.628970313817262650e-03,1.801915168762207031e-01,2.888603694736957550e-02,-2.672457881271839142e-02,2.081828005611896515e-02,6.944043934345245361e-02,-6.722635775804519653e-02,2.145816087722778320e-01,2.085616886615753174e-01,7.072984427213668823e-02,-1.181781478226184845e-02,7.495760917663574219e-02,-4.659313708543777466e-02,1.497998088598251343e-02,-3.193834051489830017e-02,-4.997553303837776184e-02,2.306296490132808685e-02,2.733423560857772827e-02,-6.385803967714309692e-02,-8.865748345851898193e-02,8.650902658700942993e-03,-6.441880762577056885e-02,-1.148463338613510132e-01,-1.597713828086853027e-01,1.621518433094024658e-01,-3.490062057971954346e-01,-1.931729167699813843e-01,-9.445495158433914185e-02,-1.737840175628662109e-01,-6.213386356830596924e-02,1.005416885018348694e-01,-1.829180866479873657e-01,-1.323987543582916260e-01,5.445484444499015808e-02,1.523191691376268864e-03,-1.185931265354156494e-01,-8.091346174478530884e-02,2.210546098649501801e-02,-3.666023313999176025e-01,-1.973123848438262939e-01,-4.343638569116592407e-02,-1.665630191564559937e-01,-3.540362119674682617e-01,-1.175945550203323364e-01,-2.263157814741134644e-01,-4.442698359489440918e-01,3.361715748906135559e-02,-5.619836226105690002e-02,-3.332466632127761841e-02,-9.861193597316741943e-03,-5.982084944844245911e-02,-7.357728481292724609e-02,-6.224836688488721848e-03,5.259514227509498596e-02,-7.291945815086364746e-02,-2.913337647914886475e-01,-8.530688285827636719e-02,-3.572658076882362366e-02,-7.893467694520950317e-02,-8.149490505456924438e-02,-1.100461930036544800e-01,8.460282348096370697e-03,5.721518769860267639e-03,-2.072115056216716766e-02,-2.900441177189350128e-02,6.075971573591232300e-02,2.563708424568176270e-01,-1.305882353335618973e-02,7.107213884592056274e-02,1.766100376844406128e-01,-1.637852042913436890e-01,-9.313918650150299072e-03,-2.760929986834526062e-02,-1.996970176696777344e-01,-1.672392934560775757e-01,-7.552691549062728882e-02,-6.062801927328109741e-02,-2.434734813868999481e-02,-1.830857992172241211e-02,3.609185293316841125e-02,6.516645103693008423e-02,2.489266544580459595e-02,1.793555170297622681e-02,-1.200455129146575928e-01,-1.388081312179565430e-01,-9.258865565061569214e-02,-1.227820217609405518e-01,-9.774222038686275482e-03,6.127284467220306396e-02,-5.094675719738006592e-02,2.503123134374618530e-02,-7.288418710231781006e-02,-2.585516124963760376e-02,1.490540653467178345e-01,-6.266000866889953613e-02,-5.303071439266204834e-02,2.183374613523483276e-01,1.154898628592491150e-01,1.613038778305053711e-01,1.105973944067955017e-01,6.820791959762573242e-02,-1.216274276375770569e-01,-1.442889422178268433e-01,5.533365532755851746e-02,-1.971786469221115112e-02,-1.566543616354465485e-02,-5.881178006529808044e-02,9.492460638284683228e-02,4.417960345745086670e-02,7.936559617519378662e-02,1.622563926503062248e-03,6.996768712997436523e-02,1.271536499261856079e-01,6.112497672438621521e-02,6.700239330530166626e-02,2.181918323040008545e-01,-1.363905370235443115e-01,-2.300117164850234985e-02,-2.535797953605651855e-01,-1.431867182254791260e-01,-2.006930671632289886e-02,-2.439797669649124146e-01,-5.681578069925308228e-02,2.256428077816963196e-02,-3.785693272948265076e-02,2.025039643049240112e-01,1.675475835800170898e-01,-6.025437638163566589e-02,1.355395466089248657e-02,-1.285631954669952393e-01,-7.466238737106323242e-02,-2.598875015974044800e-02,2.216083928942680359e-03,-9.752447903156280518e-02,-4.756714403629302979e-02,2.261536754667758942e-02,-5.196835380047559738e-03,2.909842133522033691e-02,-1.777298375964164734e-02,1.292956620454788208e-01,1.244368180632591248e-01,7.754994183778762817e-02,1.848442405462265015e-01,1.055353228002786636e-02,5.709055066108703613e-02,-5.621329694986343384e-02,-2.602548301219940186e-01,-7.340499013662338257e-02,-3.265153467655181885e-01,-1.831950843334197998e-01,-1.167342141270637512e-01,-1.336938440799713135e-01,-2.257265299558639526e-01,-2.621637582778930664e-01,-3.298270702362060547e-01,6.007973849773406982e-02,4.518336802721023560e-02,-2.635532021522521973e-01,-5.390378460288047791e-02,1.096216142177581787e-01,2.886087819933891296e-02,1.045554131269454956e-01,-1.046683192253112793e-01,9.978499263525009155e-02,2.061176858842372894e-02,-2.275604940950870514e-02,-6.565036624670028687e-02,-7.875879853963851929e-02,-6.093521788716316223e-02,-1.199311986565589905e-01,-1.730683259665966034e-02,1.284295469522476196e-01,8.399961888790130615e-02,-1.559480279684066772e-01,-1.023888960480690002e-01,6.789145525544881821e-03,-6.526527553796768188e-02,1.533025968819856644e-02,5.953533574938774109e-02,-1.030150055885314941e-01,-8.093378692865371704e-02,1.031321473419666290e-02,4.156073927879333496e-02,2.048807740211486816e-01,1.015526652336120605e-01,2.930820360779762268e-02,9.459180384874343872e-02,2.109881304204463959e-02,-6.314188987016677856e-02,-5.968180298805236816e-02,-2.285241335630416870e-01,-2.125711590051651001e-01,-2.591573894023895264e-01,-9.881053119897842407e-02,-1.928989887237548828e-01,-8.870115131139755249e-02,4.469248652458190918e-02,-3.525759652256965637e-02,-2.804583311080932617e-02,6.384862959384918213e-02,-1.777691952884197235e-02,-5.448387935757637024e-02,-2.323635481297969818e-02,3.013452142477035522e-02,7.762130815535783768e-03,-1.765494346618652344e-01,5.498133972287178040e-02,-5.297980085015296936e-02,-1.551660448312759399e-01,4.908172786235809326e-02,1.151801571249961853e-01,-1.548864296637475491e-03,-7.141536101698875427e-03,1.345900893211364746e-01,3.815155103802680969e-02,2.657317556440830231e-02,-4.149100929498672485e-02,1.600785553455352783e-01,6.482564657926559448e-02,-8.188579231500625610e-02,6.031970307230949402e-02,4.507475998252630234e-03,-6.069437786936759949e-02,2.025694698095321655e-01,-8.978094905614852905e-02,-1.794985681772232056e-02,6.260835379362106323e-02,4.752848669886589050e-02,5.865945480763912201e-03,-2.200828939676284790e-01,-1.369451135396957397e-01,-9.569101035594940186e-02,-7.266226410865783691e-02,-2.857455424964427948e-02,1.828262358903884888e-01
-9.979417920112609863e-02,-1.236353535205125809e-02,5.893145501613616943e-02,-1.059512943029403687e-01,-7.117962837219238281e-02,-4.014496505260467529e-02,-1.240092050284147263e-02,4.051052033901214600e-02,8.904996514320373535e-02,2.015412785112857819e-02,-1.604991108179092407e-01,-2.025151699781417847e-01,5.284869298338890076e-02,-1.385629773139953613e-01,-1.805565506219863892e-01,8.521620184183120728e-02,3.060232847929000854e-02,-1.232367232441902161e-01,-1.216122508049011230e-01,-1.643439382314682007e-01,-5.658063665032386780e-02,-1.232578456401824951e-01,-1.200094595551490784e-01,-1.527174860239028931e-01,2.425132691860198975e-02,-7.514883577823638916e-02,-2.229356952011585236e-02,1.650448292493820190e-01,3.062417171895503998e-02,9.458463639020919800e-02,-8.185616135597229004e-02,-1.068769618868827820e-01,1.162711903452873230e-01,5.386409815400838852e-03,-1.294166594743728638e-01,-9.169669449329376221e-02,7.915860414505004883e-02,1.283397972583770752e-01,-5.354429781436920166e-02,-4.317673295736312866e-02,2.069758437573909760e-02,2.056053141131997108e-03,-1.135268993675708771e-02,-3.553347289562225342e-02,4.498873651027679443e-02,1.118517965078353882e-01,7.799267023801803589e-02,4.240884631872177124e-02,8.303093165159225464e-02,7.121208310127258301e-02,-3.729465976357460022e-02,-1.142621319741010666e-02,2.424355410039424896e-02,-5.979939177632331848e-02,-1.438919305801391602e-01,-5.215162783861160278e-02,1.336675975471735001e-02,4.781292378902435303e-02,2.308128029108047485e-02,7.999903708696365356e-02,2.416429296135902405e-02,-3.472352400422096252e-02,2.007104605436325073e-01,2.200878597795963287e-02,-7.741224020719528198e-02,-3.989321365952491760e-02,-7.794164866209030151e-02,-1.196673437952995300e-01,-8.018025755882263184e-02,-1.209220290184020996e-01,-3.589453920722007751e-02,-2.640892565250396729e-02,-6.837613135576248169e-02,-4.967205226421356201e-02,-2.108932845294475555e-02,-6.605445593595504761e-02,-7.264200598001480103e-02,-2.270035631954669952e-02,-3.809141367673873901e-02,-1.265259925276041031e-04,-3.240051865577697754e-02,-1.688319891691207886e-01,-2.949501201510429382e-02,-9.200783073902130127e-02,-1.041423678398132324e-01,4.821681603789329529e-02,3.708957880735397339e-02,-5.229004472494125366e-02,-1.234497874975204468e-02,3.437805548310279846e-02,3.627438098192214966e-02,-2.169151045382022858e-02,4.227779060602188110e-02,-3.523515304550528526e-03,8.160686492919921875e-02,-1.868486776947975159e-02,1.036558598279953003e-01,2.070046514272689819e-01,7.486559450626373291e-02,8.386769331991672516e-03,2.297435514628887177e-02,2.838871628046035767e-02,-6.527878809720277786e-03,-8.090677112340927124e-02,2.035997575148940086e-03,1.092378273606300354e-01,-4.974013194441795349e-02,-3.842904418706893921e-02,-1.432653516530990601e-01,8.443387597799301147e-02,-4.464886710047721863e-02,-5.208718031644821167e-02,-3.181049600243568420e-02,1.328981220722198486e-01,-1.167299970984458923e-01,-6.955137010663747787e-03,1.119426712393760681e-01,4.786667972803115845e-02,6.806308776140213013e-02,-9.988787770271301270e-02,-8.478423207998275757e-02,-5.234637111425399780e-02,-5.635974183678627014e-02,7.479555904865264893e-02,-1.781057752668857574e-02,2.242245711386203766e-02,-1.551489084959030151e-01,-1.268736273050308228e-01,-3.866985812783241272e-02,-1.184351369738578796e-01,-1.421891748905181885e-01,-4.611264541745185852e-02,-1.851803660392761230e-01,-8.570738136768341064e-02,7.510907016694545746e-03,7.227513939142227173e-02,-3.120231069624423981e-02,-7.195264101028442383e-02,3.262067958712577820e-02,-5.975620448589324951e-02,-1.089735031127929688e-01,-1.005125138908624649e-02,5.832459032535552979e-02,4.440971091389656067e-02,2.041308134794235229e-01,4.585507884621620178e-02,2.544833160936832428e-02,7.436681538820266724e-02,2.001974880695343018e-01,3.262018784880638123e-02,-5.432276800274848938e-02,7.898519188165664673e-02,5.139746889472007751e-02,1.376090794801712036e-01,-4.788042604923248291e-02,-1.499085426330566406e-01,2.823477052152156830e-02,-4.937231913208961487e-02,7.943710312247276306e-03,-3.603635728359222412e-02,-9.594853222370147705e-02,-8.985752612352371216e-02,-2.005943208932876587e-01,6.725062616169452667e-03,1.341593563556671143e-01,1.406938210129737854e-02,7.250668108463287354e-02,6.390689313411712646e-02,4.230701830238103867e-03,-2.147750370204448700e-02,-4.732820391654968262e-02,-4.955929145216941833e-02,3.997734561562538147e-02,9.561444632709026337e-03,2.090854384005069733e-02,-5.679153278470039368e-02,6.598027423024177551e-03,6.173866987228393555e-02,-3.573262318968772888e-02,-2.167970873415470123e-02,4.608162119984626770e-02,-1.236367449164390564e-01,-1.232739165425300598e-01,-1.062613204121589661e-01,-8.945066481828689575e-02,-2.008118480443954468e-01,-4.531045258045196533e-02,-7.298824191093444824e-02,-2.700071036815643311e-01,-4.373763501644134521e-02,8.529304526746273041e-03,-6.107125431299209595e-02,-1.874596178531646729e-01,-7.243470847606658936e-02,-1.688266247510910034e-01,-1.594469994306564331e-01,3.717473894357681274e-02,1.754286140203475952e-02,-2.134956233203411102e-02,-1.731053143739700317e-01,-9.307339787483215332e-03,-9.289259463548660278e-02,-8.406129479408264160e-02,-9.231892973184585571e-02,-9.298433363437652588e-02,-5.545910075306892395e-02,3.280289843678474426e-02,1.241250783205032349e-01,-1.315397471189498901e-01,2.951948437839746475e-03,2.405552379786968231e-02,-1.054865960031747818e-02,9.746614098548889160e-02,1.141897216439247131e-01,-7.950446009635925293e-02,5.746128410100936890e-02,-1.189895868301391602e-01,8.309074491262435913e-02,1.419068500399589539e-02,-7.198261469602584839e-02,-3.560890257358551025e-02,-3.467078879475593567e-02,1.636690348386764526e-01,-3.714817017316818237e-02,-5.192317068576812744e-03,-9.022799134254455566e-02,-1.249029710888862610e-01,-2.863111160695552826e-02,-1.238089427351951599e-01,1.126573886722326279e-02,3.009035438299179077e-02,-1.282205432653427124e-01,-2.163592539727687836e-02,1.158979088068008423e-01,-8.661395311355590820e-02,-1.559031456708908081e-01,-4.153220355510711670e-02,7.671157270669937134e-02,7.012604176998138428e-02,3.379230201244354248e-02,8.582185208797454834e-02,6.433666497468948364e-02,1.642686724662780762e-01,7.642199750989675522e-03,-7.131709158420562744e-02,4.144943505525588989e-02,-4.185726866126060486e-02,-8.421893417835235596e-02,-1.867773570120334625e-02,9.657721221446990967e-02,1.144381985068321228e-01,1.180538386106491089e-01,-1.429096758365631104e-01,-1.516674757003784180e-01,-2.293277345597743988e-02,-2.120390534400939941e-02,-5.972992163151502609e-03,-1.064398437738418579e-01,-3.443740308284759521e-02,-1.231061518192291260e-01,-1.185079589486122131e-01,-4.923994094133377075e-02,-4.118157178163528442e-02,-9.309787303209304810e-02,-1.333519518375396729e-01,-7.619819790124893188e-02,-4.072764515876770020e-02,-7.264345884323120117e-02,-8.910650014877319336e-02,-7.516216486692428589e-02,6.673315167427062988e-02,3.312294557690620422e-02,7.156705856323242188e-02,-1.035340651869773865e-01,6.953985244035720825e-02,-3.116042166948318481e-02,8.237235248088836670e-02,-1.555268466472625732e-01,-6.146514415740966797e-02,-1.670143753290176392e-02,-1.173716187477111816e-01,-6.280999630689620972e-02,-5.402500554919242859e-02,-3.990462794899940491e-02,-2.232083119451999664e-02,-6.506253778934478760e-02,-7.293045520782470703e-02,1.492267707362771034e-03,6.239631678909063339e-03,-1.193906664848327637e-01,-2.242670357227325439e-01,1.227186433970928192e-02,-9.381242841482162476e-02,-1.851328313350677490e-01,5.412228405475616455e-02,-6.953995674848556519e-02,-7.088455557823181152e-02,-1.158924251794815063e-01,-9.927336126565933228e-02,-2.127643860876560211e-02,-1.789186033420264721e-03,-7.026091963052749634e-02,1.492490409873425961e-03,-6.769466400146484375e-02,4.151343181729316711e-02,-1.044522412121295929e-02,-2.029060870409011841e-01,-9.053602069616317749e-02,-1.020155996084213257e-01,-2.962450981140136719e-01,-4.823334887623786926e-02,3.167510777711868286e-02,-1.198138222098350525e-01,-4.131161794066429138e-02,-1.469030790030956268e-02,-3.838347271084785461e-03,-1.402257233858108521e-01,-3.849660977721214294e-02,-1.957266405224800110e-02,-1.336584538221359253e-01,-1.648665368556976318e-01,1.612121313810348511e-01,6.587456446141004562e-03,-1.611631214618682861e-01,4.339718446135520935e-02,-3.516214713454246521e-02,1.650036126375198364e-02,1.121559087187051773e-02,4.307004064321517944e-02,-9.637145698070526123e-02,1.057895645499229431e-01,-9.999897330999374390e-02,2.200106158852577209e-02,-9.523439407348632812e-02,-3.859366476535797119e-02,-7.484187930822372437e-02,-1.149221733212471008e-01,-1.450114548206329346e-01,-2.507833018898963928e-02,2.608582191169261932e-02,-6.092415750026702881e-02,4.351836442947387695e-02,-7.915647327899932861e-02,-1.211438253521919250e-01,2.795187570154666901e-02,5.159200355410575867e-02,4.145780950784683228e-02,1.155735403299331665e-01,1.131856217980384827e-01,1.110927239060401917e-01,1.242998838424682617e-01,-1.731608361005783081e-01,-1.032835394144058228e-01,-1.895925700664520264e-01,-1.326234787702560425e-01,-1.388371586799621582e-01,2.175457589328289032e-02,3.678378090262413025e-02,-1.147507969290018082e-02,-2.192831598222255707e-02,-1.071969866752624512e-01,-1.079056710004806519e-01,7.387138158082962036e-02,-1.391224116086959839e-01,-7.827048003673553467e-02,2.880010008811950684e-02,-7.374016195535659790e-02,-5.544045194983482361e-02,7.554612308740615845e-02,-5.967575684189796448e-02,-3.958716243505477905e-02,-4.548241943120956421e-02,2.469743601977825165e-02,-8.197811245918273926e-02,1.574141532182693481e-02,6.414856761693954468e-02,-3.350614011287689209e-02,1.169299148023128510e-02,-3.371666371822357178e-02,3.240394592285156250e-02,-1.160666439682245255e-02,-1.283921450376510620e-01,9.847015142440795898e-02,1.778591051697731018e-02,5.124738812446594238e-02,9.225692600011825562e-02,-7.236725836992263794e-02,-7.926754653453826904e-02,8.861817419528961182e-02,6.489816308021545410e-02,1.838329806923866272e-02,-8.715969510376453400e-03,-7.412777841091156006e-02,1.171436607837677002e-01,2.334899641573429108e-02,-1.656528003513813019e-02,4.097620490938425064e-03,1.786033250391483307e-02,-1.136239022016525269e-01,-9.266864508390426636e-02,1.273140124976634979e-02,-1.060706675052642822e-01,7.630182057619094849e-02,-8.543910086154937744e-02,6.457070261240005493e-02,9.742514044046401978e-02,1.976216956973075867e-02,8.303110953420400620e-04,1.525039225816726685e-01,1.361350528895854950e-02,-3.745408356189727783e-02,-5.139536038041114807e-02,-7.855207473039627075e-02,-8.455903828144073486e-02,1.167571842670440674e-01,-1.164602339267730713e-01,-7.280800025910139084e-03,3.641189634799957275e-02,-2.073413506150245667e-02,3.709160909056663513e-02,1.183156017214059830e-02,-7.739695906639099121e-02,-9.880220144987106323e-02,-3.604323789477348328e-02,2.289244718849658966e-02,4.118184745311737061e-02,1.339266002178192139e-01,9.189253300428390503e-02,-6.304783374071121216e-02,1.089074090123176575e-01,9.019132703542709351e-02,9.557144716382026672e-03,5.909900367259979248e-02,-7.666087150573730469e-02,-8.204396069049835205e-02,-2.763759531080722809e-02,-7.607665657997131348e-02,-1.198548227548599243e-01,-1.686123609542846680e-01,-1.605639904737472534e-01,-1.465555094182491302e-02,-9.551552683115005493e-02,7.267123460769653320e-02,-9.384156763553619385e-02,-1.488822847604751587e-01,1.293177157640457153e-02,1.591863483190536499e-02,-6.328950077295303345e-02,-4.063774272799491882e-02,6.010689586400985718e-02,-3.867784887552261353e-02,-1.245782226324081421e-01,-5.301130935549736023e-02,-1.027818098664283752e-01,-1.701881438493728638e-01,-1.035310998558998108e-01,-1.027099862694740295e-01,-6.136332079768180847e-02,1.678606867790222168e-02,5.187823902815580368e-03,1.167015056125819683e-03,-1.814608648419380188e-02,-8.003976196050643921e-02,-1.757699437439441681e-02,6.645091623067855835e-02,-2.136361040174961090e-02,8.034484833478927612e-02,-2.066722372546792030e-03,-2.528823679313063622e-03,3.925294801592826843e-02,-5.814908072352409363e-02,1.112414244562387466e-02,-4.486178606748580933e-02,3.084126301109790802e-02,7.875438779592514038e-02,-8.298986405134201050e-02,9.938896447420120239e-02,-6.570789963006973267e-03,4.689192771911621094e-02,8.230012841522693634e-03,-2.891039103269577026e-02,1.142748445272445679e-01,1.871100217103958130e-01,-5.847219750285148621e-02,-6.636393815279006958e-02,1.086291745305061340e-01,-1.553696095943450928e-01,-2.224553003907203674e-02,-1.091232001781463623e-01,3.047919087111949921e-02,-1.394360959529876709e-01,-1.266850531101226807e-01,2.145314961671829224e-02,6.853328552097082138e-03,-2.783535420894622803e-02,2.514163590967655182e-02,-7.390800863504409790e-02,-1.370111107826232910e-01,9.109630435705184937e-02,4.280231520533561707e-02,-3.883597999811172485e-02,6.423261016607284546e-02,-6.835322082042694092e-02,-7.243169844150543213e-02,-1.788412220776081085e-02,-1.122597232460975647e-01,-1.108223646879196167e-01,-1.216670498251914978e-02,9.380479902029037476e-02,5.627463757991790771e-02,5.957490298897027969e-03,-1.585347950458526611e-01,-1.942950785160064697e-01,-4.409479722380638123e-02,7.031912356615066528e-02,-4.137282073497772217e-02,1.080505698919296265e-01,-5.675920844078063965e-02,4.341898486018180847e-02,1.579734236001968384e-01,1.013221684843301773e-02,-4.587199166417121887e-02,8.803828805685043335e-02,-9.444371610879898071e-02,-7.760432362556457520e-02,8.742386102676391602e-02,4.650175105780363083e-03,-1.541223078966140747e-01,9.890426695346832275e-02,6.530609726905822754e-02,4.034501500427722931e-03,1.464049369096755981e-01,8.204117417335510254e-03,-1.962305232882499695e-02,-6.416422128677368164e-02,4.094185773283243179e-03,3.740360727533698082e-03,-7.446065079420804977e-03,-1.958905719220638275e-02,-1.239267513155937195e-01,-1.287190616130828857e-01,-5.864854902029037476e-03,1.124336048960685730e-01,1.093954965472221375e-02,8.559204638004302979e-03,1.694248765707015991e-01,-5.099280923604965210e-02,8.271140605211257935e-02,-5.490468442440032959e-02,4.222844168543815613e-02,8.515043556690216064e-02,6.142014265060424805e-02,5.380341410636901855e-02,4.423876851797103882e-02,-2.973830886185169220e-02,5.708796530961990356e-02,-6.015441939234733582e-02,-3.306449204683303833e-02,1.480931490659713745e-01,-5.524023436009883881e-03,2.371184155344963074e-02,1.180056035518646240e-01,-5.306380242109298706e-02,-1.055402215570211411e-02,-5.765464156866073608e-02,4.573762044310569763e-02,1.344600617885589600e-01,-7.258339226245880127e-02,7.360630482435226440e-02,1.112093478441238403e-01,1.839046739041805267e-02,1.994258761405944824e-01,2.215064913034439087e-01,7.315547019243240356e-02,1.977134644985198975e-01,1.238517984747886658e-01
-6.489706784486770630e-02,6.251338869333267212e-02,-8.205056190490722656e-02,-5.572495982050895691e-02,-6.875071674585342407e-02,-8.374426513910293579e-03,-1.959728002548217773e-01,-5.806820839643478394e-02,-1.323846578598022461e-01,-3.146673366427421570e-02,1.288731247186660767e-01,9.997180104255676270e-02,-8.489388972520828247e-02,6.932453811168670654e-02,-8.080848306417465210e-02,-8.688348531723022461e-02,2.616145461797714233e-02,-8.237037062644958496e-02,-7.900905609130859375e-02,-1.642734184861183167e-02,6.302440166473388672e-02,-8.874014951288700104e-03,-2.504805888747796416e-05,-8.149453997611999512e-02,-1.003920473158359528e-02,3.278113901615142822e-02,-5.237843841314315796e-02,5.964125320315361023e-02,-1.109489724040031433e-01,-3.822319954633712769e-02,-7.918898016214370728e-02,-1.708310395479202271e-01,-2.120998948812484741e-01,-3.124106526374816895e-01,-1.775435805320739746e-01,-1.356202214956283569e-01,-3.665271401405334473e-02,-1.123562231659889221e-01,3.506738319993019104e-02,-7.020807266235351562e-02,7.701845467090606689e-02,3.086427040398120880e-02,2.497081831097602844e-02,-1.617149217054247856e-03,-6.174941733479499817e-02,-1.118211895227432251e-01,5.111851915717124939e-02,-9.293054044246673584e-02,-1.841177493333816528e-01,3.429476916790008545e-02,-9.204417467117309570e-02,5.469348281621932983e-02,1.358879804611206055e-01,-6.643178407102823257e-03,-5.610344931483268738e-02,1.782741956412792206e-02,9.237344563007354736e-02,-3.076085355132818222e-03,9.465264528989791870e-02,1.222318038344383240e-01,1.135127171874046326e-01,-1.800386607646942139e-02,7.615768909454345703e-02,4.507395252585411072e-02,-1.547767221927642822e-02,-2.228804677724838257e-01,-2.171026915311813354e-01,-1.178949922323226929e-01,-2.183849513530731201e-01,-6.513137370347976685e-02,-7.589101046323776245e-02,-1.519343107938766479e-01,9.091774001717567444e-03,3.647355735301971436e-02,1.127468273043632507e-01,-1.344517711549997330e-02,6.576482206583023071e-02,-2.930644340813159943e-02,-5.335045512765645981e-03,-2.591839432716369629e-02,4.649432748556137085e-02,-8.691335469484329224e-02,7.492180168628692627e-02,1.798460185527801514e-01,-5.721842870116233826e-02,2.166468352079391479e-01,5.820813775062561035e-02,3.537127003073692322e-02,8.787874132394790649e-03,-3.619493544101715088e-02,4.689742997288703918e-02,-5.179345607757568359e-02,3.960140421986579895e-02,4.792991653084754944e-02,5.859690904617309570e-02,2.881934866309165955e-02,-1.702919788658618927e-02,8.738666772842407227e-02,2.241245657205581665e-02,-2.992978990077972412e-01,-1.500571519136428833e-01,-1.089366301894187927e-01,-1.226781904697418213e-01,-1.443429291248321533e-02,7.432220876216888428e-02,-4.916644096374511719e-02,-1.218312792479991913e-02,1.066787913441658020e-01,4.032734408974647522e-02,7.427347451448440552e-02,-1.116964519023895264e-01,-1.027684360742568970e-01,2.199692279100418091e-02,-4.695535078644752502e-02,-2.040350586175918579e-01,-1.176483109593391418e-01,-2.016011327505111694e-01,-1.757924109697341919e-01,-6.592394411563873291e-02,1.797174569219350815e-03,-4.666226916015148163e-03,1.273560076951980591e-01,-5.705978255718946457e-03,8.605701476335525513e-02,-1.119369044899940491e-01,3.382866457104682922e-02,-7.282190024852752686e-02,4.765067622065544128e-02,-3.296543285250663757e-02,-6.402803212404251099e-02,-3.452942892909049988e-02,3.742886334657669067e-02,-1.166709959506988525e-01,-5.633462220430374146e-02,3.987647965550422668e-02,4.803135618567466736e-02,6.982304900884628296e-02,4.339639097452163696e-02,-1.092817336320877075e-01,-3.259220346808433533e-02,1.224807202816009521e-01,-1.240595616400241852e-02,-3.488565236330032349e-02,9.057826362550258636e-03,8.290243893861770630e-02,-4.648413974791765213e-03,-2.096252888441085815e-01,-5.656369775533676147e-02,-1.164568886160850525e-01,-1.816805824637413025e-02,-1.876078918576240540e-02,-2.278151512145996094e-01,-1.400116831064224243e-01,9.880211204290390015e-03,1.040003672242164612e-01,1.631491631269454956e-01,-3.896675631403923035e-02,-4.711825773119926453e-02,-7.811097055673599243e-02,-5.805213749408721924e-02,-5.537912622094154358e-02,-1.201563924551010132e-01,-7.542773149907588959e-03,6.321811676025390625e-02,-6.152851879596710205e-02,9.051901847124099731e-02,-4.693922400474548340e-02,-8.863584697246551514e-02,7.567203789949417114e-02,9.464628994464874268e-02,6.029883772134780884e-02,1.823362521827220917e-02,1.201096326112747192e-01,-3.435282409191131592e-02,-6.907104700803756714e-02,-4.852272570133209229e-02,3.754643723368644714e-02,-4.514621198177337646e-02,-8.807537704706192017e-02,-5.434240773320198059e-02,-1.822197437286376953e-01,-1.335144788026809692e-01,-1.103818938136100769e-01,-3.442597761750221252e-02,-1.152819544076919556e-01,-1.142707839608192444e-01,1.086722835898399353e-01,-5.956952460110187531e-03,-8.025316148996353149e-02,1.048449054360389709e-02,-1.493496913462877274e-02,9.029115736484527588e-02,-3.066314756870269775e-02,7.064228411763906479e-03,6.441756337881088257e-02,-4.207668080925941467e-02,-1.786389760673046112e-02,-3.979210928082466125e-02,9.067917242646217346e-03,-7.462903112173080444e-02,8.251240104436874390e-02,2.115186490118503571e-02,-2.932946570217609406e-02,4.428005963563919067e-02,-3.204340487718582153e-02,-4.457375034689903259e-02,-9.592691808938980103e-02,1.140322983264923096e-01,-8.426167070865631104e-02,-1.752539351582527161e-02,7.032115012407302856e-02,7.433591037988662720e-02,-9.115384519100189209e-02,4.983549565076828003e-02,2.215615473687648773e-02,-2.668909914791584015e-02,7.648909464478492737e-03,7.575022429227828979e-02,-1.962376572191715240e-02,-2.014901861548423767e-02,-9.011323004961013794e-02,-6.538571324199438095e-03,-3.933419287204742432e-02,4.836723953485488892e-02,1.333299279212951660e-01,5.446731299161911011e-02,1.557276099920272827e-01,5.295963212847709656e-02,4.221288114786148071e-02,1.662104874849319458e-01,1.414674818515777588e-01,1.758348941802978516e-01,9.438207000494003296e-02,5.854579061269760132e-02,-8.168301731348037720e-02,-2.923330068588256836e-01,-2.825435400009155273e-01,1.153897047042846680e-01,8.099409751594066620e-03,2.893762290477752686e-02,1.029403209686279297e-01,1.481691896915435791e-01,-7.648133207112550735e-03,2.054802328348159790e-02,-5.030553787946701050e-02,3.553383052349090576e-02,-3.834050521254539490e-02,-1.393562741577625275e-02,-3.147560358047485352e-02,6.219571828842163086e-02,4.221570119261741638e-02,1.166717112064361572e-01,-2.756408229470252991e-02,1.775988638401031494e-01,8.926744572818279266e-03,2.410244196653366089e-02,-1.054721176624298096e-01,-2.408055402338504791e-02,-7.246831431984901428e-03,-1.241607964038848877e-01,1.266875211149454117e-02,-4.839987494051456451e-03,-5.296673625707626343e-02,2.505235560238361359e-02,-9.063672274351119995e-03,7.089722901582717896e-02,7.887287437915802002e-02,-1.061579063534736633e-01,-2.771219909191131592e-01,-3.604901954531669617e-02,6.639066338539123535e-02,-7.309662550687789917e-02,5.898470431566238403e-02,-2.137285470962524414e-02,-1.326421499252319336e-01,-2.251286245882511139e-02,7.146195508539676666e-03,-9.592419117689132690e-02,-4.576783254742622375e-02,2.839504554867744446e-02,1.003807187080383301e-01,3.803617507219314575e-02,-1.116160303354263306e-01,5.585823208093643188e-02,7.147768139839172363e-02,-2.265560179948806763e-01,-2.881647050380706787e-01,-8.650408685207366943e-02,-2.018952369689941406e-01,-1.910305172204971313e-01,-8.429300040006637573e-02,-1.834380775690078735e-01,-7.968059927225112915e-02,-1.710159033536911011e-01,-1.190492138266563416e-01,-9.284321218729019165e-03,-1.592951864004135132e-01,-9.835898876190185547e-03,-3.999684378504753113e-02,8.367269765585660934e-04,1.659088954329490662e-02,-3.193086385726928711e-02,-8.316849707625806332e-04,5.014703795313835144e-02,5.368583649396896362e-02,8.375108987092971802e-02,4.861023277044296265e-02,1.862082816660404205e-02,-1.068105474114418030e-01,-3.706552460789680481e-02,-6.520491093397140503e-02,-3.351688012480735779e-02,-1.515215635299682617e-01,-1.808034181594848633e-01,-1.232785508036613464e-01,4.499920830130577087e-02,-1.081246510148048401e-01,-5.639867112040519714e-02,-4.175567254424095154e-02,-4.110852256417274475e-02,-8.324853144586086273e-03,1.029165834188461304e-01,2.159420587122440338e-02,5.625483021140098572e-02,-1.107329577207565308e-01,-1.043669283390045166e-01,4.617015272378921509e-02,-7.030829042196273804e-02,1.768455468118190765e-02,1.115539520978927612e-01,8.520474657416343689e-03,-8.213594555854797363e-03,1.075906977057456970e-01,3.929785639047622681e-02,6.013587489724159241e-02,-7.984700053930282593e-02,-8.330212906002998352e-03,-7.642319798469543457e-02,-5.342539399862289429e-02,-1.984357088804244995e-01,-3.673606216907501221e-01,-2.110607773065567017e-01,-6.922706961631774902e-02,1.898944750428199768e-02,4.392647743225097656e-02,-4.493820294737815857e-02,-9.089503437280654907e-02,-9.740046411752700806e-02,1.208818778395652771e-01,7.295896857976913452e-02,5.358613282442092896e-02,-8.976025879383087158e-02,4.789354279637336731e-03,5.986462160944938660e-02,-4.697294160723686218e-02,8.088205009698867798e-03,8.578212559223175049e-02,5.150990560650825500e-02,2.238495275378227234e-02,7.955327630043029785e-02,1.516749244183301926e-02,-8.760374039411544800e-02,-2.613974921405315399e-02,7.232162356376647949e-02,-2.561819925904273987e-02,-6.228085607290267944e-02,-5.259900540113449097e-02,1.028127502650022507e-02,-7.320450246334075928e-02,-2.597822248935699463e-02,9.229381382465362549e-02,3.751569613814353943e-02,8.571211993694305420e-02,5.813829228281974792e-02,-8.832835406064987183e-02,-6.108653731644153595e-03,6.387329194694757462e-03,-8.130551129579544067e-02,1.635325253009796143e-01,4.076314717531204224e-02,-3.072900697588920593e-02,4.102826118469238281e-02,2.811446972191333771e-02,-4.890158399939537048e-02,9.611947834491729736e-02,-3.194192424416542053e-02,2.772366628050804138e-02,9.540834277868270874e-02,5.005056038498878479e-02,6.227358058094978333e-02,-5.951330810785293579e-02,-4.238613322377204895e-02,-6.153130903840065002e-02,-2.437154995277523994e-03,1.025946810841560364e-01,-5.167468637228012085e-02,-6.269978731870651245e-02,-6.161348521709442139e-02,-1.800846159458160400e-01,7.189135998487472534e-02,-1.096755489706993103e-01,-9.830721467733383179e-02,-2.758144959807395935e-02,-2.055366896092891693e-02,-1.913229934871196747e-02,-1.468886341899633408e-02,-1.059396043419837952e-01,-7.025518268346786499e-02,-1.226312220096588135e-01,-1.350786238908767700e-01,-1.749033182859420776e-01,3.960685804486274719e-02,4.157445579767227173e-02,-1.371289789676666260e-01,-9.554520249366760254e-02,7.609035354107618332e-03,-1.706994920969009399e-01,-1.445431858301162720e-01,-1.159506738185882568e-01,-3.800584375858306885e-02,-7.287608087062835693e-02,-2.155637927353382111e-02,9.644864127039909363e-03,1.329101324081420898e-01,1.654248684644699097e-01,-8.758443593978881836e-02,2.075906246900558472e-01,9.958524256944656372e-02,1.405658759176731110e-02,8.960522711277008057e-02,9.261576831340789795e-02,8.723431825637817383e-02,-1.010872349143028259e-01,-2.155637145042419434e-01,-1.005577594041824341e-01,-1.230842173099517822e-01,-9.260728955268859863e-02,-7.019203156232833862e-02,-1.854189187288284302e-01,-2.594567239284515381e-01,-1.965217143297195435e-01,-7.744389772415161133e-02,-2.671832740306854248e-01,-2.858944833278656006e-01,2.570799551904201508e-02,-5.848806723952293396e-02,-1.855062246322631836e-01,-4.269251972436904907e-02,1.084603592753410339e-01,1.408118754625320435e-02,-1.262833327054977417e-01,4.056985490024089813e-03,3.571033850312232971e-02,-6.510669738054275513e-02,-1.690036244690418243e-02,3.479318320751190186e-02,1.876076608896255493e-01,8.398005366325378418e-02,6.361155770719051361e-03,-1.927842758595943451e-02,5.757827684283256531e-02,-8.864101953804492950e-03,-1.036766320466995239e-01,-3.092948719859123230e-02,-2.265899442136287689e-03,-2.309439331293106079e-02,-9.510123170912265778e-03,-2.113476246595382690e-01,1.710646785795688629e-02,-4.654932022094726562e-02,1.864390075206756592e-01,5.291317775845527649e-02,-1.042567044496536255e-01,1.030213832855224609e-01,-2.991520054638385773e-02,6.047337502241134644e-02,5.446917936205863953e-02,1.037375479936599731e-01,4.019332304596900940e-02,1.602994054555892944e-01,-1.541675906628370285e-02,-1.632007956504821777e-02,9.479616582393646240e-02,4.148050770163536072e-02,1.272569876164197922e-03,1.686503179371356964e-02,3.578275907784700394e-03,-1.613579690456390381e-02,-5.974486004561185837e-03,4.569879919290542603e-02,-2.455385774374008179e-02,-8.074601739645004272e-02,1.173044666647911072e-01,-5.920828785747289658e-03,1.921710744500160217e-02,-1.807168126106262207e-01,-1.056219786405563354e-01,-3.924609348177909851e-02,-2.009558975696563721e-01,-1.731253713369369507e-01,2.283442066982388496e-03,-3.147239983081817627e-01,-1.056457906961441040e-01,-1.359823793172836304e-01,-4.076846688985824585e-02,8.713707327842712402e-02,-2.723186090588569641e-02,-2.159825563430786133e-01,-7.499992847442626953e-02,-1.942273825407028198e-01,-9.740083664655685425e-02,-4.003984481096267700e-02,-9.267473220825195312e-02,-1.110828071832656860e-01,5.730621516704559326e-02,-1.086556538939476013e-01,-1.108927726745605469e-01,4.955153167247772217e-02,1.130123529583215714e-02,-5.466075614094734192e-02,-7.234981656074523926e-02,6.434593349695205688e-02,-1.143609639257192612e-02,5.507387965917587280e-02,1.417252123355865479e-01,7.811114192008972168e-02,4.863468185067176819e-02,2.941948361694812775e-02,-7.864098995923995972e-02,-4.656388238072395325e-02,8.280855417251586914e-02,-1.049056500196456909e-01,-4.032877460122108459e-02,2.067705802619457245e-02,-2.931521460413932800e-02,-1.843072026968002319e-01,-1.399657428264617920e-01,-7.187311351299285889e-02,-1.850982941687107086e-02,5.074680224061012268e-02,1.256366223096847534e-01,2.516890875995159149e-02,1.669759750366210938e-01,5.584625527262687683e-02,3.685324639081954956e-02,7.333958894014358521e-02,3.848812729120254517e-02,-1.397987306118011475e-01,-8.718778938055038452e-02,-7.429766654968261719e-02,-7.875409722328186035e-02,-1.906151026487350464e-01,-2.331992797553539276e-02,-4.436708986759185791e-03,-6.978753954172134399e-02,1.674401760101318359e-01,-5.161829292774200439e-02,1.588644646108150482e-02,-1.112142018973827362e-02,2.845190279185771942e-02,-1.678231209516525269e-01,1.135122925043106079e-01,5.608857423067092896e-02,-4.217142984271049500e-02,1.620696783065795898e-01,5.034737288951873779e-02,-1.016020774841308594e-02,2.235263213515281677e-02,-8.993116766214370728e-02,-7.114697247743606567e-02,3.350472077727317810e-02,-7.871451973915100098e-02,-1.151132360100746155e-01,1.831939071416854858e-01,-1.432599276304244995e-01,-1.818936504423618317e-02
-4.849058017134666443e-02,-7.856521010398864746e-02,1.629211194813251495e-02,1.796083524823188782e-02,-4.282770096324384212e-04,2.442074939608573914e-02,2.507465891540050507e-02,6.204647570848464966e-02,-5.292236059904098511e-02,-2.464983016252517700e-01,-2.387985140085220337e-01,-7.624634355306625366e-02,2.235371060669422150e-02,-9.689342975616455078e-02,-1.389958858489990234e-01,-8.155104517936706543e-02,-6.738515943288803101e-02,5.839473381638526917e-02,1.514786630868911743e-01,-1.232506148517131805e-02,-1.075153574347496033e-01,7.640309631824493408e-02,-4.975580796599388123e-02,-2.474099956452846527e-02,7.861007936298847198e-03,-2.186333537101745605e-01,-1.947054415941238403e-01,-9.077586233615875244e-02,3.408261761069297791e-02,7.012767344713211060e-02,3.655929490923881531e-02,1.607858687639236450e-01,1.633551269769668579e-01,9.169197082519531250e-02,2.157985791563987732e-02,1.474270969629287720e-01,-1.529644280672073364e-01,-1.124611683189868927e-02,8.710048347711563110e-02,-2.802646718919277191e-03,2.816586010158061981e-02,-4.256534390151500702e-03,1.180215701460838318e-01,2.266330458223819733e-02,4.764983057975769043e-02,-1.577591001987457275e-01,6.312087923288345337e-02,-9.547967463731765747e-02,-1.295038312673568726e-01,-1.130069717764854431e-01,6.140278652310371399e-02,-1.153220385313034058e-01,-8.560720086097717285e-02,-2.630391716957092285e-02,-3.828818723559379578e-02,-1.206316724419593811e-01,2.119779959321022034e-02,-9.336902946233749390e-02,-1.174044013023376465e-01,-1.403329670429229736e-01,-1.118903048336505890e-02,-1.021309420466423035e-01,3.260540962219238281e-02,4.387663677334785461e-03,6.365738809108734131e-04,-1.622520573437213898e-02,3.623990342020988464e-02,-7.854030281305313110e-02,1.628449559211730957e-02,-1.067540496587753296e-01,-1.121808737516403198e-01,-1.320062577724456787e-01,-4.350081086158752441e-02,-4.003676120191812515e-03,-8.875270932912826538e-02,-1.458505447953939438e-02,-4.113230854272842407e-02,-6.095436960458755493e-02,-2.525021322071552277e-02,-1.390194296836853027e-01,-1.076233480125665665e-02,-2.798023223876953125e-01,-3.156136870384216309e-01,-3.330860137939453125e-01,-1.459565758705139160e-01,-3.936181962490081787e-02,-8.038201183080673218e-02,-1.948335915803909302e-01,-7.134005427360534668e-02,-1.564629375934600830e-01,-4.410845413804054260e-02,-1.413968056440353394e-01,-1.145486012101173401e-01,-4.877809062600135803e-02,-5.078515503555536270e-03,-1.790291070938110352e-01,1.480073928833007812e-01,1.182434242218732834e-02,4.934319481253623962e-02,4.726123809814453125e-02,-1.720400452613830566e-01,-1.083224341273307800e-01,-5.479680746793746948e-02,1.676888205111026764e-02,-8.686020970344543457e-02,7.588410377502441406e-02,2.072054892778396606e-03,-1.166191846132278442e-01,-3.629157692193984985e-02,3.696332499384880066e-02,3.234733268618583679e-02,-2.736937440931797028e-02,-6.730427592992782593e-02,1.496023535728454590e-01,-1.809894666075706482e-02,9.108533710241317749e-02,9.235019981861114502e-02,5.098497867584228516e-02,-8.032833039760589600e-02,-5.979595333337783813e-02,-4.555741697549819946e-02,-9.721295535564422607e-02,6.638341397047042847e-02,3.160635381937026978e-02,-7.427671551704406738e-02,-5.220912769436836243e-02,4.194768145680427551e-02,1.885786536149680614e-03,-8.023893088102340698e-02,7.495636492967605591e-02,-7.494886964559555054e-02,-1.223460212349891663e-02,-1.045634318143129349e-02,3.398640453815460205e-02,-1.578054204583168030e-02,-1.604259461164474487e-01,-1.297158598899841309e-01,-1.405159831047058105e-01,-6.691721826791763306e-02,-5.080772191286087036e-02,-3.891227394342422485e-02,-4.123685136437416077e-02,-7.119780033826828003e-02,-1.994098573923110962e-01,-1.722593456506729126e-01,-2.478885948657989502e-01,-2.824966609477996826e-01,-6.561645865440368652e-02,-1.597890257835388184e-01,-3.254581689834594727e-01,-4.236759245395660400e-02,2.476544678211212158e-02,4.537378251552581787e-02,5.318936705589294434e-02,-7.501673698425292969e-02,9.816662222146987915e-02,-7.282050326466560364e-03,-2.608712576329708099e-02,2.393180504441261292e-02,4.328290000557899475e-02,-1.397178769111633301e-01,2.645785920321941376e-02,-1.123431324958801270e-01,-3.604472381994128227e-03,-1.054479479789733887e-01,-1.001336425542831421e-01,-1.919097639620304108e-02,-1.033982187509536743e-01,-4.342138767242431641e-02,-3.800983354449272156e-02,-5.737987160682678223e-02,-6.785794347524642944e-02,-3.998246043920516968e-02,-2.771422266960144043e-01,7.587683200836181641e-02,-6.204739958047866821e-02,-1.626745909452438354e-01,8.506323397159576416e-02,-1.004300788044929504e-01,-2.234918177127838135e-01,8.183306455612182617e-02,4.773765057325363159e-02,-1.093955636024475098e-01,-5.747365206480026245e-02,-8.610764890909194946e-02,-9.161058813333511353e-03,-7.186535000801086426e-02,-7.108343392610549927e-02,-1.023383159190416336e-02,1.878131777048110962e-01,1.477457489818334579e-02,8.522761613130569458e-02,1.464537680149078369e-01,3.268640860915184021e-02,3.247244283556938171e-02,1.771291494369506836e-01,-2.138168737292289734e-02,-6.530708819627761841e-02,-8.624593168497085571e-02,-3.726255614310503006e-03,-1.264647543430328369e-01,-5.056423693895339966e-02,-9.650464355945587158e-02,-9.014923870563507080e-02,-3.198162885382771492e-03,-4.782953765243291855e-03,-3.179039806127548218e-02,-1.645638793706893921e-01,-1.265625841915607452e-02,5.225535482168197632e-02,-7.763382792472839355e-02,3.177145123481750488e-02,2.060850411653518677e-01,-9.399476461112499237e-03,-6.623181980103254318e-03,7.448317855596542358e-02,-1.029867157340049744e-01,-5.512542277574539185e-02,-1.362834870815277100e-01,-1.792211830615997314e-01,-5.260179936885833740e-02,-7.798477262258529663e-02,-9.602794423699378967e-03,-1.603791564702987671e-01,-1.038177311420440674e-01,-1.023117359727621078e-02,-1.587865874171257019e-02,1.487468332052230835e-01,1.659775972366333008e-01,6.647881120443344116e-02,-8.471910655498504639e-02,4.373110458254814148e-02,-3.709704056382179260e-02,-1.561000645160675049e-01,1.120180711150169373e-01,-7.246010005474090576e-02,-9.001300483942031860e-02,1.169523969292640686e-01,5.650377646088600159e-02,-3.472734242677688599e-02,-4.852727800607681274e-02,-2.484078407287597656e-01,3.813346847891807556e-02,7.023500278592109680e-03,-1.533062011003494263e-01,-1.779474020004272461e-01,-3.504321724176406860e-02,-1.351023167371749878e-01,-1.054830700159072876e-01,-1.845954805612564087e-01,-4.023279994726181030e-02,-1.560909152030944824e-01,1.521988585591316223e-02,-1.383810192346572876e-01,-1.443690359592437744e-01,4.178181663155555725e-02,-8.858478814363479614e-02,-1.821612715721130371e-01,6.362923886626958847e-03,-2.473999187350273132e-02,-8.902830071747303009e-03,1.088870763778686523e-01,8.548854291439056396e-02,8.505039848387241364e-03,1.253398954868316650e-01,6.988142151385545731e-03,9.353112429380416870e-02,6.031663622707128525e-03,1.362748891115188599e-01,-6.879988312721252441e-02,-1.071290224790573120e-01,7.892410457134246826e-02,-1.839001476764678955e-01,-2.384134754538536072e-02,6.661050021648406982e-02,-1.425159871578216553e-01,6.735357642173767090e-02,5.453565344214439392e-02,1.506875851191580296e-03,-1.282881498336791992e-01,-1.332333683967590332e-01,-5.586789920926094055e-03,1.800625771284103394e-02,5.528420582413673401e-02,1.093809399753808975e-02,1.184108033776283264e-01,1.486517637968063354e-01,-7.296881079673767090e-02,-1.440400332212448120e-01,-2.304056435823440552e-01,-1.025946289300918579e-01,-8.955907076597213745e-02,-1.175357252359390259e-01,-1.639499664306640625e-01,-1.042631044983863831e-01,-1.124835461378097534e-01,-1.094595566391944885e-01,2.225657925009727478e-02,3.601489216089248657e-02,8.312086760997772217e-02,8.148445188999176025e-02,1.612292230129241943e-02,-7.664878666400909424e-02,7.938968390226364136e-02,-9.520177543163299561e-02,-1.335657536983489990e-01,1.243353337049484253e-01,6.513959169387817383e-02,2.801876515150070190e-02,3.729046508669853210e-02,7.764576375484466553e-02,4.158737882971763611e-02,1.266378462314605713e-01,-3.242427855730056763e-02,1.272480785846710205e-01,-1.318353265523910522e-01,-4.736588150262832642e-02,-1.247553601861000061e-01,-1.299902796745300293e-01,-8.119664341211318970e-02,5.692845210433006287e-02,-9.011537581682205200e-02,1.979105919599533081e-02,8.259872347116470337e-02,-1.275089681148529053e-01,-1.124412491917610168e-01,1.010547275654971600e-03,1.169049590826034546e-01,1.935455016791820526e-02,4.958895221352577209e-02,4.375677555799484253e-02,5.091815441846847534e-02,3.729766979813575745e-02,-5.442807078361511230e-02,-1.270789504051208496e-01,-1.321017295122146606e-01,-1.016174033284187317e-01,-3.285977840423583984e-01,-2.047970741987228394e-01,-1.435774117708206177e-01,-1.720306873321533203e-01,-1.603550612926483154e-01,5.248554795980453491e-02,9.619769454002380371e-02,-7.125902175903320312e-02,1.185202412307262421e-02,6.736206263303756714e-02,-1.687528751790523529e-02,-6.745924800634384155e-02,9.444838017225265503e-02,3.093489632010459900e-02,2.528524696826934814e-01,6.336800009012222290e-02,-1.436057686805725098e-01,1.633797436952590942e-01,5.438139289617538452e-02,-5.493845790624618530e-02,9.697500616312026978e-03,-4.977704584598541260e-02,-6.240754202008247375e-02,1.122282221913337708e-01,-6.132440641522407532e-02,2.516338787972927094e-02,-5.523806437849998474e-03,1.377806439995765686e-02,7.621360570192337036e-02,4.686911031603813171e-02,-6.007118895649909973e-02,-4.955797269940376282e-02,5.418938025832176208e-02,3.112494572997093201e-02,-7.767575327306985855e-03,5.628608539700508118e-02,-1.176193132996559143e-01,-1.794355921447277069e-02,-1.582611799240112305e-01,9.904571808874607086e-03,4.811830818653106689e-02,-9.125008247792720795e-03,-7.465518265962600708e-02,3.520657122135162354e-02,-1.016366779804229736e-01,-6.419577449560165405e-02,4.373029246926307678e-02,-1.966347247362136841e-01,-4.266266152262687683e-02,-1.371807754039764404e-01,9.082035394385457039e-04,9.649011492729187012e-02,-2.973542734980583191e-02,-6.473544985055923462e-02,2.979025617241859436e-02,-1.195674166083335876e-01,3.001459501683712006e-02,-2.228835597634315491e-02,2.995865978300571442e-02,1.186722442507743835e-01,1.506699156016111374e-02,4.532774910330772400e-03,6.054763123393058777e-02,-4.134744033217430115e-02,7.232229411602020264e-02,1.331963669508695602e-02,-3.425404801964759827e-02,1.118739247322082520e-01,-1.294537037611007690e-01,7.564936578273773193e-02,8.810169249773025513e-02,-2.662079334259033203e-01,-8.995482325553894043e-02,1.219818219542503357e-01,-5.828266963362693787e-02,-2.620699116960167885e-03,7.858689129352569580e-02,-3.209441900253295898e-01,-1.094750314950942993e-01,-2.229370325803756714e-01,-1.413621753454208374e-01,-3.269739076495170593e-02,-1.531417369842529297e-01,-1.446461379528045654e-01,-8.790571987628936768e-02,-2.790545485913753510e-02,1.184735074639320374e-02,1.081664040684700012e-01,9.867738187313079834e-02,-4.087439551949501038e-02,-2.769604139029979706e-02,4.290319979190826416e-02,-7.600288372486829758e-03,-3.051451593637466431e-02,-1.916752196848392487e-02,-2.853146567940711975e-02,-6.706557422876358032e-02,5.109301954507827759e-02,1.080694645643234253e-01,8.271211758255958557e-03,1.357114464044570923e-01,4.440865293145179749e-02,1.088194102048873901e-01,1.702295243740081787e-01,3.650414571166038513e-02,4.365172609686851501e-02,1.352175921201705933e-01,1.122420281171798706e-01,-1.779405027627944946e-02,1.253130473196506500e-02,-1.897773146629333496e-02,6.991894543170928955e-02,-7.241450995206832886e-02,1.807452924549579620e-02,1.148552298545837402e-01,5.359022319316864014e-02,-2.008197829127311707e-02,-2.915536612272262573e-02,-4.642874374985694885e-02,-1.943682134151458740e-02,4.105526208877563477e-02,-1.561177521944046021e-01,-1.109718978404998779e-01,3.596943244338035583e-02,1.254737526178359985e-01,1.408514529466629028e-01,-1.111354082822799683e-01,3.111531026661396027e-02,6.302256137132644653e-02,4.824266582727432251e-02,-8.664892986416816711e-03,-1.397760864347219467e-02,-1.179197207093238831e-01,-1.816434264183044434e-01,-1.224163621664047241e-01,-1.768283545970916748e-01,-1.312189847230911255e-01,-1.216252371668815613e-01,-1.651556938886642456e-01,-1.411325484514236450e-01,-1.495160013437271118e-01,-1.190014407038688660e-01,1.547904461622238159e-01,5.381544679403305054e-02,2.522428333759307861e-02,7.824553549289703369e-02,1.389013789594173431e-02,3.159605711698532104e-02,1.325165294110774994e-02,-2.247585356235504150e-02,-2.440640032291412354e-01,-8.259534835815429688e-02,-8.856453746557235718e-02,-4.218448325991630554e-02,-2.156732976436614990e-01,-2.557345433160662651e-03,-8.522720634937286377e-02,-1.171782165765762329e-01,-1.212969124317169189e-01,6.539026647806167603e-02,-7.311210501939058304e-03,-3.101297020912170410e-01,-2.551563382148742676e-01,-8.493020385503768921e-02,-2.076864987611770630e-01,-1.983785629272460938e-01,2.199192903935909271e-02,-2.432927340269088745e-01,-1.603821218013763428e-01,-2.083042263984680176e-01,-1.167050749063491821e-01,-4.692460410296916962e-03,2.377535030245780945e-02,-2.579526901245117188e-01,-7.265164703130722046e-02,5.076860263943672180e-02,5.138735100626945496e-02,-6.116717681288719177e-02,-3.948574420064687729e-03,2.288863994181156158e-02,7.074175029993057251e-02,6.697011739015579224e-02,-1.274577993899583817e-02,-2.426859736442565918e-02,6.604816764593124390e-02,3.608596324920654297e-02,9.846885502338409424e-02,8.938176557421684265e-03,2.332471124827861786e-02,-1.008791150525212288e-03,8.128496259450912476e-02,-8.157335966825485229e-02,1.257205940783023834e-02,6.096572056412696838e-02,4.255749657750129700e-02,-7.032115757465362549e-02,-8.637853711843490601e-02,-4.086222127079963684e-02,-7.304949313402175903e-02,2.088188380002975464e-02,-4.847090318799018860e-02,8.070117793977260590e-03,-4.748281463980674744e-02,-1.331377681344747543e-02,3.168793767690658569e-02,6.294523179531097412e-02,-6.891469005495309830e-03,3.055039606988430023e-02,-4.594283178448677063e-02,-5.373317748308181763e-02,-2.933959290385246277e-02,8.904033899307250977e-02,-5.584389343857765198e-02,-1.027603447437286377e-02,5.442949384450912476e-02,-7.848796993494033813e-02,-1.255742162466049194e-01,-1.836205460131168365e-02,-5.441041290760040283e-02,3.941765055060386658e-02,2.402668260037899017e-02,-1.153436675667762756e-01,3.326702117919921875e-02,-1.001811698079109192e-01,-1.011460125446319580e-01,-2.193434908986091614e-02,-5.929331481456756592e-02,1.498140990734100342e-01,-1.164936795830726624e-01,-1.055787578225135803e-01,-1.988385617733001709e-02,-2.993213534355163574e-01,-2.281373143196105957e-01,-1.292050629854202271e-01,-9.402377158403396606e-02,-1.184406280517578125e-01,3.316533402539789677e-04,-4.446396976709365845e-02,1.856462471187114716e-02
