-2.228515036404132843e-02,-1.595634035766124725e-02,5.595888942480087280e-02,-2.796545065939426422e-02,-7.125224173069000244e-02,-1.375647634267807007e-01,-2.464834414422512054e-02,6.732916831970214844e-02,-5.092346668243408203e-02,8.086568862199783325e-02,6.768108159303665161e-02,-1.376674622297286987e-01,-1.075767204165458679e-01,-7.826954871416091919e-02,-1.082797069102525711e-02,1.456127129495143890e-02,1.269614323973655701e-02,6.398130953311920166e-02,-4.464347660541534424e-02,4.349976405501365662e-02,3.235659003257751465e-02,-8.057989925146102905e-02,3.208447992801666260e-02,1.365538779646158218e-02,-5.593744665384292603e-02,2.223744057118892670e-02,2.693510055541992188e-02,-1.790578812360763550e-01,-1.791197210550308228e-01,-1.125223785638809204e-01,7.215611636638641357e-02,9.284197352826595306e-03,-2.192153185606002808e-01,1.740690022706985474e-01,-1.517903804779052734e-01,-3.886237740516662598e-02,-2.896743454039096832e-02,-8.430490642786026001e-02,-1.347108632326126099e-01,1.102823242545127869e-01,3.589402884244918823e-02,-1.742026358842849731e-01,1.172598525881767273e-01,1.123816743493080139e-01,-7.035908848047256470e-02,2.111238241195678711e-02,1.420990284532308578e-02,3.243617340922355652e-02,-6.500624865293502808e-02,-1.970068663358688354e-01,-1.181448996067047119e-01,-1.930968165397644043e-01,8.385858684778213501e-02,-5.317759886384010315e-02,4.857709631323814392e-02,4.710921086370944977e-03,-1.147158220410346985e-01,8.114925026893615723e-02,2.327480586245656013e-03,1.174835339188575745e-01,-8.930830657482147217e-02,1.253727674484252930e-01,2.494918704032897949e-01,2.722144685685634613e-02,8.725426346063613892e-02,-1.874371059238910675e-02,8.299505710601806641e-02,-1.378355771303176880e-01,5.509121809154748917e-03,-9.158233553171157837e-02,-4.220259934663772583e-02,7.613603770732879639e-02,1.725960671901702881e-01,-1.290969271212816238e-02,-2.299543619155883789e-01,-1.123813092708587646e-01,-7.876737043261528015e-03,5.116587271913886070e-05,-1.156683545559644699e-02,1.349072456359863281e-01,4.026056081056594849e-02,4.783390462398529053e-02,-3.665386885404586792e-02,-6.124448496848344803e-03,-1.696091443300247192e-01,3.941389918327331543e-02,-1.082610040903091431e-01,-5.886404216289520264e-02,-5.595369730144739151e-03,2.772999927401542664e-02,-1.095689460635185242e-01,-5.949355661869049072e-02,9.665953367948532104e-02,1.040403619408607483e-01,-2.814769931137561798e-02,-3.822209686040878296e-02,3.809988126158714294e-02,8.622422814369201660e-02,3.173248842358589172e-02,-2.094471454620361328e-02,-8.457679301500320435e-02,1.362265497446060181e-01,-8.090380579233169556e-02,-9.184917062520980835e-02,-4.938133992254734039e-03,-3.136089071631431580e-02,1.359963044524192810e-02,-1.246026456356048584e-01,3.496652469038963318e-02,1.953165978193283081e-01,-6.764193624258041382e-02,-6.577140092849731445e-02,-6.649813055992126465e-02,5.103415623307228088e-02,8.971252292394638062e-02,-2.540667308494448662e-03,1.901852041482925415e-01,1.970176994800567627e-01,-6.765022408217191696e-04,-1.686972379684448242e-01,-3.714605793356895447e-02,4.227057471871376038e-02,-1.324263364076614380e-01,9.747078269720077515e-02,-8.216087520122528076e-02,3.638393059372901917e-02,-5.108464509248733521e-03,2.353576570749282837e-01,-1.400669962167739868e-01,-1.541035324335098267e-01,-1.213633120059967041e-01,-4.573388956487178802e-03,-1.718918979167938232e-01,-6.330697238445281982e-02,-8.287600427865982056e-02,-7.568553090095520020e-02,-3.326847031712532043e-02,2.841618098318576813e-02,1.280351281166076660e-01,-1.095619723200798035e-01,-1.193633899092674255e-01,-9.042600542306900024e-02,4.511353000998497009e-02,-1.027415469288825989e-01,1.509622018784284592e-02,-1.727560535073280334e-02,9.453772008419036865e-02,7.837687432765960693e-02,9.917997755110263824e-03,-3.675132989883422852e-02,-4.277525097131729126e-02,-4.197860136628150940e-02,-1.028041020035743713e-01,-5.458153411746025085e-02,-1.959993392229080200e-01,1.018565986305475235e-02,3.368688374757766724e-02,6.565798819065093994e-02,2.772786468267440796e-02,9.119854075834155083e-04,-1.050554439425468445e-01,2.023284137248992920e-01,-1.844937168061733246e-02,-1.623001322150230408e-02,-1.758087575435638428e-01,-4.156827926635742188e-02,-1.622029691934585571e-01,2.156241424381732941e-02,6.972412019968032837e-02,2.216272056102752686e-02,1.152499672025442123e-02,-3.163000568747520447e-03,6.875699851661920547e-03,-2.742846310138702393e-01,-7.509782910346984863e-02,-2.407047897577285767e-01,1.007011532783508301e-02,2.693168818950653076e-01,2.443468868732452393e-01,1.014045551419258118e-01,-6.482634693384170532e-02,-1.481694448739290237e-02,1.161739006638526917e-01,-1.637609116733074188e-02,-1.756670027971267700e-01,1.305016577243804932e-01,-4.366640001535415649e-02,2.648166008293628693e-02,1.453533954918384552e-02,2.190511673688888550e-02,9.315980225801467896e-02,-6.323892623186111450e-02,1.660357862710952759e-01,-1.320718228816986084e-01,5.073009803891181946e-02,4.227805882692337036e-02,-8.986544795334339142e-03,-8.715923875570297241e-02,-7.195089757442474365e-02,2.461609989404678345e-02,3.339349851012229919e-02,-1.045703440904617310e-01,-1.091494411230087280e-01,-8.971082419157028198e-02,-3.805933520197868347e-02,-1.515237241983413696e-01,-6.063219904899597168e-02,1.220617294311523438e-01,-1.192380338907241821e-01,-9.307491034269332886e-02,-2.909239940345287323e-02,1.118856742978096008e-01,1.077468171715736389e-01,-8.634178899228572845e-03,-1.125335618853569031e-01,-5.052974820137023926e-02,1.233908608555793762e-01,-3.144970163702964783e-02,5.920389294624328613e-02,3.076870366930961609e-02,9.391576051712036133e-03,-1.322484016418457031e-01,8.965161442756652832e-02,-1.250598579645156860e-01,-1.118184179067611694e-01,1.052888557314872742e-01,-2.552233263850212097e-02,7.232066988945007324e-02,-1.068840324878692627e-01,5.576056241989135742e-02,-1.185217648744583130e-01,4.804160818457603455e-02,6.847599893808364868e-02,-1.653768718242645264e-01,1.565792560577392578e-01,1.279247738420963287e-02,2.728414908051490784e-02,-1.093063876032829285e-01,-1.334510892629623413e-01,-6.014312803745269775e-02,-2.921683713793754578e-02,3.731599077582359314e-02,-1.770616173744201660e-01,-1.946480274200439453e-01,-9.213478304445743561e-03,1.834736466407775879e-01,2.253515180200338364e-03,-1.984915137290954590e-01,5.304199829697608948e-02,1.157662495970726013e-01,-1.226809099316596985e-01,1.558666527271270752e-01,8.574845641851425171e-02,4.648147150874137878e-03,1.705316901206970215e-01,-3.953182324767112732e-02,7.104281103238463402e-04,-5.172944068908691406e-02,1.527769714593887329e-01,1.516193747520446777e-01,1.519998610019683838e-01,-8.944734185934066772e-02,-6.015909463167190552e-02,-7.723731547594070435e-02,6.612019985914230347e-02,1.550060510635375977e-01,-5.914053320884704590e-02,-1.142377406358718872e-01,-3.077398799359798431e-02,5.561475455760955811e-02,5.581217259168624878e-02,-1.671618223190307617e-01,-2.507984824478626251e-02,1.094993948936462402e-01,-4.538606479763984680e-02,-8.218552917242050171e-02,-8.222143352031707764e-02,6.867274641990661621e-02,1.113257184624671936e-01,-1.103187426924705505e-01,5.774560198187828064e-02,1.997100710868835449e-01,3.344218432903289795e-02,1.181438416242599487e-01,-3.049767203629016876e-02,1.421517133712768555e-01,-6.897815316915512085e-02,9.501903504133224487e-02
-4.363379999995231628e-02,3.792675957083702087e-02,-1.866293251514434814e-01,-8.053185045719146729e-02,9.065633267164230347e-02,-1.847619712352752686e-01,-1.889434307813644409e-01,7.608542591333389282e-02,-1.037846803665161133e-01,1.556543558835983276e-01,6.715402752161026001e-02,6.190495193004608154e-02,5.717159435153007507e-02,3.372090868651866913e-03,-1.965898722410202026e-01,-3.941314294934272766e-02,-1.478804927319288254e-02,-7.285434752702713013e-02,-1.672574728727340698e-01,1.372101306915283203e-01,-5.869283899664878845e-02,2.359203062951564789e-02,-6.266260147094726562e-02,-4.118833318352699280e-02,1.859265752136707306e-02,4.817683622241020203e-02,-4.162438213825225830e-02,9.125532209873199463e-02,-1.408725394867360592e-03,-7.846317603252828121e-04,7.041455805301666260e-02,-2.126979678869247437e-01,-4.739633947610855103e-02,1.353440992534160614e-02,-2.509992420673370361e-01,-1.961664557456970215e-01,1.484964340925216675e-01,1.475895475596189499e-02,-1.012566983699798584e-01,-1.326820850372314453e-01,4.908359050750732422e-02,-4.673548415303230286e-02,1.490475703030824661e-02,-1.104732677340507507e-01,4.048737138509750366e-02,5.601383000612258911e-02,9.550534933805465698e-02,-9.628031402826309204e-02,-7.345634698867797852e-02,5.402437597513198853e-02,-5.122141912579536438e-02,-6.657303124666213989e-02,-1.163773015141487122e-01,-8.888158202171325684e-02,1.593214869499206543e-01,1.456457078456878662e-01,-1.781059987843036652e-02,6.774763762950897217e-02,1.278365403413772583e-02,1.092411857098340988e-02,1.370562314987182617e-01,5.718093737959861755e-02,-1.460012942552566528e-01,1.037631779909133911e-01,4.237328469753265381e-02,-4.325808957219123840e-02,-4.743222147226333618e-02,-2.319896779954433441e-02,-1.646903306245803833e-01,5.513917654752731323e-02,6.237913668155670166e-02,-5.282093957066535950e-02,6.390377879142761230e-02,4.406134784221649170e-02,6.730134785175323486e-02,-1.183825060725212097e-01,6.052796542644500732e-02,9.050480276346206665e-02,4.124316945672035217e-02,-4.289822652935981750e-03,1.365555822849273682e-01,1.960716098546981812e-01,-1.633607409894466400e-02,-8.456892520189285278e-02,2.342083677649497986e-02,-6.140428781509399414e-02,7.954477518796920776e-02,1.827358826994895935e-02,5.353991314768791199e-02,9.578704833984375000e-02,2.968309260904788971e-02,-1.125115081667900085e-01,-2.958590164780616760e-02,2.400345653295516968e-01,1.695740967988967896e-03,-7.661293447017669678e-02,1.053361445665359497e-01,6.439080927520990372e-03,1.637729108333587646e-01,9.938946366310119629e-02,1.009383499622344971e-01,-1.038789227604866028e-01,1.668317615985870361e-01,-8.317930996417999268e-02,-5.528986826539039612e-02,2.499890513718128204e-02,-3.965539857745170593e-02,-1.140511631965637207e-01,7.139172405004501343e-02,2.544455789029598236e-02,-1.031775772571563721e-01,-1.139875594526529312e-02,-1.535938978195190430e-01,-8.219964802265167236e-02,-5.888457223773002625e-02,-1.158997640013694763e-01,-4.096165671944618225e-02,1.946072131395339966e-01,9.385923296213150024e-02,-1.136911809444427490e-01,6.115661561489105225e-02,-1.280512511730194092e-01,-2.345683872699737549e-01,5.312569811940193176e-02,-9.239929914474487305e-02,4.797131987288594246e-05,1.194573044776916504e-01,5.506878718733787537e-02,-1.537685245275497437e-01,-9.303943812847137451e-02,-3.663842007517814636e-02,-1.346979886293411255e-01,-1.565048694610595703e-01,-2.747358679771423340e-01,-9.745650738477706909e-02,-1.468890756368637085e-01,3.463887423276901245e-02,-3.403582610189914703e-03,-6.501507014036178589e-02,-1.006739772856235504e-02,3.562273457646369934e-02,-3.706445172429084778e-02,-2.519347239285707474e-03,-1.318441517651081085e-02,-6.692285835742950439e-02,-5.475953966379165649e-02,-5.010663345456123352e-02,-2.710687369108200073e-02,-1.347042471170425415e-01,4.978820681571960449e-03,-2.409216947853565216e-02,-1.766272075474262238e-02,-1.722945421934127808e-01,-5.701132118701934814e-02,3.058113623410463333e-03,-1.439564228057861328e-01,7.718738168478012085e-02,5.440966784954071045e-02,-8.818675577640533447e-02,-5.779906734824180603e-02,-1.213660240173339844e-01,6.757656484842300415e-02,-6.206732243299484253e-03,-1.371386498212814331e-01,-1.513058319687843323e-02,-9.194971621036529541e-02,-1.160795018076896667e-01,7.320416718721389771e-02,-8.478021621704101562e-02,8.360626548528671265e-02,1.988265663385391235e-02,-5.028389859944581985e-03,-1.462633609771728516e-01,-1.124240979552268982e-01,3.099575079977512360e-02,-1.223555132746696472e-01,-1.807052642107009888e-01,1.807391941547393799e-01,-9.435923397541046143e-02,-8.629037439823150635e-02,6.649533286690711975e-03,-1.125098913908004761e-01,-3.457766771316528320e-02,9.460514783859252930e-02,5.868158489465713501e-02,-6.341092288494110107e-02,2.636555954813957214e-02,-1.029365360736846924e-01,-1.339448541402816772e-01,2.521802484989166260e-02,7.833380997180938721e-02,-1.088197529315948486e-01,-1.151719093322753906e-01,-6.321004778146743774e-02,4.556096345186233521e-02,-4.665117710828781128e-02,-1.447111833840608597e-02,8.720705658197402954e-02,-8.074970543384552002e-02,-3.250239789485931396e-02,-1.423242986202239990e-01,-3.248822031309828162e-05,-9.266198426485061646e-02,1.018841937184333801e-01,9.688486903905868530e-02,-7.838564924895763397e-03,-1.421042811125516891e-02,-7.020908594131469727e-02,-4.281358793377876282e-03,-1.821519881486892700e-01,7.481109350919723511e-02,7.170914858579635620e-02,2.590500377118587494e-02,1.760908961296081543e-01,-1.051906421780586243e-01,-4.106978327035903931e-02,7.112685590982437134e-02,-5.606397613883018494e-02,-6.004030629992485046e-02,5.963591113686561584e-02,5.464287474751472473e-03,5.688785761594772339e-02,1.092729568481445312e-01,2.560603059828281403e-02,-1.831890195608139038e-01,9.414529800415039062e-02,1.338588595390319824e-01,8.677721023559570312e-02,5.294041335582733154e-02,-8.291766047477722168e-02,-7.988981157541275024e-02,4.952479153871536255e-02,-7.866258174180984497e-02,8.212772011756896973e-02,-3.715064376592636108e-02,-3.902536630630493164e-02,-1.764553636312484741e-01,9.612021595239639282e-02,-5.718674138188362122e-02,-6.037225201725959778e-02,2.298138849437236786e-02,-1.073746606707572937e-01,-1.514003723859786987e-01,-3.471660017967224121e-01,6.537601351737976074e-02,2.371735423803329468e-01,-8.905152976512908936e-02,-4.785187169909477234e-02,1.068207472562789917e-01,-1.122655719518661499e-02,-1.933179795742034912e-01,1.429837942123413086e-01,1.445884853601455688e-01,1.785369515419006348e-01,2.757881768047809601e-02,1.308715641498565674e-01,5.845971405506134033e-02,-8.986030705273151398e-03,-9.296885132789611816e-02,2.054204493761062622e-01,1.296559721231460571e-01,-2.476095594465732574e-02,1.232986524701118469e-01,-9.860848635435104370e-02,-1.299978941679000854e-01,2.453205175697803497e-02,2.069957740604877472e-02,2.759822271764278412e-02,8.160522580146789551e-02,1.562434807419776917e-02,-6.108886376023292542e-02,-1.043211482465267181e-02,-1.063897907733917236e-01,1.621739715337753296e-01,-1.789717003703117371e-02,5.175384506583213806e-02,-1.082543730735778809e-01,-3.621024638414382935e-02,-1.863679140806198120e-01,3.294857684522867203e-03,1.239531114697456360e-02,-2.597932890057563782e-02,-7.355722039937973022e-02,-2.840765565633773804e-02,-6.123160570859909058e-02,-1.203737407922744751e-01,4.227935150265693665e-02,-9.703353047370910645e-02
-1.940738260746002197e-01,-1.609854847192764282e-01,-1.815506368875503540e-01,-9.895757585763931274e-02,-1.702826470136642456e-01,-1.227474492043256760e-02,-5.828094482421875000e-02,-2.744863033294677734e-01,6.514164805412292480e-02,1.258912980556488037e-01,-3.410980105400085449e-02,-1.254854649305343628e-01,6.273863464593887329e-02,-6.546798348426818848e-02,-8.133134990930557251e-02,-1.151358261704444885e-01,-6.901417672634124756e-02,-1.902424693107604980e-01,6.985247880220413208e-02,-7.002521306276321411e-02,1.245778501033782959e-01,-7.175037264823913574e-02,1.161692291498184204e-01,-1.796884834766387939e-01,-1.090224906802177429e-01,5.515017732977867126e-02,-7.975537329912185669e-02,-3.279735893011093140e-02,-5.696159228682518005e-02,-9.145271033048629761e-02,8.068571984767913818e-02,-7.906256616115570068e-02,-1.058004125952720642e-01,-7.380087673664093018e-02,-4.544417187571525574e-02,-1.121017411351203918e-01,-5.487000569701194763e-02,1.387507021427154541e-01,1.466910243034362793e-01,-1.226981403306126595e-03,1.124515086412429810e-01,1.144390776753425598e-01,-7.210047543048858643e-02,6.023811548948287964e-02,-4.463379457592964172e-02,-9.940376877784729004e-02,-1.332163810729980469e-02,2.343844622373580933e-02,1.648323535919189453e-01,2.480470202863216400e-02,1.245525106787681580e-01,1.248653978109359741e-01,1.800156682729721069e-01,6.287112832069396973e-02,-4.945243895053863525e-02,-2.010976076126098633e-01,-4.930593445897102356e-02,-1.278427094221115112e-01,-6.207786127924919128e-02,2.621549367904663086e-02,-1.703131347894668579e-01,-1.159750521183013916e-01,-1.407226473093032837e-01,1.673084497451782227e-02,-1.198977902531623840e-01,-1.164739653468132019e-01,-6.211830303072929382e-02,-1.872791093774139881e-03,-7.539152354001998901e-02,-1.048492416739463806e-01,-4.778730496764183044e-02,-1.335976123809814453e-01,-4.865936562418937683e-02,-8.828821778297424316e-02,-5.668295547366142273e-02,-3.214790225028991699e-01,-1.834391802549362183e-01,-1.945078819990158081e-01,-2.193525582551956177e-01,-1.774894148111343384e-01,-1.292276531457901001e-01,-1.056600734591484070e-01,-1.564461290836334229e-01,8.024951443076133728e-03,3.146466100588440895e-03,-3.932892903685569763e-02,-6.206415221095085144e-02,1.015631556510925293e-01,7.529919594526290894e-02,1.161712482571601868e-01,1.276895850896835327e-01,1.843826621770858765e-01,9.194583632051944733e-03,2.513633482158184052e-02,-6.641862541437149048e-02,-7.643619924783706665e-02,1.026449352502822876e-01,-8.444857597351074219e-02,-1.782129108905792236e-01,-6.076847389340400696e-02,1.958692967891693115e-01,1.760975457727909088e-02,1.019172295928001404e-01,-4.729315266013145447e-02,3.796185180544853210e-02,9.680881351232528687e-02,1.260181069374084473e-01,2.540591061115264893e-01,1.991543732583522797e-02,3.619287908077239990e-02,5.959752574563026428e-02,9.895993769168853760e-02,-1.353004425764083862e-01,1.532978415489196777e-01,-1.301718652248382568e-01,1.340447217226028442e-01,9.995586425065994263e-02,-9.920259565114974976e-02,-3.091208823025226593e-02,-4.665314778685569763e-02,-2.164258211851119995e-01,-7.388401776552200317e-02,7.037344574928283691e-02,-8.439629524946212769e-02,1.564825475215911865e-01,3.170505166053771973e-02,-1.601753830909729004e-01,-9.992349892854690552e-02,1.890342086553573608e-01,-8.242351002991199493e-03,-1.701995916664600372e-02,-1.136193284764885902e-03,-4.735651426017284393e-03,-3.273368254303932190e-02,-1.789300590753555298e-01,2.905698260292410851e-03,2.097270935773849487e-01,2.029699087142944336e-01,5.358985066413879395e-02,8.360912650823593140e-02,1.340212821960449219e-01,1.198661252856254578e-01,-1.930346712470054626e-02,1.742425709962844849e-01,-1.855494827032089233e-01,1.368646323680877686e-01,6.030253693461418152e-02,-1.206129267811775208e-01,9.088978171348571777e-02,1.171822100877761841e-01,1.097907423973083496e-01,1.523453146219253540e-01,-7.181870937347412109e-02,-9.546018391847610474e-02,1.652044951915740967e-01,1.245713904500007629e-01,-1.714263260364532471e-01,1.619571000337600708e-01,-7.744409888982772827e-02,1.421146187931299210e-02,4.084921628236770630e-02,1.123103573918342590e-01,1.381013691425323486e-01,-1.499583013355731964e-02,2.028482407331466675e-01,1.740070283412933350e-01,-3.327789157629013062e-02,5.185153707861900330e-02,-3.043868765234947205e-02,2.486465871334075928e-01,-3.158066794276237488e-02,2.541578114032745361e-01,-8.955422043800354004e-02,1.335168778896331787e-01,-7.004679739475250244e-02,-3.640764206647872925e-02,4.514110460877418518e-02,-1.210739165544509888e-01,2.832334674894809723e-02,9.652525186538696289e-02,-1.772878170013427734e-01,8.263141848146915436e-03,8.991023898124694824e-02,8.316057920455932617e-02,5.593230947852134705e-02,5.408680811524391174e-02,3.286611661314964294e-02,-1.674814075231552124e-01,-2.000113278627395630e-01,-8.710501343011856079e-02,-2.005954645574092865e-02,-1.575525254011154175e-01,8.695955574512481689e-02,-9.788805246353149414e-02,-1.405708044767379761e-01,-2.099196612834930420e-02,-8.823000639677047729e-02,-1.311735659837722778e-01,9.769799187779426575e-03,-6.516589969396591187e-02,-1.797326356172561646e-01,1.943289861083030701e-02,5.813635513186454773e-02,-2.169331349432468414e-02,-2.666513435542583466e-02,6.246265023946762085e-02,-1.652688905596733093e-02,-8.691076934337615967e-02,-2.435119822621345520e-02,-4.725373350083827972e-03,1.109993457794189453e-02,-1.476288139820098877e-01,1.965112686157226562e-01,5.506272427737712860e-04,-1.962389983236789703e-02,1.709755063056945801e-01,-4.481464996933937073e-02,-1.680794171988964081e-02,5.380273982882499695e-02,1.601372063159942627e-01,-7.707851380109786987e-02,-4.221889004111289978e-02,-1.733170747756958008e-01,-3.702609613537788391e-02,-1.809127479791641235e-01,-1.206984743475914001e-01,6.933767348527908325e-02,-1.356593370437622070e-01,5.611436814069747925e-02,-1.120287328958511353e-01,-1.215407103300094604e-01,7.366114109754562378e-02,1.185838058590888977e-01,9.089979529380798340e-02,-1.720509724691510201e-03,2.198624014854431152e-01,1.359365731477737427e-01,1.395909190177917480e-01,1.064885333180427551e-01,1.797666400671005249e-01,4.830405116081237793e-02,1.036508977413177490e-01,1.734185218811035156e-01,-9.986822307109832764e-02,3.071456775069236755e-02,-2.120970934629440308e-02,9.833999723196029663e-02,6.829082965850830078e-02,1.757281832396984100e-02,1.580058783292770386e-01,4.654180258512496948e-02,-5.636066198348999023e-02,2.317707799375057220e-02,-8.672625571489334106e-02,-2.124123089015483856e-02,1.003004238009452820e-01,6.669485569000244141e-02,-7.196540385484695435e-02,6.319208443164825439e-02,1.113855615258216858e-01,6.634891778230667114e-02,-1.176411584019660950e-01,-6.046059727668762207e-02,-2.272387966513633728e-02,-9.914198890328407288e-03,8.390017785131931305e-03,-6.969242542982101440e-02,-5.975155532360076904e-02,-2.498982101678848267e-01,-8.642484992742538452e-02,-9.941842406988143921e-02,-5.832233466207981110e-03,1.077263206243515015e-01,2.542127855122089386e-02,8.463267236948013306e-02,-2.685364894568920135e-02,-6.625613663345575333e-03,2.458924949169158936e-01,4.864679276943206787e-02,1.406655758619308472e-01,2.535144612193107605e-02,-8.994426578283309937e-02,1.032287161797285080e-02,3.133597597479820251e-02,-1.869054734706878662e-01,5.869942158460617065e-02,-3.696868568658828735e-02,-7.582824677228927612e-02
5.171526595950126648e-02,1.336562186479568481e-01,4.548917338252067566e-02,6.726346164941787720e-02,-1.407516449689865112e-01,-1.140014752745628357e-01,1.312136203050613403e-01,-5.526833236217498779e-02,-1.579104959964752197e-01,9.425939619541168213e-02,3.300232440233230591e-02,-1.274584382772445679e-01,-5.182795226573944092e-02,-2.008101195096969604e-01,-2.541302144527435303e-01,-1.844975352287292480e-01,5.064322054386138916e-02,8.506491035223007202e-02,-3.847211971879005432e-02,1.008710563182830811e-01,8.816429227590560913e-02,-5.885045230388641357e-02,-4.773290362209081650e-03,-1.257513184100389481e-03,1.711781322956085205e-02,-1.503695398569107056e-01,-7.943880558013916016e-02,-8.734036982059478760e-02,-2.825865708291530609e-02,9.585088118910789490e-03,7.232748717069625854e-02,-9.021381288766860962e-02,1.250470727682113647e-01,-2.974294424057006836e-01,-2.888707518577575684e-01,-3.135860711336135864e-02,1.358851883560419083e-02,2.819233946502208710e-02,-2.734045088291168213e-01,7.179975509643554688e-02,-1.135734841227531433e-02,-8.152859658002853394e-02,-1.685446873307228088e-02,1.406732294708490372e-02,1.207801848649978638e-01,1.383115500211715698e-01,-1.182775199413299561e-01,-3.971756994724273682e-02,-1.450849473476409912e-01,-1.644207537174224854e-01,-2.567879669368267059e-02,-3.151536881923675537e-01,-2.747461497783660889e-01,-1.640808284282684326e-01,3.261844068765640259e-02,9.318705648183822632e-02,-6.424643099308013916e-02,-1.393726281821727753e-02,7.103876210749149323e-03,6.516122072935104370e-02,-1.752457618713378906e-01,2.809980325400829315e-02,2.793941460549831390e-02,-3.198384642601013184e-01,3.509834781289100647e-02,1.411213874816894531e-01,-1.701256446540355682e-02,1.684580892324447632e-01,2.260521240532398224e-02,8.431731164455413818e-02,-1.317428201436996460e-01,3.165293112397193909e-02,-2.461063265800476074e-01,-1.008513346314430237e-01,4.399913549423217773e-02,4.887552186846733093e-02,-8.388459682464599609e-02,1.918465793132781982e-01,9.071576595306396484e-02,1.522515118122100830e-01,-1.006903946399688721e-01,-1.014854311943054199e-01,-5.258184671401977539e-02,-1.506661623716354370e-01,6.201541796326637268e-02,8.202295750379562378e-02,-5.608225241303443909e-02,-2.618593573570251465e-01,-1.077752783894538879e-01,-8.096995204687118530e-02,-2.737674303352832794e-02,-1.717801690101623535e-01,-3.098992705345153809e-01,-7.280523329973220825e-02,3.845629096031188965e-02,5.102300643920898438e-02,8.334556967020034790e-02,2.818981409072875977e-01,1.457508653402328491e-01,-3.073361143469810486e-02,-1.367635428905487061e-01,-1.574773490428924561e-01,-6.331909447908401489e-02,6.806464865803718567e-03,-2.547976560890674591e-03,-1.405424252152442932e-02,4.373482987284660339e-02,4.891086742281913757e-02,4.392926394939422607e-02,6.956660072319209576e-04,-1.604487448930740356e-01,1.896015182137489319e-02,-9.105328470468521118e-02,-4.901567101478576660e-02,1.611818559467792511e-02,4.770652949810028076e-02,4.267913103103637695e-02,2.483145743608474731e-01,3.276474028825759888e-02,4.315976426005363464e-02,1.211166083812713623e-01,-3.863146994262933731e-03,4.935044795274734497e-02,-7.821286469697952271e-02,-2.769204676151275635e-01,-1.462576724588871002e-02,-1.121075376868247986e-01,-2.069019377231597900e-01,-3.261890113353729248e-01,4.224642645567655563e-03,-1.565362066030502319e-01,-2.177777439355850220e-01,-2.856621146202087402e-01,-3.728526234626770020e-01,5.014623748138546944e-04,6.866854429244995117e-02,-1.460224986076354980e-01,-9.946010261774063110e-02,1.086279153823852539e-01,6.677105277776718140e-02,5.571459233760833740e-02,-1.546203196048736572e-01,1.566218435764312744e-01,-7.158158719539642334e-02,1.424416750669479370e-01,1.773589253425598145e-01,2.585635483264923096e-01,-8.298650383949279785e-02,-6.602402031421661377e-02,1.951044201850891113e-01,-1.181293725967407227e-01,-3.629988729953765869e-01,-1.223040670156478882e-01,1.432766858488321304e-02,-1.188001558184623718e-01,-2.063105851411819458e-01,7.044395897537469864e-03,-1.011712551116943359e-01,8.586947619915008545e-02,1.168483793735504150e-01,1.068732663989067078e-01,9.268667548894882202e-02,1.328695267438888550e-01,5.266807600855827332e-02,-2.916297912597656250e-01,3.625245019793510437e-02,-7.992767542600631714e-02,1.526966504752635956e-02,5.033195018768310547e-02,9.372401237487792969e-02,-8.516009896993637085e-02,-2.093549631536006927e-02,2.831562655046582222e-03,-1.322404295206069946e-01,9.084400720894336700e-03,1.413977593183517456e-01,-1.393702230416238308e-03,7.901425706222653389e-04,-5.700182914733886719e-02,-6.104855984449386597e-02,1.301179230213165283e-01,3.521286323666572571e-02,-1.409888863563537598e-01,6.882483512163162231e-02,-5.443712323904037476e-02,-1.209109555929899216e-02,-8.367919176816940308e-02,-1.348905265331268311e-02,4.184326902031898499e-02,-3.326660990715026855e-01,-2.644713222980499268e-01,-2.525292634963989258e-01,7.831405103206634521e-02,-2.137851528823375702e-02,-2.274143137037754059e-02,7.876589149236679077e-02,5.894984304904937744e-02,1.427106112241744995e-01,1.533845216035842896e-01,1.371881067752838135e-01,1.064239889383316040e-01,1.095225438475608826e-01,6.055025383830070496e-02,6.470733135938644409e-02,-1.109104752540588379e-01,-5.342110991477966309e-03,8.599281311035156250e-02,-4.767527803778648376e-02,-1.177744045853614807e-01,-1.157295107841491699e-01,1.369963586330413818e-01,-1.020369306206703186e-01,-7.455968111753463745e-02,5.844455584883689880e-02,-7.240795344114303589e-02,7.150375097990036011e-02,-1.788979321718215942e-01,-3.286253660917282104e-02,9.551558643579483032e-02,-4.049698635935783386e-02,3.548961877822875977e-02,1.311324983835220337e-01,-1.021347567439079285e-01,-8.118618279695510864e-02,-3.491507377475500107e-03,8.388545364141464233e-02,8.242738246917724609e-02,8.630684763193130493e-02,-8.890695869922637939e-02,-2.052982803434133530e-03,1.434429883956909180e-01,-2.538832426071166992e-01,-2.221167981624603271e-01,-8.122918754816055298e-02,1.194728389382362366e-01,2.518752776086330414e-02,-8.721221238374710083e-02,-2.303618751466274261e-02,-8.943282067775726318e-02,-4.753798246383666992e-02,3.386853262782096863e-02,-1.776719987392425537e-01,5.108481645584106445e-02,6.518829613924026489e-02,7.619463652372360229e-02,-1.728261411190032959e-01,1.296439021825790405e-01,-1.380732059478759766e-01,-1.599624305963516235e-01,1.887874603271484375e-01,-1.844726270064711571e-03,-3.603889420628547668e-02,-3.759029507637023926e-02,1.288530975580215454e-01,1.466934978961944580e-01,-1.563897132873535156e-01,1.846865937113761902e-02,-1.324970871210098267e-01,-2.024799883365631104e-01,4.484352841973304749e-02,-6.341825425624847412e-02,1.061002165079116821e-02,-2.197744511067867279e-02,4.090195894241333008e-02,6.251892447471618652e-02,-3.559663891792297363e-02,2.540035247802734375e-01,-9.996549785137176514e-02,-1.560910344123840332e-01,4.705910757184028625e-02,1.424138993024826050e-01,5.834832414984703064e-02,-1.801597625017166138e-01,6.512226909399032593e-02,-7.943732291460037231e-02,-1.354724913835525513e-01,4.933584108948707581e-02,4.089158959686756134e-03,-4.314244166016578674e-02,-1.746838539838790894e-01,-1.656376719474792480e-01,-1.313381344079971313e-01,1.239466592669487000e-01,-1.669020019471645355e-02,1.096452400088310242e-01,1.861806958913803101e-01,-3.293522447347640991e-02,1.199083551764488220e-01
-4.925335943698883057e-02,-3.729750588536262512e-02,-3.933023288846015930e-02,-7.899483293294906616e-02,7.465336471796035767e-02,8.427277952432632446e-02,1.244560480117797852e-01,9.029699862003326416e-02,-1.950145512819290161e-02,1.731541380286216736e-02,-8.207930624485015869e-02,-7.245324552059173584e-02,-1.503969542682170868e-02,-3.331837942823767662e-03,-7.306579500436782837e-02,1.062306296080350876e-02,1.269337385892868042e-01,-2.966523729264736176e-02,-8.949890732765197754e-02,-6.585576571524143219e-03,8.074085228145122528e-03,-3.818139806389808655e-02,-2.864459902048110962e-02,-1.101581826806068420e-01,-1.260219663381576538e-01,-1.078002527356147766e-01,-8.775024674832820892e-03,-7.025197893381118774e-02,-1.245982497930526733e-01,-1.077528893947601318e-01,4.822355881333351135e-02,7.034894078969955444e-02,1.242605224251747131e-01,-1.294159442186355591e-01,-6.566669791936874390e-02,-1.974200829863548279e-02,7.694384548813104630e-03,-1.265126913785934448e-01,1.732881180942058563e-02,6.198034621775150299e-03,-2.270205169916152954e-01,5.962038785219192505e-02,-1.578595191240310669e-01,-5.349576473236083984e-03,-2.418577112257480621e-02,3.850661963224411011e-02,-9.054291248321533203e-02,-1.267678663134574890e-02,-1.261449009180068970e-01,3.996745496988296509e-02,6.202813237905502319e-02,-8.083571493625640869e-02,3.799876198172569275e-02,1.353422999382019043e-01,-1.551762106828391552e-03,1.096093840897083282e-02,-8.506841212511062622e-02,-5.980472639203071594e-02,-7.715838402509689331e-02,-1.472807824611663818e-01,7.585761696100234985e-02,4.713506624102592468e-02,5.153864622116088867e-02,7.985600084066390991e-02,-2.027451097965240479e-01,-3.659690544009208679e-02,-5.056975409388542175e-02,-5.187586694955825806e-02,-4.284719750285148621e-02,1.302495598793029785e-01,-1.389764398336410522e-01,-3.863739222288131714e-02,-3.259307891130447388e-02,9.583086520433425903e-02,-5.455729737877845764e-02,-6.908427923917770386e-02,3.238803520798683167e-02,3.723834455013275146e-02,1.098073050379753113e-01,7.399982959032058716e-02,-8.216091990470886230e-02,-9.732304513454437256e-02,-1.061178464442491531e-02,-9.592311829328536987e-02,-1.192533001303672791e-01,-1.662417128682136536e-02,-6.409695744514465332e-02,-1.435512006282806396e-01,-1.439929157495498657e-01,-2.751001901924610138e-02,-1.040795594453811646e-01,-2.035980075597763062e-01,-1.602529734373092651e-01,-1.840589046478271484e-01,-4.932877793908119202e-02,7.750632613897323608e-02,-1.019815169274806976e-02,3.423518687486648560e-02,-4.195439442992210388e-02,5.176948383450508118e-02,-5.409710854291915894e-02,-4.890059679746627808e-02,-5.766877159476280212e-02,1.675418950617313385e-02,-4.402736574411392212e-02,4.689760133624076843e-02,8.918137103319168091e-02,-9.217727929353713989e-02,-8.326108008623123169e-02,5.311369150876998901e-02,1.015471145510673523e-01,-6.593083497136831284e-03,1.007634773850440979e-02,-5.574151128530502319e-02,5.021747946739196777e-02,-9.343347698450088501e-02,-7.050572335720062256e-02,-1.405787169933319092e-01,-4.007337614893913269e-03,-6.730961799621582031e-02,-5.833461508154869080e-02,2.089794492349028587e-03,3.466534987092018127e-02,-1.075238361954689026e-01,-9.662198834121227264e-03,-4.072692245244979858e-02,1.019855514168739319e-01,-8.238402009010314941e-02,1.358315628021955490e-02,-1.639428436756134033e-01,-1.242041680961847305e-02,-1.060717925429344177e-01,-4.729089885950088501e-02,-1.080735400319099426e-01,1.155398264527320862e-01,-9.981393814086914062e-02,-1.488304417580366135e-02,-8.480297774076461792e-02,3.275637328624725342e-02,-1.696503609418869019e-01,-9.632068872451782227e-02,-5.039437860250473022e-02,-7.690510898828506470e-02,1.002425178885459900e-01,-1.398907899856567383e-01,-1.045268923044204712e-01,-2.342332303524017334e-01,-9.772352129220962524e-02,-1.902505457401275635e-01,-2.735817246139049530e-02,-7.718095183372497559e-02,-7.110982388257980347e-02,8.739925920963287354e-02,-2.320734411478042603e-01,-4.726002365350723267e-02,-1.314123440533876419e-02,-2.705750288441777229e-03,-1.750837825238704681e-02,-1.925733536481857300e-01,-3.892245143651962280e-02,1.456321775913238525e-02,-2.403985708951950073e-02,-5.564967542886734009e-02,2.069679833948612213e-02,1.371788419783115387e-02,-9.171228110790252686e-02,-4.110407456755638123e-02,2.634344808757305145e-02,3.694726619869470596e-03,7.327754795551300049e-02,2.274338901042938232e-02,8.384613692760467529e-02,-7.223202381283044815e-03,-1.462942212820053101e-01,-3.719299286603927612e-02,-1.667816936969757080e-01,7.959005981683731079e-02,-2.137148082256317139e-01,1.001726910471916199e-01,-1.781992614269256592e-01,-3.457784652709960938e-02,-6.995417922735214233e-02,-7.335024327039718628e-02,-7.827575504779815674e-02,-7.833115756511688232e-03,-1.106914579868316650e-01,-4.185839369893074036e-02,-5.064703896641731262e-02,2.819491177797317505e-02,5.245372653007507324e-02,1.102428510785102844e-01,-1.792158582247793674e-03,-8.287520706653594971e-02,-1.414878517389297485e-01,-6.037785485386848450e-02,-1.237093880772590637e-01,-4.189550131559371948e-02,9.101304411888122559e-02,1.209748312830924988e-01,-9.200796484947204590e-02,-1.322375889867544174e-02,3.978987224400043488e-03,1.161306500434875488e-01,-6.344885379076004028e-02,6.672724336385726929e-02,-3.577018901705741882e-02,-9.778561443090438843e-02,-1.291022151708602905e-01,-1.857260763645172119e-01,-1.839898154139518738e-02,6.761433929204940796e-02,5.398356006480753422e-04,2.833037264645099640e-02,-1.874297112226486206e-01,2.538671158254146576e-02,-1.352092716842889786e-02,-1.753805130720138550e-01,-7.068312168121337891e-02,-9.573782235383987427e-02,-1.040466576814651489e-01,-9.517601877450942993e-02,4.812383279204368591e-02,4.023255314677953720e-03,-1.495482474565505981e-01,-1.213664859533309937e-01,-1.305079907178878784e-01,-2.260947972536087036e-01,-2.958310395479202271e-02,5.043795704841613770e-02,-7.831133157014846802e-02,5.365484580397605896e-02,5.663029477000236511e-02,-1.825391203165054321e-01,-1.619854867458343506e-01,-1.291349828243255615e-01,-1.748444586992263794e-01,-4.619289189577102661e-02,-2.655294910073280334e-02,2.297661453485488892e-02,-1.217371299862861633e-01,-3.389926254749298096e-02,-8.047015219926834106e-02,-1.085999011993408203e-01,-8.245856314897537231e-02,-1.166488416492938995e-02,5.924330279231071472e-02,-2.430388778448104858e-01,-7.460787147283554077e-02,-9.023460745811462402e-02,-4.111131653189659119e-02,-1.682613044977188110e-01,1.020986363291740417e-01,-1.769689917564392090e-01,1.075828215107321739e-03,5.085160583257675171e-02,1.503091752529144287e-01,-7.470269501209259033e-02,5.811951681971549988e-02,-4.489067941904067993e-03,-1.055256500840187073e-01,-3.319017216563224792e-02,-1.474447101354598999e-01,3.317192196846008301e-02,-1.640556603670120239e-01,-7.107769697904586792e-02,4.488340020179748535e-02,-1.713063269853591919e-01,-1.575445681810379028e-01,1.054609939455986023e-02,-7.517305016517639160e-02,6.043222546577453613e-02,-1.500004082918167114e-01,-1.508966535329818726e-01,-1.295392364263534546e-01,-1.834051012992858887e-01,7.813061587512493134e-03,-1.664818972349166870e-01,-4.034477099776268005e-02,-1.397560387849807739e-01,4.809448495507240295e-02,-2.004582062363624573e-02,-1.921669691801071167e-01,4.149414133280515671e-03,2.944911085069179535e-02,-1.149120852351188660e-01,-2.564278617501258850e-02,-5.020403489470481873e-02,-2.278303503990173340e-01
-1.833131015300750732e-01,1.087858714163303375e-02,3.029785864055156708e-02,-2.023942023515701294e-02,1.962892860174179077e-01,-1.240315213799476624e-01,5.568657070398330688e-02,-5.304865166544914246e-02,5.097297206521034241e-02,-3.614152669906616211e-01,-2.055902779102325439e-01,-1.316689103841781616e-01,8.486027270555496216e-02,-1.416228264570236206e-01,-1.611464470624923706e-01,2.836965397000312805e-02,-3.114674426615238190e-02,-4.764405637979507446e-02,-2.665909938514232635e-02,-8.122537285089492798e-02,1.103629693388938904e-01,-4.623679444193840027e-02,-1.102192327380180359e-01,-1.391094923019409180e-01,1.523607820272445679e-01,-5.109135434031486511e-02,-1.171030923724174500e-01,-4.946407675743103027e-02,-1.887740939855575562e-01,-1.340865492820739746e-01,8.730697631835937500e-02,-2.475847005844116211e-01,-1.096342802047729492e-01,3.530802205204963684e-02,-1.308947354555130005e-01,7.562141865491867065e-02,-8.131965249776840210e-02,-1.596091091632843018e-01,9.855755418539047241e-02,-2.575757205486297607e-01,-1.259920448064804077e-01,-1.022026762366294861e-01,-6.335826218128204346e-02,-1.224044188857078552e-01,-8.793316781520843506e-02,7.210603915154933929e-03,-1.428907513618469238e-01,-2.917340025305747986e-02,9.304048866033554077e-02,-3.558043763041496277e-02,-7.194078713655471802e-02,2.674144506454467773e-01,6.088593974709510803e-02,-5.378430709242820740e-02,-1.084652990102767944e-01,-1.682703197002410889e-01,2.237223461270332336e-02,3.479067236185073853e-02,-2.175544500350952148e-01,-6.648751907050609589e-03,2.646414637565612793e-01,1.216760426759719849e-01,7.598648965358734131e-02,-1.453376710414886475e-01,2.060425840318202972e-02,1.160692274570465088e-01,-5.498364567756652832e-02,-5.373975262045860291e-02,7.631254941225051880e-02,9.543842822313308716e-02,1.851232908666133881e-02,5.126593261957168579e-02,5.416592210531234741e-02,5.414463952183723450e-02,-1.946053057909011841e-01,1.167229115962982178e-01,1.347657442092895508e-01,-4.502407833933830261e-02,2.579099833965301514e-01,8.340369910001754761e-02,1.551144523546099663e-03,4.584821686148643494e-02,-1.006979793310165405e-01,-2.652140557765960693e-01,3.885878250002861023e-02,4.724583402276039124e-02,-2.591847777366638184e-01,1.884051710367202759e-01,4.563593491911888123e-02,-1.430554687976837158e-01,-1.585821956396102905e-01,-8.620104938745498657e-02,8.468026667833328247e-02,-1.935341954231262207e-01,4.488903284072875977e-02,2.229651212692260742e-01,4.347698763012886047e-02,1.380443871021270752e-01,6.807316839694976807e-02,7.223458588123321533e-02,-1.458110362291336060e-01,5.720391124486923218e-02,1.415224224328994751e-01,-1.330268918536603451e-03,1.827194914221763611e-02,1.377010494470596313e-01,7.455240190029144287e-02,3.897755593061447144e-02,-1.914327591657638550e-01,-8.891370892524719238e-02,-5.407097935676574707e-02,2.165527641773223877e-01,2.195695936679840088e-01,1.086626127362251282e-01,2.699244320392608643e-01,7.850221544504165649e-02,5.306646227836608887e-02,5.622234567999839783e-02,-1.859618872404098511e-01,-1.967619806528091431e-01,2.646385431289672852e-01,1.026516035199165344e-02,-1.715191453695297241e-01,1.466189622879028320e-01,9.708946198225021362e-02,-1.351809054613113403e-01,-2.594442367553710938e-01,-1.026512607932090759e-01,-1.889169402420520782e-02,-1.877593249082565308e-02,-6.898396648466587067e-03,3.402199223637580872e-02,6.123247370123863220e-02,-6.015495955944061279e-02,-1.189137436449527740e-02,1.534611880779266357e-01,1.417059600353240967e-01,-1.145268976688385010e-01,8.260955661535263062e-02,1.397010236978530884e-01,-5.469834432005882263e-02,1.352807879447937012e-01,6.588971614837646484e-02,-1.894903182983398438e-01,1.076769232749938965e-01,-1.820270717144012451e-01,-1.364839375019073486e-01,1.537724211812019348e-02,5.372300278395414352e-03,9.559206664562225342e-02,2.007124759256839752e-02,8.810432255268096924e-02,8.561561256647109985e-02,-1.064750179648399353e-01,3.146009519696235657e-02,-5.906498990952968597e-03,-6.208898127079010010e-02,-1.408287882804870605e-01,1.130116432905197144e-01,1.195501163601875305e-01,-6.245598942041397095e-02,2.293232083320617676e-02,-5.477897822856903076e-02,-1.153652146458625793e-01,4.926728457212448120e-02,-5.984899401664733887e-02,-9.763732552528381348e-02,-8.636653423309326172e-02,2.673950977623462677e-02,-9.240088611841201782e-02,1.261824555695056915e-02,2.838432416319847107e-02,2.078877538442611694e-01,1.580975577235221863e-02,3.025699779391288757e-02,4.109986498951911926e-02,-7.457191497087478638e-02,3.204318508505821228e-02,5.406614020466804504e-02,7.809431105852127075e-02,5.929283052682876587e-02,-2.230950444936752319e-02,1.169619187712669373e-01,-1.397196650505065918e-01,-3.666674718260765076e-02,1.126752980053424835e-02,9.049352258443832397e-02,8.179122209548950195e-02,1.353595256805419922e-01,2.390111684799194336e-01,1.532796621322631836e-01,6.012355536222457886e-02,3.994990140199661255e-02,-1.483849287033081055e-01,-5.881344154477119446e-02,1.523408293724060059e-01,-9.332950413227081299e-02,-1.994653195142745972e-01,-1.474829670041799545e-02,9.372030943632125854e-02,5.956407170742750168e-03,9.255983680486679077e-02,3.114787489175796509e-02,-6.512963026762008667e-02,1.122789382934570312e-01,6.110912654548883438e-03,-3.786492347717285156e-02,2.340589649975299835e-02,5.811593309044837952e-02,-7.757344096899032593e-02,8.100125938653945923e-02,-8.908770978450775146e-02,-1.131862178444862366e-01,-5.698655545711517334e-02,-9.154615551233291626e-02,-7.832469791173934937e-02,2.013442367315292358e-01,-6.983204931020736694e-02,-6.679642945528030396e-02,-2.789440751075744629e-02,1.776268705725669861e-02,-5.924871191382408142e-02,1.147725433111190796e-01,1.120922341942787170e-01,-6.383948028087615967e-02,9.959900379180908203e-02,-1.709875613451004028e-01,-1.248393729329109192e-01,1.363902390003204346e-01,3.455745801329612732e-02,-6.055506691336631775e-02,1.618402302265167236e-01,1.473272293806076050e-01,-9.587295353412628174e-02,5.428943410515785217e-02,1.283399462699890137e-01,-1.593466252088546753e-01,1.368226855993270874e-01,-7.371452450752258301e-02,8.497552573680877686e-02,4.128121770918369293e-03,1.423182934522628784e-01,6.040864065289497375e-02,-5.761720985174179077e-02,-6.711474061012268066e-02,6.665059924125671387e-02,-1.198147907853126526e-01,-1.377162784337997437e-01,1.025977060198783875e-01,-3.054262697696685791e-01,-1.297509968280792236e-01,-4.252995550632476807e-02,-7.829033583402633667e-02,-9.095232188701629639e-02,-4.101628810167312622e-02,-9.472461789846420288e-02,-1.409562975168228149e-01,-1.877430379390716553e-01,-8.951222896575927734e-02,-9.249953925609588623e-02,6.713902950286865234e-02,7.136554270982742310e-02,-2.616064250469207764e-01,-9.602681547403335571e-02,7.330103963613510132e-02,7.446791231632232666e-02,2.375645749270915985e-02,-1.571155712008476257e-02,-5.494881793856620789e-02,2.538289129734039307e-02,6.562297046184539795e-02,-3.609247505664825439e-02,-1.875499486923217773e-01,7.148823142051696777e-02,-2.127430960536003113e-02,-1.663406789302825928e-01,2.114025950431823730e-01,1.094437912106513977e-01,-8.563961833715438843e-02,4.675643891096115112e-02,8.872392773628234863e-02,-8.101768046617507935e-02,-1.856749132275581360e-02,8.768539130687713623e-02,-5.034560710191726685e-02,-1.570546180009841919e-01,6.824510544538497925e-02,1.298031061887741089e-01
2.232544310390949249e-02,2.252034395933151245e-01,-1.416103690862655640e-01,-3.145633265376091003e-03,2.729863114655017853e-02,-4.402609542012214661e-02,-9.356191754341125488e-02,1.098980903625488281e-01,3.848339617252349854e-02,-9.629157930612564087e-02,-2.132652141153812408e-02,-2.778306603431701660e-01,7.298915833234786987e-02,-1.032492071390151978e-01,1.185024306178092957e-01,-1.667966693639755249e-02,3.837733715772628784e-02,2.343887835741043091e-01,-1.259061396121978760e-01,1.673397608101367950e-02,-6.526692956686019897e-02,2.700766921043395996e-02,-8.061138540506362915e-02,4.576035588979721069e-02,-6.832416355609893799e-02,-1.054633408784866333e-01,1.066605746746063232e-01,-1.377942115068435669e-01,-1.650082021951675415e-01,-2.385680079460144043e-01,-8.882134407758712769e-02,-2.876696586608886719e-01,-1.318493038415908813e-01,-2.001032978296279907e-01,-3.987285867333412170e-02,-3.178625404834747314e-01,-1.394000798463821411e-01,-1.234086789190769196e-02,8.974389173090457916e-03,1.151012182235717773e-01,1.621263474225997925e-02,-2.922815456986427307e-02,5.253309011459350586e-02,-9.255415201187133789e-02,-5.135468393564224243e-02,3.466022014617919922e-02,-3.905733302235603333e-02,-1.671626865863800049e-01,1.915808767080307007e-01,-7.239097356796264648e-02,-2.762075141072273254e-02,1.776188910007476807e-01,-3.070641495287418365e-02,-8.337696641683578491e-02,6.511824578046798706e-02,2.170712314546108246e-02,2.262477762997150421e-02,-3.227635100483894348e-02,2.553035318851470947e-02,-1.073876172304153442e-01,1.026940047740936279e-01,-8.273474872112274170e-03,-1.273437887430191040e-01,-1.660340465605258942e-02,8.158387988805770874e-02,6.710959970951080322e-02,3.690192848443984985e-02,-7.530203461647033691e-02,-7.896817475557327271e-02,2.109280414879322052e-02,-1.577640175819396973e-01,9.396426379680633545e-03,-6.113947927951812744e-02,-1.313853561878204346e-01,-8.469661325216293335e-02,4.338569566607475281e-02,-1.921397745609283447e-01,-6.765682995319366455e-02,6.916970014572143555e-02,1.412316709756851196e-01,4.227297380566596985e-02,-8.185941725969314575e-02,6.268482655286788940e-02,-1.890882104635238647e-01,1.517420411109924316e-01,-6.966270506381988525e-02,-1.752099841833114624e-01,-7.009536493569612503e-03,-1.931451708078384399e-01,-2.629142999649047852e-01,1.642781049013137817e-01,1.865014731884002686e-01,8.543208241462707520e-02,-4.395462200045585632e-02,8.874823898077011108e-02,5.500813201069831848e-02,-1.257824748754501343e-01,-1.710631400346755981e-01,-1.555643677711486816e-01,-1.032777875661849976e-01,2.115088142454624176e-02,-2.120707556605339050e-02,5.335377156734466553e-02,-3.563702851533889771e-02,-1.474971771240234375e-01,7.802522927522659302e-02,-1.778998784720897675e-02,1.995545998215675354e-02,-3.024390041828155518e-01,-7.398191839456558228e-02,-4.912365600466728210e-02,-2.954871654510498047e-01,-2.099610120058059692e-01,-3.398053050041198730e-01,-1.956316083669662476e-01,-1.093215420842170715e-01,2.799642644822597504e-02,-1.803552061319351196e-01,-1.962341666221618652e-01,-2.585439383983612061e-01,-1.021132171154022217e-01,-6.138277053833007812e-02,-2.357182800769805908e-01,-3.046572208404541016e-01,-1.087411567568778992e-01,-1.354989558458328247e-01,-1.464861482381820679e-01,-5.982637777924537659e-02,-1.715387403964996338e-01,-1.972636282444000244e-01,3.177337720990180969e-02,2.677288092672824860e-02,-1.524820923805236816e-01,-2.254780530929565430e-01,-5.157207325100898743e-02,4.814821109175682068e-02,-1.780202090740203857e-01,-6.215704977512359619e-02,1.996818184852600098e-01,2.015471272170543671e-02,6.396580487489700317e-02,-2.351773716509342194e-02,1.040324270725250244e-01,5.501446500420570374e-02,-1.558359712362289429e-01,-2.865962088108062744e-01,-1.186950877308845520e-01,7.205250859260559082e-02,-1.932835578918457031e-01,6.952839903533458710e-03,-4.409993439912796021e-02,6.407500803470611572e-02,1.502680927515029907e-01,4.274040926247835159e-03,-2.246234565973281860e-02,1.417332440614700317e-01,-1.960234344005584717e-01,-2.729378826916217804e-02,1.000789627432823181e-01,-1.341316699981689453e-01,-2.957485243678092957e-02,6.992265582084655762e-02,-2.403358221054077148e-01,-1.715222895145416260e-01,-2.350903302431106567e-01,-2.751586437225341797e-01,-2.026168443262577057e-02,-2.186969816684722900e-01,-5.787741765379905701e-02,1.267207562923431396e-01,1.025556772947311401e-01,6.705462187528610229e-02,-1.105036586523056030e-02,-3.213640674948692322e-02,-5.977218970656394958e-02,-4.385622590780258179e-02,-1.827400363981723785e-02,-1.026101261377334595e-01,1.166727952659130096e-02,1.535401493310928345e-01,1.778922451194375753e-04,-1.901554130017757416e-02,-7.140612602233886719e-02,-9.383029490709304810e-02,7.872390002012252808e-02,-1.224587112665176392e-01,7.415196299552917480e-02,4.750289022922515869e-02,8.469145745038986206e-02,-1.080876216292381287e-01,7.298482209444046021e-02,3.217415511608123779e-02,-1.520643532276153564e-01,-2.171358093619346619e-02,-5.757003650069236755e-02,-6.002431362867355347e-02,2.738707512617111206e-02,-9.023954719305038452e-02,-8.660496026277542114e-02,5.084481462836265564e-02,-4.547942895442247391e-03,-1.282187402248382568e-01,6.739930808544158936e-02,-8.264856785535812378e-02,9.115938097238540649e-02,-5.599355697631835938e-02,-7.305791229009628296e-02,1.494722068309783936e-02,-4.170147329568862915e-02,5.116356164216995239e-02,-4.968683049082756042e-02,-6.103036552667617798e-02,-1.022823080420494080e-01,-5.521612241864204407e-02,-7.743152976036071777e-02,-1.616540402173995972e-01,-1.820706129074096680e-01,-5.484563484787940979e-02,-1.174928247928619385e-01,6.113936007022857666e-02,5.932276323437690735e-02,4.744349792599678040e-02,-2.414572983980178833e-02,-1.383124887943267822e-01,7.772273570299148560e-02,1.363916099071502686e-01,-1.124598551541566849e-02,-8.506167680025100708e-02,3.215882927179336548e-02,-8.378431946039199829e-02,1.501013040542602539e-01,-4.769834503531455994e-02,-1.216711327433586121e-01,-8.831932395696640015e-02,-5.791088193655014038e-02,-1.727239787578582764e-01,-1.046455129981040955e-01,-1.146564260125160217e-01,7.166506350040435791e-02,-1.181869208812713623e-01,1.810007542371749878e-01,-8.716200292110443115e-02,-9.878668189048767090e-02,-1.423287391662597656e-01,-1.381687968969345093e-01,7.531563937664031982e-02,-1.988100558519363403e-01,-1.638909615576267242e-02,9.056401252746582031e-02,-4.353846982121467590e-02,1.045841500163078308e-01,1.334891766309738159e-01,-3.313283622264862061e-02,-7.758575677871704102e-02,1.863172091543674469e-02,-1.706374734640121460e-01,-7.363200932741165161e-02,-1.256284564733505249e-01,1.482582837343215942e-01,1.062906458973884583e-01,2.341761887073516846e-01,-6.784749776124954224e-02,-1.081234663724899292e-01,2.648936957120895386e-02,1.652653142809867859e-02,-1.812843233346939087e-02,1.091056466102600098e-01,1.066685467958450317e-01,1.255117058753967285e-01,-1.044249609112739563e-01,-1.239914894104003906e-01,2.642601914703845978e-02,4.844835400581359863e-02,-7.728195935487747192e-02,4.690272361040115356e-02,-6.208190694451332092e-02,-2.054483890533447266e-01,8.741882443428039551e-02,7.292610406875610352e-02,-1.294260919094085693e-01,4.817754402756690979e-02,9.446366131305694580e-02,5.596557748503983021e-04,2.180517092347145081e-02,1.321567296981811523e-01,-1.056352257728576660e-01,6.451652944087982178e-02,1.490370929241180420e-01
6.842138618230819702e-02,-4.440427571535110474e-02,-1.089692264795303345e-01,1.025759615004062653e-02,1.271106153726577759e-01,-3.571168519556522369e-03,6.548422574996948242e-02,4.299346357583999634e-02,3.839490190148353577e-02,4.070518165826797485e-02,2.221635729074478149e-02,1.534119248390197754e-01,1.787798404693603516e-01,8.651387691497802734e-02,1.232754066586494446e-01,1.746144443750381470e-01,6.998763233423233032e-02,1.448889076709747314e-01,-1.666598208248615265e-02,-4.524503275752067566e-02,5.249524489045143127e-02,1.861670613288879395e-02,3.658088389784097672e-04,1.557707041501998901e-01,-1.155527904629707336e-01,-1.204638928174972534e-01,9.863325953483581543e-02,-1.434233784675598145e-01,-8.771350979804992676e-02,-4.037126898765563965e-03,6.897823512554168701e-02,1.258933544158935547e-01,-1.336691714823246002e-02,-1.278053522109985352e-01,-9.666517376899719238e-02,3.083924017846584320e-02,-1.667572557926177979e-01,1.167856007814407349e-01,-2.229461818933486938e-02,-3.942048922181129456e-02,7.617811788804829121e-04,1.356099098920822144e-01,1.739228814840316772e-01,-1.185729950666427612e-01,1.044293195009231567e-01,-4.006060957908630371e-02,-4.023588076233863831e-02,7.184472680091857910e-02,7.066360861063003540e-02,1.490209400653839111e-01,5.663398653268814087e-02,-1.386066824197769165e-01,2.147516608238220215e-01,7.297381758689880371e-02,-1.131469979882240295e-01,1.317239999771118164e-01,-1.068109422922134399e-01,1.217529028654098511e-01,-1.007581651210784912e-01,7.687059044837951660e-02,7.703171670436859131e-02,4.579091619234532118e-04,-1.075008064508438110e-01,-1.319737434387207031e-01,1.528728939592838287e-02,3.588387370109558105e-02,1.125877723097801208e-01,5.422188714146614075e-02,-1.896928399801254272e-01,-1.758938729763031006e-01,-2.922528050839900970e-02,-1.582625508308410645e-01,-1.199942603707313538e-01,-1.871776133775711060e-01,1.225685775279998779e-01,-4.103606566786766052e-02,-2.251455485820770264e-01,-9.974170476198196411e-03,-1.261937767267227173e-01,-2.121566236019134521e-01,-4.727838188409805298e-02,-4.605964198708534241e-02,-1.443320065736770630e-01,-1.568312346935272217e-01,6.290770322084426880e-02,8.661948889493942261e-02,-5.290080234408378601e-02,1.312400307506322861e-02,1.426973752677440643e-02,1.164629608392715454e-01,-8.266486227512359619e-02,-1.474430132657289505e-02,-1.844857633113861084e-02,-1.621183454990386963e-01,1.268154475837945938e-02,-5.703759938478469849e-02,2.239983156323432922e-02,-5.865751579403877258e-02,-1.100021526217460632e-01,-3.623532503843307495e-02,5.949114635586738586e-02,-6.818857043981552124e-02,-4.631425440311431885e-02,-4.647371172904968262e-02,-8.035722374916076660e-02,4.627368412911891937e-03,3.396167978644371033e-02,-9.973063319921493530e-02,-2.456874586641788483e-02,7.158282678574323654e-04,-3.756629303097724915e-02,8.382946997880935669e-02,-3.888868540525436401e-02,-1.225008070468902588e-01,1.231022253632545471e-01,1.104347705841064453e-01,-1.676626689732074738e-02,9.855669736862182617e-02,-1.624488234519958496e-01,-5.804964154958724976e-02,-1.408043503761291504e-01,-2.261055819690227509e-02,-1.005191579461097717e-01,6.670291721820831299e-02,-6.654674559831619263e-02,-3.077965043485164642e-02,-1.722425222396850586e-01,-6.068028975278139114e-03,9.730874747037887573e-02,-1.966147720813751221e-01,2.545160055160522461e-02,2.798471152782440186e-01,7.397833466529846191e-02,1.796765476465225220e-01,1.299625188112258911e-01,2.229842357337474823e-02,-6.508791446685791016e-02,-7.709747552871704102e-02,-1.481072306632995605e-01,-4.337515309453010559e-02,-9.849815815687179565e-02,-1.121960282325744629e-01,2.408447675406932831e-02,4.195838421583175659e-02,3.467766568064689636e-03,-8.154627680778503418e-02,1.419471576809883118e-03,6.293106079101562500e-02,1.637780666351318359e-02,5.068202316761016846e-02,-2.851103665307164192e-03,2.175942957401275635e-01,8.399154245853424072e-02,4.797716159373521805e-03,-1.678615808486938477e-02,-1.190907582640647888e-01,-3.289496153593063354e-02,-1.195396035909652710e-01,5.998057872056961060e-02,-1.164900436997413635e-01,5.294957011938095093e-02,-6.371993571519851685e-02,-2.800531983375549316e-01,-1.774974912405014038e-02,8.626039326190948486e-02,3.184816986322402954e-02,-2.314679883420467377e-02,-8.464618027210235596e-02,1.389912366867065430e-01,1.654902398586273193e-01,-9.187598526477813721e-02,-3.012660741806030273e-01,-3.309884667396545410e-01,-1.132421568036079407e-01,-2.609845101833343506e-01,-2.559390664100646973e-01,-2.293993383646011353e-01,-2.890148758888244629e-01,1.720896922051906586e-02,-2.089004218578338623e-02,9.536395780742168427e-03,9.356930851936340332e-02,1.688967049121856689e-01,1.591702401638031006e-01,-6.534578651189804077e-02,1.928910613059997559e-01,-1.079431995749473572e-01,-1.530204862356185913e-01,-1.568129062652587891e-01,-9.421412646770477295e-02,-1.640460193157196045e-01,-4.115477949380874634e-02,-1.570779681205749512e-01,1.319660339504480362e-02,-1.502764374017715454e-01,-3.253538534045219421e-02,-2.554940581321716309e-01,4.504197463393211365e-02,-3.181276470422744751e-02,6.404310464859008789e-02,-3.639373928308486938e-02,1.582243293523788452e-02,-1.343974377959966660e-02,-2.386224456131458282e-02,7.541140913963317871e-02,1.680150069296360016e-02,-5.891603603959083557e-02,2.148692868649959564e-02,-7.869051769375801086e-03,5.248714983463287354e-02,1.914526894688606262e-02,3.480859100818634033e-02,9.124081581830978394e-02,-1.023835837841033936e-01,5.857716873288154602e-02,1.495084464550018311e-01,7.485228031873703003e-02,5.454118177294731140e-02,1.342942416667938232e-01,-4.543494805693626404e-02,8.612449467182159424e-02,-1.000264286994934082e-01,-1.957038491964340210e-01,-1.068054884672164917e-01,8.352100849151611328e-02,-6.061082333326339722e-02,-4.598237574100494385e-02,2.139503322541713715e-02,-9.814433753490447998e-02,6.723928451538085938e-02,-4.354536533355712891e-02,-2.390465699136257172e-02,2.067302912473678589e-01,-3.002770431339740753e-02,2.971153892576694489e-02,1.885162293910980225e-02,-1.432344764471054077e-01,-5.977663770318031311e-02,1.470233500003814697e-01,-1.995122730731964111e-01,1.538507938385009766e-01,7.290180772542953491e-02,6.287639494985342026e-03,-2.023507058620452881e-01,-6.334676593542098999e-02,9.433668106794357300e-02,-6.725880503654479980e-02,-1.553527265787124634e-02,-3.367589414119720459e-02,1.748908013105392456e-01,3.578826552256941795e-03,-3.983205556869506836e-02,-1.619260311126708984e-01,-1.920094639062881470e-01,-6.735850125551223755e-02,-4.980872943997383118e-02,-9.096588194370269775e-02,-2.333883941173553467e-01,-5.022579059004783630e-02,2.471217513084411621e-01,1.560461055487394333e-02,2.649708092212677002e-02,-2.037681043148040771e-01,7.557302713394165039e-02,-2.498063072562217712e-02,6.119076535105705261e-02,3.988116979598999023e-02,4.206626117229461670e-02,-2.941144257783889771e-02,1.679387688636779785e-01,-3.538106754422187805e-02,-1.335450857877731323e-01,7.207442075014114380e-02,-1.127123162150382996e-01,-1.495300680398941040e-01,1.115341261029243469e-01,2.315796591574326158e-04,-1.488124765455722809e-02,-3.031781315803527832e-02,4.360597208142280579e-02,1.235418617725372314e-01,6.639921665191650391e-02,-1.371574997901916504e-01,1.657228618860244751e-01,6.416498869657516479e-02,-8.236049115657806396e-02,-7.745365053415298462e-02,4.419821500778198242e-02
6.880146265029907227e-02,-2.614513598382472992e-02,9.395779669284820557e-02,6.058239936828613281e-02,-1.796426251530647278e-02,1.648072339594364166e-02,-1.553072333335876465e-01,2.058361656963825226e-02,4.073539748787879944e-02,1.271874606609344482e-01,-9.441510774195194244e-03,2.844835445284843445e-02,-7.517928630113601685e-02,-3.602627664804458618e-02,-1.046257279813289642e-02,-6.106926128268241882e-03,-1.294940114021301270e-01,-2.039117366075515747e-01,-1.278172135353088379e-01,-8.558180928230285645e-02,-8.159715682268142700e-02,8.215944468975067139e-02,-5.636071041226387024e-02,-1.828395128250122070e-01,3.087628819048404694e-02,-2.108575254678726196e-01,-7.852158695459365845e-02,-4.462736099958419800e-02,9.960817545652389526e-02,-8.492806926369667053e-03,-5.865235626697540283e-02,-2.547389082610607147e-02,-8.440227061510086060e-02,-2.153469994664192200e-02,-2.625604271888732910e-01,-2.206480363383889198e-03,2.361134253442287445e-02,-1.869287714362144470e-02,1.192729249596595764e-01,-2.298922277987003326e-02,-4.753121733665466309e-02,8.223088085651397705e-02,-1.740072369575500488e-01,1.108095645904541016e-01,5.133009329438209534e-02,-2.387616336345672607e-01,1.475165225565433502e-02,9.845141321420669556e-02,-1.346752345561981201e-01,2.094990015029907227e-02,1.498160213232040405e-01,1.883071959018707275e-01,1.078247129917144775e-01,-4.056193400174379349e-03,-1.402542442083358765e-01,-3.255020081996917725e-01,-3.236917257308959961e-01,-1.817940920591354370e-01,-1.484322696924209595e-01,-2.389245033264160156e-01,-1.465491503477096558e-01,-7.706756144762039185e-02,-2.944461442530155182e-02,4.754732921719551086e-02,-5.577985197305679321e-02,-2.169437706470489502e-03,1.399739366024732590e-02,-1.306869536638259888e-01,-1.698528528213500977e-01,-1.366733014583587646e-01,-1.219824180006980896e-01,-1.605745404958724976e-01,-9.938669204711914062e-02,-1.879190653562545776e-02,-9.764535352587699890e-03,-3.099872730672359467e-02,8.549751341342926025e-02,-1.079256981611251831e-01,-8.166903257369995117e-02,8.969511836767196655e-02,-2.682549320161342621e-02,4.403793811798095703e-02,-1.106137186288833618e-01,-2.032714663073420525e-03,-6.159720569849014282e-02,-1.782697997987270355e-02,-8.936666697263717651e-02,-1.898421645164489746e-01,-2.669956684112548828e-01,-6.452982127666473389e-02,-1.371572315692901611e-01,-5.016462132334709167e-02,3.301049768924713135e-02,7.788294926285743713e-03,-4.157587140798568726e-02,-1.107679605484008789e-01,1.599462702870368958e-02,7.634030282497406006e-02,-2.767889499664306641e-01,-1.500115841627120972e-01,2.569773234426975250e-02,1.279109418392181396e-01,-1.905783116817474365e-01,1.054799407720565796e-01,2.405194006860256195e-02,1.664707213640213013e-01,1.624159980565309525e-03,3.204600512981414795e-02,-2.759117186069488525e-01,-2.636933624744415283e-01,8.296813070774078369e-02,2.323842141777276993e-03,6.669013947248458862e-02,8.209549635648727417e-02,1.219589356333017349e-02,-1.210760548710823059e-01,3.420575056225061417e-03,-9.083971381187438965e-02,-1.808075457811355591e-01,5.631783977150917053e-02,-8.444213122129440308e-02,-3.033304810523986816e-01,8.644627779722213745e-02,-5.608207359910011292e-02,-2.199904471635818481e-01,-8.940108865499496460e-02,-2.224349528551101685e-01,-1.350788748823106289e-03,-6.393125653266906738e-02,-9.328900277614593506e-02,6.083683692850172520e-04,-1.158008426427841187e-01,-2.033627182245254517e-01,-9.119427204132080078e-02,-1.558339297771453857e-01,-5.850850045680999756e-02,2.026685513556003571e-02,2.665624618530273438e-01,-1.882155984640121460e-01,3.527634963393211365e-02,3.452759934589266777e-03,-1.582194268703460693e-01,-1.557839810848236084e-01,1.049859970808029175e-01,-6.584753096103668213e-02,-1.677769050002098083e-02,-6.979335099458694458e-02,-8.585070073604583740e-02,1.832053512334823608e-01,-1.566488854587078094e-02,2.934048697352409363e-02,9.865093976259231567e-02,2.706892043352127075e-02,1.100345142185688019e-02,1.073414459824562073e-01,-8.074616640806198120e-02,4.111081734299659729e-02,4.896735027432441711e-02,2.944916673004627228e-02,-3.819559514522552490e-02,6.550683081150054932e-02,-3.439847007393836975e-02,-1.756887435913085938e-01,5.268736556172370911e-02,1.189969033002853394e-01,-1.119330227375030518e-01,6.253740191459655762e-02,1.079056635499000549e-01,-1.302603185176849365e-01,-1.084935367107391357e-01,-7.574257999658584595e-02,2.832738757133483887e-01,2.362365275621414185e-01,2.682365179061889648e-01,-1.723857037723064423e-02,-6.487737596035003662e-02,9.769933670759201050e-02,3.423406556248664856e-02,-9.192006289958953857e-02,1.303143203258514404e-01,3.143385052680969238e-02,-4.856164753437042236e-02,-1.328455358743667603e-01,-1.107084900140762329e-01,-6.007807329297065735e-02,-7.200233638286590576e-02,1.044883430004119873e-01,-3.231978043913841248e-02,7.148552685976028442e-02,3.182240948081016541e-02,-5.917903780937194824e-02,-1.942913979291915894e-02,-1.061735376715660095e-01,-9.563320130109786987e-02,-1.387424170970916748e-01,-1.566939800977706909e-01,1.558973174542188644e-02,-1.099129244685173035e-01,2.395701408386230469e-02,-3.796144202351570129e-02,9.235229343175888062e-02,-9.185828268527984619e-02,1.221598498523235321e-02,-1.895788311958312988e-02,4.080626368522644043e-02,-2.191507816314697266e-02,-1.284308824688196182e-02,3.562870994210243225e-02,4.737214371562004089e-02,3.089449368417263031e-02,7.154126465320587158e-02,1.901078410446643829e-02,3.793448209762573242e-02,5.418299511075019836e-02,4.894979298114776611e-02,-1.753145605325698853e-01,-8.127222955226898193e-02,-8.152282983064651489e-02,-7.066342234611511230e-02,-2.921178638935089111e-01,-6.554587930440902710e-02,-1.640106551349163055e-02,-2.897370159626007080e-01,-1.594766974449157715e-01,-1.074186060577630997e-02,4.274884611368179321e-02,6.726405769586563110e-02,-4.360554367303848267e-02,-1.541676279157400131e-02,-1.109510138630867004e-01,-6.854730844497680664e-02,-5.442347377538681030e-02,-1.375927329063415527e-01,-8.650493621826171875e-02,-1.396436393260955811e-01,1.748012192547321320e-02,1.027641221880912781e-01,-1.360069364309310913e-01,-3.370545431971549988e-02,3.362952545285224915e-02,1.196074392646551132e-02,-7.523015886545181274e-02,1.497200131416320801e-01,-1.023405417799949646e-01,5.889378488063812256e-02,-8.681822568178176880e-02,3.541468456387519836e-02,1.475037932395935059e-01,5.847269669175148010e-02,1.085093915462493896e-01,-1.026030704379081726e-01,7.864119857549667358e-02,7.516399025917053223e-02,6.165820360183715820e-02,2.954482436180114746e-01,-7.104948163032531738e-02,1.024954319000244141e-01,-1.003658697009086609e-01,-2.226791828870773315e-01,-1.352836191654205322e-01,3.117577172815799713e-02,1.020155847072601318e-01,-4.421745240688323975e-02,-1.135186776518821716e-01,1.486410647630691528e-01,-2.689288556575775146e-01,-2.433175221085548401e-02,-3.866014070808887482e-03,5.201600492000579834e-02,6.963831186294555664e-02,5.498360097408294678e-02,-1.153096258640289307e-01,1.426003277301788330e-01,-1.264401823282241821e-01,-9.220808744430541992e-02,1.589058637619018555e-01,-3.162104189395904541e-01,-7.288758456707000732e-02,-1.469602137804031372e-01,-2.051402479410171509e-01,-1.099184229969978333e-01,-1.260237395763397217e-01,-2.413966953754425049e-01,-7.309556752443313599e-02,-1.124912425875663757e-01,-1.268545389175415039e-01,-1.883182115852832794e-02,-1.380895674228668213e-01
1.372167766094207764e-01,5.473616719245910645e-02,1.591801457107067108e-02,-2.500968752428889275e-03,2.814595960080623627e-02,-1.319739315658807755e-02,-8.474560081958770752e-02,-1.184731349349021912e-01,-9.506080299615859985e-02,-1.619891077280044556e-02,2.760126590728759766e-01,-7.372434437274932861e-02,-4.289382696151733398e-02,1.807005703449249268e-01,1.461939066648483276e-01,-3.188859224319458008e-01,-9.764060378074645996e-02,1.882559061050415039e-01,-1.122736721299588680e-03,1.232810840010643005e-01,-6.051037088036537170e-02,1.055702473968267441e-02,1.732095517218112946e-02,-1.877135038375854492e-01,-6.409105658531188965e-02,8.390735834836959839e-02,3.911177814006805420e-02,3.066469430923461914e-01,2.666151523590087891e-01,-1.070829182863235474e-01,-1.125576496124267578e-01,1.191421151161193848e-01,5.098916962742805481e-02,-1.294620782136917114e-01,-1.400936953723430634e-02,-1.270057410001754761e-01,5.330767109990119934e-02,1.443496812134981155e-02,-1.892901062965393066e-01,-1.214307248592376709e-01,9.770751744508743286e-02,-2.834176830947399139e-02,-6.772255897521972656e-02,-1.035885736346244812e-01,9.926977008581161499e-02,-2.146815322339534760e-02,1.824410408735275269e-01,9.833566099405288696e-02,-1.729114800691604614e-01,-6.366530060768127441e-02,-2.098204009234905243e-02,-1.407748758792877197e-01,-1.444815993309020996e-01,4.152524098753929138e-02,9.777297079563140869e-02,1.424071341753005981e-01,-9.183980524539947510e-02,-1.538818478584289551e-01,1.496490836143493652e-01,5.709122400730848312e-03,-1.424556672573089600e-01,4.319661483168601990e-02,-4.704221338033676147e-02,-5.746362358331680298e-02,-3.248531743884086609e-02,-4.817343503236770630e-02,-8.387824147939682007e-02,-1.273333132266998291e-01,1.367194652557373047e-01,-1.274180263280868530e-01,-9.866625070571899414e-02,-7.739331573247909546e-02,-7.062889635562896729e-02,-1.029863804578781128e-01,4.262010008096694946e-02,-9.559780359268188477e-02,-7.589866966009140015e-02,8.868610113859176636e-02,-2.276166975498199463e-01,-1.505616307258605957e-01,4.378410056233406067e-03,-5.946405604481697083e-02,8.679981529712677002e-02,1.491018682718276978e-01,-1.729659736156463623e-01,8.079978823661804199e-02,1.215546429157257080e-01,-2.702405750751495361e-01,8.293270133435726166e-03,-9.287533909082412720e-02,7.267082482576370239e-02,-1.112903952598571777e-01,-1.427719648927450180e-02,-1.198021844029426575e-01,1.604807376861572266e-02,7.244732230901718140e-03,5.845854058861732483e-02,-1.221494302153587341e-01,-1.764917001128196716e-02,-6.826511770486831665e-02,5.627622082829475403e-02,-7.723090797662734985e-02,-6.746207922697067261e-02,-3.389267250895500183e-02,3.513849154114723206e-02,-8.984596282243728638e-02,-6.929280608892440796e-02,-1.214009895920753479e-02,1.663724035024642944e-01,2.457200735807418823e-02,-1.776344776153564453e-01,-1.656363606452941895e-01,1.374934799969196320e-04,1.776621937751770020e-01,-1.585227549076080322e-01,-6.303761154413223267e-02,2.438105791807174683e-01,-5.084128677845001221e-02,1.117011830210685730e-01,-7.437136489897966385e-03,-1.714774221181869507e-01,-2.534934133291244507e-02,-5.639860779047012329e-02,-6.952188163995742798e-02,-2.420387566089630127e-01,1.560327559709548950e-01,-8.763953298330307007e-02,-9.055766463279724121e-02,-7.371912896633148193e-02,-4.329118132591247559e-02,1.212402954697608948e-01,-1.246846094727516174e-01,1.447142846882343292e-02,-1.657470613718032837e-01,-1.469998061656951904e-01,3.538651391863822937e-03,-5.117887631058692932e-02,2.958658523857593536e-02,2.067741565406322479e-02,-1.157153025269508362e-01,-5.025700107216835022e-02,-7.499647140502929688e-02,-1.304402351379394531e-01,4.123162850737571716e-02,-1.111625730991363525e-01,-1.930923573672771454e-02,1.459627151489257812e-01,-5.243774130940437317e-02,-9.063029289245605469e-02,1.340181380510330200e-01,1.157258749008178711e-01,1.166102439165115356e-01,-1.674866676330566406e-01,-9.327868372201919556e-02,4.236788954585790634e-03,-1.733345836400985718e-01,-2.605725824832916260e-01,3.289674222469329834e-02,1.344109699130058289e-02,-9.612611681222915649e-02,7.273621857166290283e-02,-1.729827187955379486e-02,1.624580174684524536e-01,-1.069612428545951843e-01,-1.542561799287796021e-01,-3.481688722968101501e-02,9.833808988332748413e-02,2.594634518027305603e-02,-4.028945043683052063e-02,8.054140210151672363e-02,4.103633388876914978e-02,-1.210638582706451416e-01,-1.499480307102203369e-01,-1.134903207421302795e-01,-5.883393809199333191e-02,5.775168538093566895e-02,-1.975971460342407227e-01,-1.961445808410644531e-01,-5.085782613605260849e-03,6.991733610630035400e-02,-1.873969435691833496e-01,-1.945818960666656494e-02,-1.675664260983467102e-02,-9.774157404899597168e-02,1.276505738496780396e-01,8.688472211360931396e-02,-1.943741589784622192e-01,2.976827323436737061e-02,3.955469280481338501e-02,-3.978867828845977783e-02,7.028353959321975708e-02,2.209265977144241333e-01,4.542967304587364197e-02,-1.318663358688354492e-01,-5.123138427734375000e-03,-7.255493104457855225e-02,3.518076241016387939e-02,1.150808930397033691e-01,3.406341001391410828e-02,-2.149632573127746582e-02,-3.411200270056724548e-02,-7.377228140830993652e-02,6.284448318183422089e-03,7.742181420326232910e-02,-1.511714160442352295e-01,-7.916892319917678833e-02,7.000114023685455322e-02,1.398098170757293701e-01,7.889592088758945465e-03,5.622597411274909973e-02,7.050983607769012451e-02,1.042891889810562134e-01,-1.550980657339096069e-01,5.999878048896789551e-02,3.102550469338893890e-02,-1.666976022534072399e-03,-1.899796165525913239e-02,-3.534658253192901611e-02,9.494936466217041016e-02,6.713776290416717529e-02,1.007185354828834534e-01,-5.817109718918800354e-03,1.609135605394840240e-02,-5.995975807309150696e-02,1.101363524794578552e-01,-9.677601605653762817e-02,-5.811586976051330566e-02,6.828812509775161743e-02,7.043837755918502808e-02,1.685522729530930519e-03,5.158963054418563843e-02,8.886996656656265259e-03,-9.526203386485576630e-03,2.578993793576955795e-03,1.642756313085556030e-01,9.142240136861801147e-02,-7.612472027540206909e-02,1.026825010776519775e-01,-1.225059255957603455e-01,7.333447039127349854e-02,-9.005459398031234741e-02,5.155520886182785034e-02,-6.478056311607360840e-02,-1.540076285600662231e-01,-2.120758593082427979e-02,1.616416126489639282e-02,6.228543072938919067e-02,8.045949041843414307e-02,-5.367231741547584534e-02,-1.927401423454284668e-01,8.984898775815963745e-02,4.247216135263442993e-02,-7.725325226783752441e-02,-1.729853153228759766e-01,6.745621562004089355e-02,-1.027611792087554932e-01,-2.995464205741882324e-01,3.209654241800308228e-02,-1.104168444871902466e-01,3.613128513097763062e-02,-1.240092329680919647e-02,3.139989823102951050e-02,2.032837085425853729e-02,3.776491060853004456e-02,-1.522966939955949783e-02,1.069261506199836731e-01,-2.763455547392368317e-02,4.115638323128223419e-03,-1.158950850367546082e-02,1.252433955669403076e-01,-1.825519651174545288e-02,-4.057853668928146362e-02,6.341286748647689819e-02,-3.681524097919464111e-02,2.959207631647586823e-02,1.899675577878952026e-01,-1.281148642301559448e-01,3.136786073446273804e-02,1.303124576807022095e-01,-1.995532214641571045e-01,-5.540863797068595886e-02,4.747677128762006760e-03,2.752202376723289490e-02,-1.572514027357101440e-01,-1.009125038981437683e-01,-2.558328807353973389e-01,7.706954330205917358e-02,-4.359279945492744446e-02
9.314838796854019165e-02,3.848027065396308899e-02,-6.319015473127365112e-02,6.398807466030120850e-02,-8.816617727279663086e-02,-1.490417122840881348e-01,-6.746394932270050049e-02,-2.589702233672142029e-02,-2.787803113460540771e-01,2.131403684616088867e-01,1.710263453423976898e-02,-7.625094056129455566e-02,1.160699799656867981e-01,8.558859676122665405e-02,8.447540551424026489e-02,-3.515780717134475708e-02,-2.026717551052570343e-02,7.664838433265686035e-02,7.085583359003067017e-02,-4.423795267939567566e-02,2.817507646977901459e-02,3.934301435947418213e-02,5.732959881424903870e-02,-1.036751866340637207e-01,-1.447507292032241821e-01,-9.602775424718856812e-02,4.353833850473165512e-03,5.597718805074691772e-02,-4.333394765853881836e-02,-8.363892138004302979e-02,-1.799808070063591003e-02,-1.905234307050704956e-01,-9.178908169269561768e-02,5.626734346151351929e-02,-9.351880848407745361e-02,5.755728110671043396e-03,-8.995260298252105713e-02,1.883724145591259003e-02,6.771088391542434692e-02,2.098188251256942749e-01,1.826485842466354370e-01,1.795050315558910370e-02,-1.418692618608474731e-01,1.578491777181625366e-01,-2.902254089713096619e-02,-1.350109577178955078e-01,-1.596676707267761230e-01,-1.700830310583114624e-01,-2.815334200859069824e-01,-1.453922688961029053e-01,-8.208813518285751343e-02,-1.655087023973464966e-01,-2.885529994964599609e-01,4.091792553663253784e-02,-9.040724486112594604e-03,5.135195702314376831e-02,-7.961636781692504883e-02,-1.059896871447563171e-01,-1.409557908773422241e-01,3.448035195469856262e-02,-8.291956782341003418e-02,-1.234938651323318481e-01,-1.482911854982376099e-01,1.319183409214019775e-01,-1.020625755190849304e-01,-1.143944412469863892e-01,7.500112801790237427e-02,1.586505025625228882e-01,-1.527569890022277832e-01,5.109454691410064697e-02,-6.353681534528732300e-02,-3.216363117098808289e-02,8.194269984960556030e-02,1.816132813692092896e-01,1.409907788038253784e-01,9.266960620880126953e-02,1.406928873620927334e-03,-2.141859233379364014e-01,3.103560535237193108e-03,-8.044362068176269531e-02,-3.639939427375793457e-02,1.838588118553161621e-01,1.322088241577148438e-01,7.952116429805755615e-02,5.643552634865045547e-03,-2.548394352197647095e-02,-1.365624070167541504e-01,-1.567773669958114624e-01,-2.038397192955017090e-01,-1.896113157272338867e-01,1.477284729480743408e-01,-9.490942955017089844e-02,-1.281192712485790253e-02,-5.310866236686706543e-02,-5.931361019611358643e-02,1.592635549604892731e-02,3.237184835597872734e-03,1.115733906626701355e-01,-5.288320034742355347e-02,7.383373379707336426e-02,1.454047709703445435e-01,6.844391673803329468e-02,4.027250781655311584e-02,3.805185481905937195e-02,-6.164912506937980652e-02,-2.906391322612762451e-01,-1.696808822453022003e-02,8.694494143128395081e-03,4.467080533504486084e-02,1.622629724442958832e-02,-4.025882109999656677e-02,6.222240626811981201e-02,-7.119435817003250122e-02,-5.664819106459617615e-02,-1.609266102313995361e-01,-1.674242317676544189e-01,-1.034493371844291687e-01,1.032394394278526306e-01,4.883568361401557922e-02,-5.968781933188438416e-02,8.059762418270111084e-03,2.981666103005409241e-02,-1.099054366350173950e-01,-4.496139474213123322e-03,-2.015394717454910278e-01,8.182869851589202881e-02,-4.347476363182067871e-02,-1.714885234832763672e-01,-9.096032381057739258e-02,2.448090724647045135e-02,-1.137996986508369446e-01,2.044216841459274292e-01,-3.803708553314208984e-01,-7.910510897636413574e-02,-1.027568522840738297e-02,-1.671712845563888550e-01,5.822592228651046753e-02,1.117958948016166687e-01,-5.699123069643974304e-02,5.828135460615158081e-02,1.135329827666282654e-01,-5.958933755755424500e-02,-1.141195818781852722e-01,-5.416164919734001160e-02,-1.833342611789703369e-01,-1.132577508687973022e-01,-1.265674084424972534e-01,-1.748421788215637207e-01,-1.098623946309089661e-01,3.579966491088271141e-03,-3.476997837424278259e-02,3.461854904890060425e-02,-1.248079836368560791e-01,-9.687456488609313965e-02,2.663560397922992706e-02,5.140804126858711243e-02,-5.126827955245971680e-02,2.377972006797790527e-02,-2.837701700627803802e-02,1.356385648250579834e-01,6.285661458969116211e-02,-6.390596274286508560e-03,-1.753584109246730804e-02,1.248111873865127563e-01,2.044954448938369751e-01,-6.802076101303100586e-02,-6.137963384389877319e-02,8.101751655340194702e-02,-6.314241886138916016e-02,2.399577349424362183e-01,3.147424384951591492e-02,1.406389623880386353e-01,3.967630118131637573e-02,4.686241596937179565e-02,7.098148763179779053e-02,1.244646757841110229e-01,9.531944990158081055e-03,3.448588028550148010e-02,-9.049268066883087158e-02,-6.474918872117996216e-02,3.172204643487930298e-02,-5.518423393368721008e-02,7.633113767951726913e-03,4.563521593809127808e-03,1.140915155410766602e-01,-3.215611726045608521e-02,-9.749386459589004517e-02,5.533820949494838715e-03,-1.227231472730636597e-01,2.395343929529190063e-01,1.390669792890548706e-01,3.350222706794738770e-01,-1.441269218921661377e-01,3.737134858965873718e-02,1.416971534490585327e-01,-2.273140996694564819e-01,-1.383385062217712402e-01,-1.052678301930427551e-01,5.728001147508621216e-02,-3.384570404887199402e-02,1.486895531415939331e-01,7.388599216938018799e-02,-6.788413971662521362e-02,5.162455141544342041e-03,-3.285707533359527588e-02,-1.211909279227256775e-01,6.347858160734176636e-02,1.629061065614223480e-02,-7.982095330953598022e-02,3.115040995180606842e-02,1.366008520126342773e-01,-3.749847412109375000e-02,8.082068525254726410e-03,-3.474416211247444153e-02,1.756432652473449707e-02,-5.396054685115814209e-02,-1.482383068650960922e-02,-4.205256700515747070e-02,6.722511351108551025e-02,8.034747838973999023e-02,2.973120193928480148e-03,-2.231352962553501129e-02,-2.567079104483127594e-02,1.032821983098983765e-01,4.416514560580253601e-02,1.349509954452514648e-01,-9.997747093439102173e-02,-5.430214107036590576e-02,-9.467974305152893066e-02,2.267721109092235565e-03,9.112522006034851074e-02,-1.051030457019805908e-01,2.334130741655826569e-02,-2.393219918012619019e-01,-3.183647245168685913e-02,-1.297211647033691406e-01,-8.968839049339294434e-02,8.106782287359237671e-02,9.851347655057907104e-02,-6.393085420131683350e-02,-2.108208984136581421e-01,-1.664173901081085205e-01,1.538764536380767822e-01,-1.915436983108520508e-01,-1.021328717470169067e-01,2.300353161990642548e-02,-9.808807820081710815e-02,-9.699338674545288086e-02,-4.282891005277633667e-02,6.596773117780685425e-02,-7.040759921073913574e-02,1.480662375688552856e-01,1.072114240378141403e-02,9.301963448524475098e-02,7.434525340795516968e-02,-2.353127673268318176e-02,-8.385826647281646729e-02,-2.856678143143653870e-02,-6.204308941960334778e-02,-1.323637813329696655e-01,-2.133168727159500122e-01,-5.302244797348976135e-02,-1.337208002805709839e-01,-1.498298794031143188e-01,6.524667143821716309e-02,-8.053832501173019409e-02,-1.979823708534240723e-01,2.863505296409130096e-02,-1.696708053350448608e-02,-3.534870594739913940e-02,5.673483386635780334e-02,1.095258742570877075e-01,1.210354492068290710e-01,-8.046901971101760864e-02,-8.613829314708709717e-02,8.314710110425949097e-02,-6.908584386110305786e-02,-2.315308302640914917e-01,2.742854645475745201e-03,-9.592878818511962891e-02,-1.143099516630172729e-01,-1.095217391848564148e-01,-3.322401642799377441e-02,-2.214637584984302521e-02,-7.508905231952667236e-02,-3.108951635658740997e-02,1.266047060489654541e-01,-1.439532041549682617e-01
1.600899100303649902e-01,-1.360338926315307617e-02,1.899449676275253296e-01,3.822199301794171333e-03,1.135260313749313354e-01,-8.883071690797805786e-02,-1.664772927761077881e-01,-8.387588709592819214e-02,1.062425225973129272e-01,-1.285425722599029541e-01,4.442618414759635925e-02,5.053189769387245178e-02,-8.251935243606567383e-02,-8.731298893690109253e-02,-2.002376466989517212e-01,1.632078886032104492e-01,-5.771286413073539734e-02,-1.214906424283981323e-01,-1.758589893579483032e-01,-1.817875355482101440e-01,-1.406190395355224609e-01,6.300099194049835205e-02,1.078475862741470337e-01,-1.897061169147491455e-01,-2.461847960948944092e-01,7.388518750667572021e-02,-7.691030204296112061e-02,-2.104687094688415527e-01,1.052198782563209534e-01,4.366596415638923645e-02,7.694663479924201965e-03,2.240384556353092194e-02,-3.826903179287910461e-02,5.493255332112312317e-02,1.194916889071464539e-01,-1.254696398973464966e-01,-1.391519904136657715e-01,-1.118729114532470703e-01,2.115680277347564697e-02,1.785441674292087555e-02,1.872901916503906250e-01,-8.969784528017044067e-02,1.081133186817169189e-01,-2.807317674160003662e-02,1.822348684072494507e-02,-4.160341992974281311e-02,8.873106911778450012e-03,1.112034842371940613e-01,3.091055527329444885e-02,3.899716585874557495e-02,1.647907197475433350e-01,-2.469039149582386017e-02,1.738588213920593262e-01,6.076598539948463440e-02,7.606360595673322678e-03,-2.256055362522602081e-02,1.434478559531271458e-03,-7.251808047294616699e-02,-8.538414537906646729e-02,8.612845838069915771e-02,-3.248658403754234314e-02,-3.445144370198249817e-02,-4.414877668023109436e-02,-6.216243281960487366e-02,-5.595823749899864197e-02,-1.616316735744476318e-01,-1.316840201616287231e-01,3.607094287872314453e-02,4.077433794736862183e-02,-4.751203581690788269e-02,9.101220965385437012e-02,7.771932333707809448e-02,-5.301521718502044678e-02,1.151171233505010605e-02,-1.652776598930358887e-01,-1.405236274003982544e-01,9.747616946697235107e-02,1.434979438781738281e-01,-2.333510853350162506e-02,1.701294630765914917e-01,5.470957234501838684e-02,6.580536067485809326e-02,-9.228242188692092896e-02,-6.873693317174911499e-02,-1.819202303886413574e-02,9.394504129886627197e-02,-1.893668323755264282e-01,-3.640709910541772842e-03,-4.900344088673591614e-02,-5.403098091483116150e-02,-1.814812794327735901e-02,-5.063396692276000977e-02,-1.532473713159561157e-01,-3.934510797262191772e-02,-1.829055249691009521e-01,4.671911895275115967e-02,1.169862523674964905e-01,7.830482721328735352e-02,1.556366775184869766e-02,-2.879774384200572968e-02,4.732234403491020203e-02,1.842298656702041626e-01,8.067737519741058350e-02,1.989846080541610718e-01,-3.728691861033439636e-02,5.772553384304046631e-02,1.604468524456024170e-01,-7.174514979124069214e-02,8.553672581911087036e-02,5.985491350293159485e-02,1.261290907859802246e-01,-8.585856854915618896e-02,-8.975012600421905518e-02,1.777949184179306030e-01,1.542892754077911377e-01,-1.789119467139244080e-02,-2.061645127832889557e-02,-2.419643700122833252e-01,-3.697406128048896790e-02,-9.083887934684753418e-02,-1.388352364301681519e-01,1.143396869301795959e-01,-8.334371447563171387e-02,3.400291083380579948e-03,-6.661522388458251953e-02,-4.319623112678527832e-02,-2.354807853698730469e-01,3.353077545762062073e-02,6.257811933755874634e-02,-1.325406432151794434e-01,-1.799988001585006714e-01,9.149731695652008057e-02,-9.217250347137451172e-02,8.818344771862030029e-02,1.374314725399017334e-01,-1.202040538191795349e-01,2.756355097517371178e-03,-4.124919325113296509e-02,-1.851142644882202148e-01,-3.332504769787192345e-03,-6.962775439023971558e-02,-5.561422556638717651e-02,-1.099095940589904785e-01,3.668033331632614136e-02,-3.543067723512649536e-02,-8.482523262500762939e-02,-6.708002183586359024e-03,-1.029405891895294189e-01,-8.374986052513122559e-02,-2.827725410461425781e-01,-5.963488295674324036e-02,-2.549159824848175049e-01,-4.098845124244689941e-01,-7.123135030269622803e-02,-1.017073616385459900e-01,-1.307523436844348907e-02,-1.819406449794769287e-01,4.646457359194755554e-02,3.463685885071754456e-02,1.088178381323814392e-01,-6.580594182014465332e-02,9.296001493930816650e-02,5.757246911525726318e-02,-7.319873571395874023e-02,-5.563510209321975708e-02,9.758756309747695923e-02,-2.749624289572238922e-02,1.101941429078578949e-02,-4.783325642347335815e-02,1.979439752176403999e-03,8.047229796648025513e-02,-1.142852008342742920e-01,-4.572004824876785278e-02,1.564696282148361206e-01,-1.224015746265649796e-02,-2.221752144396305084e-02,-2.390938252210617065e-02,-8.131155371665954590e-02,5.543200299143791199e-02,2.343626916408538818e-01,3.099833615124225616e-02,7.511384040117263794e-02,1.712032593786716461e-02,1.786508560180664062e-01,7.014033943414688110e-02,1.027163937687873840e-01,2.142107337713241577e-01,-4.445074498653411865e-02,1.947939582169055939e-02,-4.476635158061981201e-01,-2.576713562011718750e-01,-2.086072564125061035e-01,-1.206270009279251099e-01,-3.854246065020561218e-02,-4.735331982374191284e-02,6.419238448143005371e-02,9.987773001194000244e-02,-1.499514877796173096e-01,3.509623929858207703e-02,4.800533875823020935e-03,-2.714314311742782593e-02,4.967677220702171326e-02,7.942085154354572296e-03,-2.157135400921106339e-03,1.756492108106613159e-01,-5.355373397469520569e-02,1.658800840377807617e-01,1.107442304491996765e-01,7.359166443347930908e-02,-8.559375256299972534e-02,-1.957154087722301483e-02,1.307028383016586304e-01,8.327704668045043945e-02,8.483867347240447998e-02,-1.128139272332191467e-01,-1.055396907031536102e-02,1.401726156473159790e-01,1.909120939671993256e-03,7.698288559913635254e-02,-5.659188702702522278e-02,-1.184137612581253052e-01,5.734509229660034180e-02,-7.715536653995513916e-02,4.728251695632934570e-02,-1.561403721570968628e-01,-5.784354358911514282e-02,-6.950339674949645996e-02,-1.458500474691390991e-01,-1.234597042202949524e-01,-4.984173923730850220e-02,-1.597529835999011993e-02,-1.550473421812057495e-01,3.628731891512870789e-02,8.210046589374542236e-02,-3.949640784412622452e-03,2.598897553980350494e-03,1.440330445766448975e-01,-1.325094252824783325e-01,1.340951025485992432e-01,-3.071465902030467987e-02,-2.330196835100650787e-02,3.444641828536987305e-02,9.439367800951004028e-02,1.361077278852462769e-01,-4.612196236848831177e-02,-4.425576329231262207e-02,-8.977334946393966675e-02,3.822526708245277405e-02,6.387141346931457520e-02,2.609454654157161713e-02,-9.473589248955249786e-03,4.543826356530189514e-02,-2.510379552841186523e-01,-1.251747757196426392e-01,-2.120457217097282410e-02,-2.144561707973480225e-01,-2.115441560745239258e-01,-1.486082077026367188e-01,-2.105326354503631592e-01,-1.332599818706512451e-01,-6.003032252192497253e-02,-1.425173729658126831e-01,-1.939982920885086060e-01,-1.053530424833297729e-01,-1.054914891719818115e-01,3.654029686003923416e-03,-3.528477251529693604e-02,-4.943779483437538147e-02,7.668491918593645096e-03,-8.494460582733154297e-02,8.658595383167266846e-02,-6.773743778467178345e-02,-4.678435623645782471e-02,-3.975787758827209473e-02,4.703725501894950867e-02,2.167551219463348389e-02,-1.169719025492668152e-01,-1.724128276109695435e-01,-7.969191670417785645e-02,-3.073400557041168213e-01,-2.366932481527328491e-01,-2.522468566894531250e-01,-1.531512290239334106e-01,-2.885760366916656494e-01,-1.061480566859245300e-01,-6.603784859180450439e-02,-1.989700049161911011e-01,4.988262429833412170e-02
-4.752665385603904724e-02,1.360401213169097900e-01,-1.038434207439422607e-01,8.260744810104370117e-02,-4.312686994671821594e-02,-1.479233652353286743e-01,1.381856650114059448e-01,4.806359112262725830e-02,-8.650315925478935242e-03,-4.612655192613601685e-02,1.581399142742156982e-01,-8.191175758838653564e-02,-1.969498693943023682e-01,-1.808254793286323547e-02,-5.828328430652618408e-02,-4.459566622972488403e-02,3.990975767374038696e-02,-1.666771322488784790e-01,9.020399302244186401e-02,-1.671103239059448242e-01,-1.715823262929916382e-01,1.907536201179027557e-02,1.061660945415496826e-01,5.201704055070877075e-02,8.247663080692291260e-02,-7.701537758111953735e-02,-9.004448354244232178e-02,4.340878129005432129e-02,-1.016168594360351562e-01,-9.101158380508422852e-02,-3.261688398197293282e-03,-4.695775359869003296e-02,-1.766717582941055298e-01,-5.486433207988739014e-02,9.750439971685409546e-02,-1.071204021573066711e-01,-1.393392980098724365e-01,1.587449610233306885e-01,2.336158975958824158e-02,-1.457365602254867554e-01,8.738613128662109375e-02,-2.011219859123229980e-01,3.897988796234130859e-02,-3.892989456653594971e-02,-2.399034351110458374e-01,-6.787716597318649292e-02,-2.551386058330535889e-01,-1.571723520755767822e-01,-2.148042172193527222e-01,2.934090979397296906e-02,-3.891587629914283752e-02,-2.470150142908096313e-01,-2.412760397419333458e-03,-1.373418569564819336e-01,-1.252545267343521118e-01,-1.412647366523742676e-01,2.375397086143493652e-01,-2.632643468677997589e-02,-1.382338255643844604e-01,3.820002824068069458e-02,-5.098730325698852539e-02,1.801596488803625107e-03,8.867058902978897095e-02,-1.076958253979682922e-01,4.680231586098670959e-02,-8.891527540981769562e-03,-8.789210021495819092e-02,3.999075666069984436e-02,4.053567349910736084e-02,1.624798774719238281e-01,-6.096727214753627777e-03,8.252568542957305908e-02,3.650055080652236938e-02,-1.456407085061073303e-02,4.844933748245239258e-02,9.220620244741439819e-02,-1.179627608507871628e-02,-9.366445988416671753e-02,1.692589372396469116e-01,7.221435755491256714e-02,-6.446712464094161987e-02,1.364875235594809055e-03,-5.549731850624084473e-02,-1.784631162881851196e-01,1.249713916331529617e-02,-6.146128475666046143e-02,5.561572685837745667e-02,4.332877695560455322e-02,-7.402871549129486084e-02,4.818956181406974792e-02,1.085815578699111938e-01,1.114972084760665894e-01,4.714619368314743042e-03,-9.323547035455703735e-02,-1.391612589359283447e-01,3.327497467398643494e-02,-1.182400137186050415e-01,2.925137989223003387e-02,-1.232902035117149353e-01,-5.462807416915893555e-02,-5.250766500830650330e-02,2.164670452475547791e-02,-1.767051070928573608e-01,-1.567935794591903687e-01,-2.407270669937133789e-01,-2.726763300597667694e-02,-1.264047026634216309e-01,-1.460485160350799561e-01,-2.933452725410461426e-01,7.736396044492721558e-02,-1.666909605264663696e-01,3.050511144101619720e-02,8.527363836765289307e-02,-8.996104449033737183e-02,-1.892590224742889404e-01,1.730361580848693848e-01,2.596911974251270294e-02,-1.849438101053237915e-01,-1.027656048536300659e-01,4.164329171180725098e-02,-1.029545143246650696e-01,1.518294364213943481e-01,3.526250272989273071e-02,-3.246167302131652832e-01,3.428798168897628784e-02,9.928371757268905640e-02,1.702756248414516449e-02,6.987719982862472534e-02,-1.453259214758872986e-02,-2.489501982927322388e-02,5.820955708622932434e-02,-1.570358872413635254e-01,7.597890216857194901e-03,6.307061761617660522e-02,-1.045891791582107544e-01,-8.818068355321884155e-02,-3.085684217512607574e-02,-1.502005457878112793e-01,2.871655113995075226e-02,-1.132311895489692688e-01,-6.244798377156257629e-02,-8.789108693599700928e-02,1.036678403615951538e-01,-1.637889146804809570e-01,5.779379606246948242e-02,-8.291123062372207642e-02,1.807446777820587158e-02,-7.148506492376327515e-02,6.649475544691085815e-02,4.384734854102134705e-02,-1.019971296191215515e-01,-6.946613639593124390e-02,-8.319666236639022827e-02,1.594713926315307617e-01,4.561639204621315002e-02,1.527922451496124268e-01,-5.149026587605476379e-02,-1.548698693513870239e-01,-2.154878154397010803e-02,-4.269967973232269287e-02,-9.803751856088638306e-02,1.016226336359977722e-01,-5.784026905894279480e-02,-1.101868897676467896e-01,-3.118062205612659454e-02,-5.064451321959495544e-02,-9.446924924850463867e-02,-1.987264864146709442e-02,-7.545704394578933716e-02,-9.906991571187973022e-02,2.660925500094890594e-02,-2.910736203193664551e-01,-1.260290145874023438e-01,-2.025371938943862915e-01,-2.551380097866058350e-01,-6.208164617419242859e-02,-2.818701565265655518e-01,-4.205380752682685852e-02,1.150291711091995239e-01,-1.909279674291610718e-01,-5.914555490016937256e-02,8.900723420083522797e-03,-2.015869878232479095e-02,-2.851228928193449974e-03,-7.362334430217742920e-02,-6.336636841297149658e-02,4.517468437552452087e-02,-8.396101742982864380e-02,1.170035600662231445e-01,6.737336516380310059e-02,-7.282285392284393311e-02,-1.395514607429504395e-01,8.964944630861282349e-02,-7.720865309238433838e-02,2.913403138518333435e-02,-1.370202302932739258e-01,-1.333788335323333740e-01,-7.845313847064971924e-02,3.014205256476998329e-03,1.557406187057495117e-01,-1.861266195774078369e-01,-1.020013689994812012e-01,-2.013746090233325958e-02,-5.441772565245628357e-02,-6.301274150609970093e-02,1.851709634065628052e-01,2.988574840128421783e-02,1.612481027841567993e-01,4.393923655152320862e-02,4.561610892415046692e-02,7.147897034883499146e-02,-1.419881079345941544e-02,8.577862754464149475e-03,3.023183671757578850e-03,-3.768931329250335693e-02,-7.542856782674789429e-02,1.108661741018295288e-01,-1.517597287893295288e-01,1.228839382529258728e-01,1.072553619742393494e-01,9.381072968244552612e-02,-5.551835522055625916e-02,-1.048584058880805969e-01,1.079125516116619110e-02,-1.816991344094276428e-02,-5.799632519483566284e-02,-3.203438594937324524e-02,8.038443326950073242e-02,-1.511728204786777496e-02,1.143811643123626709e-01,2.970888465642929077e-02,-9.587853401899337769e-02,3.281962871551513672e-02,1.159846931695938110e-01,-3.285903036594390869e-01,4.818536341190338135e-02,-1.791758686304092407e-01,6.508670002222061157e-02,2.115281531587243080e-03,-1.775477677583694458e-01,-9.227408468723297119e-02,-1.143792085349559784e-02,-9.949048049747943878e-03,-3.599242120981216431e-02,-7.201519608497619629e-02,-1.419836878776550293e-01,-8.547449856996536255e-02,-2.786794677376747131e-02,-1.072504818439483643e-01,1.353940665721893311e-01,-8.701493591070175171e-02,-1.961567699909210205e-01,3.084507025778293610e-02,-1.156409531831741333e-01,-1.136433407664299011e-01,1.395866274833679199e-01,-1.959681212902069092e-01,-2.744796574115753174e-01,-7.719139009714126587e-02,-6.828158348798751831e-02,-3.012960851192474365e-01,9.592955000698566437e-03,8.383906446397304535e-03,-1.200951486825942993e-01,1.001386195421218872e-01,-7.265152037143707275e-02,5.889515206217765808e-02,7.912116497755050659e-02,-2.491139248013496399e-02,-2.305368892848491669e-02,6.211267039179801941e-02,-1.062810793519020081e-01,3.063936531543731689e-02,-1.890438646078109741e-01,1.158199384808540344e-01,-6.999676674604415894e-02,-1.754033416509628296e-01,-5.430117249488830566e-02,-2.063830569386482239e-02,3.284459700807929039e-03,1.684500426054000854e-01,1.067128106951713562e-01,1.087174713611602783e-01,4.836143180727958679e-02,1.407637894153594971e-01,1.000889092683792114e-01,1.978112161159515381e-01,1.171094104647636414e-01
