-1.069498956203460693e-01,-1.788160204887390137e-02,1.931930310092866421e-03,4.742249473929405212e-02,-5.188958719372749329e-02,2.650619484484195709e-02,1.781778335571289062e-01,-8.843143284320831299e-02,2.579458989202976227e-02,-4.956148937344551086e-02,1.043357476592063904e-01,9.508242830634117126e-03,-8.751731365919113159e-02,-1.026404500007629395e-01,-3.676926344633102417e-02,-4.884865134954452515e-03,-9.530064463615417480e-02,-1.182632744312286377e-01,3.668333217501640320e-02,-1.241154968738555908e-02,-1.625061500817537308e-03,-2.299971878528594971e-02,-1.131515484303236008e-02,6.557471305131912231e-02,4.405728355050086975e-02,1.018448248505592346e-01,-9.519092738628387451e-02,6.024634093046188354e-02,1.932273618876934052e-02,-2.512661740183830261e-02,1.761384680867195129e-02,-1.865835115313529968e-02,2.781289629638195038e-02,-3.163552656769752502e-02,-1.339513212442398071e-01,1.327003072947263718e-02,1.492819841951131821e-02,-2.866758406162261963e-01,3.976949304342269897e-02,1.392223313450813293e-02,-6.902389973402023315e-02,3.418875113129615784e-02,-3.647123649716377258e-02,-2.326073683798313141e-02,-1.314578354358673096e-01,1.754729077219963074e-02,-4.033989831805229187e-02,3.627881407737731934e-02,-1.824539713561534882e-02,-2.687524631619453430e-02,-4.075227770954370499e-03,-4.704504087567329407e-02,-2.042750827968120575e-02,4.785421490669250488e-02,-5.174831673502922058e-02,-5.097676068544387817e-02,-1.667195372283458710e-02,-6.867094337940216064e-02,3.599308058619499207e-02,-2.832680754363536835e-02,3.013937547802925110e-02,1.020734943449497223e-02,-5.630828440189361572e-02,7.597727235406637192e-03
