-6.521691381931304932e-02,8.546534925699234009e-02,-5.961288139224052429e-02,9.382361173629760742e-02,4.010321199893951416e-02,1.829071342945098877e-01,9.219643473625183105e-02,1.168737933039665222e-01,-6.432068347930908203e-02,2.434551715850830078e-01,1.892352849245071411e-01,5.989595502614974976e-02,-2.051480486989021301e-02,8.491975814104080200e-02,-6.343179941177368164e-02,-1.044851839542388916e-01,-3.961278125643730164e-02,-2.798839211463928223e-01,1.911410689353942871e-01,2.232738584280014038e-01,-2.867449261248111725e-02,-1.057861745357513428e-01,-1.671724580228328705e-02,-5.272569507360458374e-02,-1.677841544151306152e-01,-1.222109124064445496e-01,-1.003955751657485962e-01,1.549446582794189453e-01,-1.202716529369354248e-01,-1.327172294259071350e-02,-1.567615568637847900e-01,-1.181212663650512695e-01,-1.862367987632751465e-01,-4.208816587924957275e-02,-2.623243927955627441e-01,-9.197034686803817749e-02,5.551293864846229553e-02,-8.225126191973686218e-03,-7.686823606491088867e-02,-8.951782435178756714e-02,1.551475971937179565e-01,-8.276809751987457275e-02,-2.508677840232849121e-01,2.737490534782409668e-01,1.651436686515808105e-01,1.407912224531173706e-01,6.905072927474975586e-02,-2.712172269821166992e-01,5.491890013217926025e-02,-1.934264004230499268e-01,-2.352982163429260254e-01,9.672696888446807861e-02,-3.007103800773620605e-01,-3.797762840986251831e-02,-2.203753143548965454e-01,-1.004985272884368896e-01,-8.103875815868377686e-02,1.084476113319396973e-01,-1.041069626808166504e-01,-2.381796538829803467e-01,-3.264088630676269531e-01,-3.371657729148864746e-01,-3.370852768421173096e-01,2.254227101802825928e-01,-9.462024271488189697e-02,7.004492450505495071e-03,-9.892357140779495239e-02,1.928631961345672607e-01,2.327095717191696167e-01,-7.415500283241271973e-02,1.924311816692352295e-01,-4.227434098720550537e-02,-4.386978223919868469e-02,9.646989405155181885e-02,8.203086256980895996e-02,1.518630236387252808e-01,-1.086671128869056702e-01,1.487995535135269165e-01,3.253582417964935303e-01,1.966420114040374756e-01,7.761300355195999146e-02,2.395613938570022583e-01,-1.626229733228683472e-01,-2.955512106418609619e-01,1.011963933706283569e-01,-6.309999735094606876e-04,-6.809718906879425049e-02,1.608113050460815430e-01,7.428823411464691162e-02,-1.086524799466133118e-01,-8.008654415607452393e-02,-2.229173630475997925e-01,-1.268597394227981567e-01,1.577020585536956787e-01,1.623015105724334717e-02,-1.983662396669387817e-01,-5.623259022831916809e-02,-1.072534695267677307e-01,-5.310655012726783752e-02,3.321623802185058594e-01,-1.466771867126226425e-02,-1.263922601938247681e-01,1.275912672281265259e-01,-9.295626729726791382e-02,1.535908598452806473e-02,3.275264799594879150e-02,-1.439788378775119781e-02,-1.440267413854598999e-01,9.986480697989463806e-03,9.600394219160079956e-02,2.795344591140747070e-02,3.336096182465553284e-02,7.686184346675872803e-02,1.125722005963325500e-01,-1.421529799699783325e-02,-1.563645303249359131e-01,2.285692095756530762e-01,1.796780270524322987e-03,3.522647544741630554e-02,9.586236625909805298e-02,-7.578839361667633057e-02,-2.355349957942962646e-01,-4.721573740243911743e-02,1.418768912553787231e-01,-1.013065427541732788e-01,-2.409372776746749878e-01,-1.237042769789695740e-01,2.492821402847766876e-02,5.932043120265007019e-02,3.246205300092697144e-02,3.366599231958389282e-02,1.232471019029617310e-01,-1.096901367418467999e-03,-5.073036532849073410e-03,1.037267372012138367e-01,2.519406974315643311e-01,-4.874229431152343750e-02,1.603023558855056763e-01,1.086510252207517624e-02,-5.152153596282005310e-02,1.201764121651649475e-01,1.588274687528610229e-01,2.020562440156936646e-01,-1.645281794480979443e-03
-3.778554499149322510e-02,-6.717613339424133301e-02,1.659898012876510620e-01,-1.432532966136932373e-01,6.726655364036560059e-02,1.071244254708290100e-01,-9.129368700087070465e-03,1.818915246985852718e-03,-1.894594728946685791e-01,2.048949450254440308e-01,1.901291608810424805e-01,2.106958031654357910e-01,2.448294125497341156e-02,1.994708180427551270e-01,2.538327500224113464e-02,-9.451697021722793579e-02,-1.406297981739044189e-01,6.305088847875595093e-02,1.804419010877609253e-01,3.590217977762222290e-02,-2.359712272882461548e-01,1.190022379159927368e-01,9.086074680089950562e-02,8.514915406703948975e-02,6.888307631015777588e-02,-2.094073742628097534e-01,1.015451997518539429e-01,3.084267489612102509e-02,8.691079169511795044e-02,2.200977802276611328e-01,1.293936464935541153e-02,9.384890645742416382e-02,1.950873434543609619e-02,1.842825859785079956e-02,2.226031944155693054e-02,1.052737906575202942e-01,8.372238278388977051e-02,3.039816319942474365e-01,2.082733660936355591e-01,4.600462503731250763e-03,4.058523848652839661e-02,-5.149931088089942932e-02,-3.161017894744873047e-01,1.757430844008922577e-02,6.143402680754661560e-02,-3.028085827827453613e-01,-3.222159743309020996e-01,-3.253687322139739990e-01,-9.908770769834518433e-02,5.487998202443122864e-02,1.274044960737228394e-01,-4.777257796376943588e-03,3.570178523659706116e-02,1.754825860261917114e-01,2.098198086023330688e-01,-6.393642164766788483e-03,-1.440897136926651001e-01,3.124031126499176025e-01,-7.795480638742446899e-02,1.138121038675308228e-01,9.301492944359779358e-03,-2.717836387455463409e-02,-2.766109406948089600e-01,2.407577037811279297e-01,1.031056642532348633e-01,8.643094450235366821e-02,-4.387095198035240173e-02,-1.123049017041921616e-02,4.882765188813209534e-02,-1.788200438022613525e-01,-1.609102636575698853e-01,-1.670186817646026611e-01,5.337818525731563568e-03,1.543431580066680908e-01,-2.493245601654052734e-01,1.158408820629119873e-01,-2.438289225101470947e-01,5.951190367341041565e-02,-9.200087189674377441e-02,2.963499911129474640e-02,6.618057936429977417e-02,-2.584169618785381317e-03,-4.000855237245559692e-02,4.869898036122322083e-02,-4.305401444435119629e-02,7.620681077241897583e-02,-1.614435613155364990e-01,-1.579853594303131104e-01,6.585001200437545776e-02,-3.685117140412330627e-02,-2.033744305372238159e-01,-8.522322773933410645e-02,-9.147363156080245972e-02,-1.518153250217437744e-01,1.091267168521881104e-01,4.968512430787086487e-02,9.967555105686187744e-02,8.507465571165084839e-02,3.720483183860778809e-02,-3.999438602477312088e-03,1.893644332885742188e-01,5.035885050892829895e-02,-3.904383396729826927e-03,4.090376570820808411e-02,-8.826405555009841919e-02,-2.046707570552825928e-01,-2.809067964553833008e-01,1.568902879953384399e-01,-1.151112541556358337e-01,7.101296633481979370e-02,4.209541529417037964e-02,9.664113074541091919e-02,6.500481977127492428e-04,1.657660901546478271e-01,-4.594566300511360168e-02,1.138619612902402878e-02,1.819392442703247070e-01,-1.016291305422782898e-01,-8.584228903055191040e-02,-2.176562137901782990e-02,4.330247640609741211e-02,-2.504985406994819641e-02,-1.862403005361557007e-01,-1.061866432428359985e-01,-6.643952429294586182e-02,-2.333234548568725586e-01,1.006295084953308105e-01,4.400551691651344299e-02,-7.859697192907333374e-02,1.634679734706878662e-01,9.632182121276855469e-02,2.737710624933242798e-02,-4.468920826911926270e-02,-9.843344241380691528e-02,-6.167934462428092957e-02,-3.354263259097933769e-03,1.294190138578414917e-01,-7.337556779384613037e-02,2.440333962440490723e-01,5.075442604720592499e-04,-1.664142906665802002e-01,-1.445640325546264648e-01,-2.004487626254558563e-02,-1.544076353311538696e-01
-9.533528983592987061e-02,8.005820959806442261e-02,-2.915069460868835449e-03,-1.064795702695846558e-01,5.304341204464435577e-03,3.657096624374389648e-02,-1.346973478794097900e-01,3.208075091242790222e-02,-4.471525084227323532e-03,2.443481609225273132e-02,-1.144810020923614502e-01,6.134424358606338501e-02,2.720343470573425293e-01,-1.518909633159637451e-02,1.106809601187705994e-01,2.902612090110778809e-01,1.489021331071853638e-01,2.428037673234939575e-01,-2.323830872774124146e-02,-7.625079900026321411e-02,-5.827519297599792480e-02,5.850878544151782990e-03,1.377843171358108521e-01,-1.138059049844741821e-02,7.347753643989562988e-02,1.209886595606803894e-01,1.959341466426849365e-01,-4.924936592578887939e-02,-3.504835302010178566e-03,-2.416916890069842339e-03,-7.657835632562637329e-02,-8.547679334878921509e-02,-3.172945603728294373e-02,2.486706711351871490e-02,9.816049039363861084e-02,3.919273614883422852e-02,-1.185670569539070129e-01,-2.309258729219436646e-01,-1.678782142698764801e-02,-1.772020906209945679e-01,1.340313106775283813e-01,-9.536379016935825348e-03,1.269953995943069458e-01,1.960710138082504272e-01,2.263942062854766846e-01,2.313688024878501892e-02,9.633474051952362061e-02,-7.617219351232051849e-03,-2.860219404101371765e-02,8.837904781103134155e-02,7.659368216991424561e-02,2.719814702868461609e-02,-2.605924196541309357e-02,1.155294571071863174e-02,1.058736220002174377e-01,-9.775643795728683472e-02,1.651958934962749481e-02,-4.606067389249801636e-02,-2.450825273990631104e-02,-2.447885125875473022e-01,-6.876718997955322266e-02,-1.426839977502822876e-01,-6.284996122121810913e-02,2.613555826246738434e-02,-1.826488077640533447e-01,1.353838108479976654e-02,-1.748208701610565186e-01,-4.891406744718551636e-02,7.118297368288040161e-02,1.094503775238990784e-01,1.261319071054458618e-01,1.477411109954118729e-02,7.132793962955474854e-02,-8.794572949409484863e-02,1.736722700297832489e-02,1.857584156095981598e-02,1.196322590112686157e-02,-1.936640590429306030e-01,1.196876913309097290e-01,-6.908283382654190063e-02,-5.694014951586723328e-02,-9.544008411467075348e-03,1.915090680122375488e-01,-1.873269379138946533e-01,2.110002338886260986e-01,-1.590879075229167938e-02,-2.652198374271392822e-01,6.319110095500946045e-02,-1.605706214904785156e-01,-2.740918695926666260e-01,2.931303461082279682e-04,-3.862661868333816528e-02,-3.147340938448905945e-02,4.629553854465484619e-02,-5.715432390570640564e-02,-9.505169093608856201e-02,-1.719315499067306519e-01,1.528775244951248169e-01,-1.796937137842178345e-01,1.792891770601272583e-01,2.097494304180145264e-01,8.831842243671417236e-02,-8.832770981825888157e-04,2.640534751117229462e-02,-1.043605655431747437e-01,-3.825304098427295685e-03,-1.515433639287948608e-01,-1.374997496604919434e-01,-1.437913998961448669e-02,2.275001406669616699e-01,-7.566668093204498291e-02,-6.031749024987220764e-02,-2.494748234748840332e-01,-1.525983959436416626e-02,9.821613784879446030e-04,-5.363459885120391846e-02,-7.632391992956399918e-03,4.302673414349555969e-02,6.198535487055778503e-02,-7.314511388540267944e-02,6.951990723609924316e-02,1.957525312900543213e-01,1.340862363576889038e-01,-1.317123621702194214e-01,7.479389011859893799e-02,-1.118753924965858459e-01,9.775694459676742554e-02,-1.978276371955871582e-01,-3.399842232465744019e-02,2.134728804230690002e-02,-3.102238290011882782e-02,2.024585455656051636e-01,1.032239524647593498e-03,1.805904209613800049e-01,-7.397934049367904663e-02,9.049048274755477905e-02,1.256750989705324173e-02,-1.277727782726287842e-01,1.205162778496742249e-01,-2.285424768924713135e-01,8.568138629198074341e-02,1.794860810041427612e-01,-5.977066233754158020e-02,1.905958354473114014e-02
-1.368545889854431152e-01,-1.047183573246002197e-01,-4.010539129376411438e-02,-2.233582735061645508e-01,1.735394597053527832e-01,-1.617972552776336670e-01,-5.386757478117942810e-02,3.165581822395324707e-02,-9.127900935709476471e-03,-4.354840144515037537e-02,1.489549130201339722e-02,6.474152952432632446e-02,1.098926514387130737e-01,-1.815645098686218262e-01,-8.289135992527008057e-03,-2.070789188146591187e-01,-7.557423412799835205e-02,1.335897296667098999e-01,3.237085416913032532e-02,4.807024449110031128e-02,1.050537824630737305e-01,-9.753108769655227661e-02,5.790158361196517944e-02,-1.820228695869445801e-01,1.004724502563476562e-01,1.416076421737670898e-01,-1.087872758507728577e-01,1.394709348678588867e-01,1.716049611568450928e-01,-1.095516681671142578e-01,4.398592282086610794e-03,2.855934761464595795e-02,9.954482316970825195e-02,-2.284207642078399658e-01,-1.516090780496597290e-01,-1.678770631551742554e-01,-3.389501199126243591e-02,-1.066396608948707581e-01,1.159814000129699707e-01,-2.518134713172912598e-01,1.058103516697883606e-01,9.166652709245681763e-02,4.553654417395591736e-02,4.312653094530105591e-02,-1.721256524324417114e-01,-2.613721191883087158e-01,-8.117145299911499023e-02,-3.207768499851226807e-02,1.720121316611766815e-02,-1.891742050647735596e-01,-1.032076105475425720e-01,3.875809954479336739e-03,2.587814442813396454e-02,-3.682647645473480225e-02,-5.363535881042480469e-02,-8.373784273862838745e-02,7.357141003012657166e-03,-3.038557171821594238e-01,-1.163724437355995178e-02,-1.431010067462921143e-01,1.059628464281558990e-02,-1.542160362005233765e-01,1.053090952336788177e-02,-1.536902338266372681e-01,1.048180162906646729e-01,1.133914068341255188e-01,-6.172296404838562012e-02,7.356183230876922607e-02,-1.200905665755271912e-01,-1.861016079783439636e-02,2.284505032002925873e-02,-9.216212481260299683e-02,-2.393698245286941528e-01,-1.258834544569253922e-02,-1.337889730930328369e-01,-1.563661098480224609e-01,-5.731122940778732300e-02,-2.169469594955444336e-01,-9.250528365373611450e-02,-1.613842844963073730e-01,1.863466799259185791e-01,8.881172537803649902e-02,1.641093343496322632e-01,-1.252141147851943970e-01,-1.227718442678451538e-01,-1.179282665252685547e-01,6.055371090769767761e-02,5.034951120615005493e-02,-1.857441216707229614e-01,-9.416154026985168457e-02,-2.430273294448852539e-01,-5.349401384592056274e-02,1.343666017055511475e-01,-1.991092562675476074e-01,-1.332479268312454224e-01,-1.825370341539382935e-01,-1.293905675411224365e-01,1.770723909139633179e-01,2.656797878444194794e-02,-1.735006272792816162e-01,-2.201996594667434692e-01,-1.400310546159744263e-01,-1.687271147966384888e-01,-9.109620749950408936e-02,-4.055250808596611023e-02,-1.027085334062576294e-01,-1.192157343029975891e-01,2.328690439462661743e-01,-3.435660898685455322e-01,-1.512090712785720825e-01,5.205310136079788208e-02,5.754288285970687866e-02,-1.602233015000820160e-02,-6.978818774223327637e-02,1.672012060880661011e-01,-1.704038828611373901e-01,4.653440788388252258e-03,-1.789534650743007660e-02,-1.051231250166893005e-01,-7.399408519268035889e-02,-2.459317743778228760e-01,-1.520516723394393921e-02,-4.985543340444564819e-02,6.289476994425058365e-03,-1.334924367256462574e-03,-1.350182108581066132e-02,-1.846187710762023926e-01,-7.154851220548152924e-03,-2.135625034570693970e-01,-6.046780571341514587e-02,8.174517005681991577e-02,-2.062683552503585815e-01,-8.682979643344879150e-02,3.164746332913637161e-03,1.353981047868728638e-01,-1.622032374143600464e-01,-2.784745953977108002e-02,7.842143625020980835e-02,-2.860688567161560059e-01,-8.337412029504776001e-02,-1.403875648975372314e-01,-1.255922317504882812e-01,-2.457517981529235840e-01,1.541530638933181763e-01
1.776643469929695129e-02,-2.791684567928314209e-01,-8.647163212299346924e-02,-2.224111557006835938e-01,1.424385793507099152e-02,4.794397950172424316e-02,-1.570429503917694092e-01,-1.825538277626037598e-01,-1.854416429996490479e-01,-2.098485641181468964e-02,-9.079294651746749878e-02,2.952400445938110352e-01,-2.635333240032196045e-01,-1.003674268722534180e-01,1.906281858682632446e-01,1.920471712946891785e-02,3.946272283792495728e-02,4.576944932341575623e-02,-9.104000777006149292e-02,-2.911855652928352356e-02,-8.710296452045440674e-02,4.528321698307991028e-02,1.418477594852447510e-01,7.763088494539260864e-02,2.665487863123416901e-02,-1.567337661981582642e-01,2.254723906517028809e-01,7.040856778621673584e-02,-3.634663671255111694e-02,2.185238897800445557e-01,-8.074298501014709473e-02,5.819376185536384583e-02,1.301512271165847778e-01,-9.668780863285064697e-02,1.008713524788618088e-02,-4.676630720496177673e-02,9.851280599832534790e-02,-9.852182120084762573e-02,-5.324640125036239624e-02,9.271472692489624023e-02,6.726759672164916992e-02,1.011513322591781616e-01,1.061610281467437744e-01,2.207308858633041382e-01,-2.298507988452911377e-01,-1.370356529951095581e-01,-1.181286722421646118e-01,4.200226441025733948e-02,-2.685696780681610107e-01,-6.970011442899703979e-02,7.999674975872039795e-02,6.572424620389938354e-02,-1.930321305990219116e-01,1.685973256826400757e-02,-2.967895381152629852e-02,-1.902122944593429565e-01,6.627984344959259033e-02,7.320909760892391205e-03,1.740063577890396118e-01,-1.165258213877677917e-01,2.091389298439025879e-01,8.382871001958847046e-02,-1.061769574880599976e-01,-1.425690501928329468e-01,-7.702590525150299072e-02,1.719567477703094482e-01,-1.037097275257110596e-01,-6.232145801186561584e-02,9.200624376535415649e-02,2.428048849105834961e-02,1.160170212388038635e-01,1.568659096956253052e-01,-3.156654536724090576e-01,7.869788259267807007e-02,-6.712083518505096436e-02,-2.773722410202026367e-01,5.011500418186187744e-02,-3.440217301249504089e-02,-1.410484760999679565e-01,-1.067061573266983032e-01,-3.965363651514053345e-02,5.279047042131423950e-02,-5.165012553334236145e-02,3.218298777937889099e-02,2.543371617794036865e-01,-5.041398108005523682e-02,1.112270131707191467e-01,1.333685070276260376e-01,-1.097195893526077271e-01,1.595728397369384766e-01,-1.199729274958372116e-02,4.840367473661899567e-03,5.703602358698844910e-02,-7.244075834751129150e-02,-2.594595551490783691e-01,1.703230589628219604e-01,-3.983028233051300049e-02,1.585413217544555664e-01,1.194835230708122253e-01,1.389970779418945312e-01,-1.008306741714477539e-01,-2.631542384624481201e-01,-7.675705105066299438e-02,1.175945624709129333e-01,-8.864916115999221802e-02,1.825434863567352295e-01,8.453556150197982788e-02,-7.254285365343093872e-02,5.212313309311866760e-02,-1.506177186965942383e-01,6.044672802090644836e-02,2.963941544294357300e-02,-8.648028969764709473e-02,-2.748617902398109436e-02,-2.110931426286697388e-01,-1.954096108675003052e-01,-3.093604743480682373e-01,-2.377819567918777466e-01,-2.011326253414154053e-01,-1.149233132600784302e-01,7.821679115295410156e-02,1.848876662552356720e-02,-5.452262610197067261e-02,-8.379261940717697144e-02,9.839279577136039734e-03,-5.248385481536388397e-03,1.015173867344856262e-01,1.369818598031997681e-01,-2.320693880319595337e-01,-3.640440851449966431e-02,1.088556274771690369e-01,-1.292597651481628418e-01,2.642817795276641846e-01,-6.602481752634048462e-02,7.011666148900985718e-02,-7.740268111228942871e-02,-1.526363790035247803e-01,-2.773510850965976715e-02,-8.180230110883712769e-02,-1.990100443363189697e-01,-2.574094831943511963e-01,-2.113569825887680054e-01,-1.021383795887231827e-02,-2.956356911454349756e-04
-1.063683908432722092e-02,-1.423745453357696533e-01,2.807305380702018738e-02,1.855033487081527710e-01,5.323884636163711548e-02,-2.413974702358245850e-01,-7.363855093717575073e-02,-5.572055652737617493e-02,-1.084889750927686691e-02,1.103189066052436829e-01,5.774034932255744934e-02,-2.401446104049682617e-01,-1.710869073867797852e-01,-5.447702482342720032e-02,-7.347184419631958008e-02,1.341090351343154907e-02,-7.233392447233200073e-02,-1.652682423591613770e-01,-1.428219377994537354e-01,-2.292814254760742188e-01,-3.842884674668312073e-02,7.344179600477218628e-02,-2.705709040164947510e-01,-2.236076444387435913e-01,-1.305173039436340332e-01,-1.352671682834625244e-01,-2.187577933073043823e-01,4.026641696691513062e-02,-7.159106433391571045e-02,-1.001651883125305176e-01,8.352133445441722870e-03,-1.722908914089202881e-01,-2.493318170309066772e-01,1.351300179958343506e-01,-9.160032123327255249e-02,-1.934886276721954346e-01,1.104328632354736328e-01,-1.110817026346921921e-02,-2.603975357487797737e-03,8.490270376205444336e-02,-1.676955074071884155e-01,-1.736401915550231934e-01,-1.093382835388183594e-01,1.974949426949024200e-02,-1.925607174634933472e-01,4.408838227391242981e-02,-5.418745428323745728e-02,-2.288277745246887207e-01,6.893799453973770142e-02,-1.516159176826477051e-01,-2.644466757774353027e-01,-2.118608914315700531e-02,-8.393516764044761658e-03,1.755829155445098877e-02,1.323474347591400146e-01,-3.128819167613983154e-01,-5.419538170099258423e-02,-2.278947234153747559e-01,-1.599944531917572021e-01,-6.734554469585418701e-02,-1.711074411869049072e-01,-1.816664487123489380e-01,-2.555223181843757629e-02,1.077056974172592163e-01,-5.554847419261932373e-02,-1.508042514324188232e-01,1.446356326341629028e-01,6.582825910300016403e-03,-1.164815872907638550e-01,3.462818264961242676e-02,1.528259366750717163e-01,3.020347561687231064e-03,-9.687250107526779175e-02,5.962448194622993469e-02,-1.453901678323745728e-01,-1.178073808550834656e-01,-2.427292317152023315e-01,7.908160984516143799e-02,-1.500476896762847900e-01,7.544823735952377319e-02,-1.111167147755622864e-01,-8.852080255746841431e-02,-6.110530346632003784e-02,-2.825855277478694916e-02,9.520660154521465302e-03,-1.453720498830080032e-02,2.734308876097202301e-02,-2.845983207225799561e-01,-1.989923715591430664e-01,-5.356093123555183411e-02,9.331904351711273193e-02,-7.107909768819808960e-02,-8.246866613626480103e-02,7.152466475963592529e-02,-2.603501379489898682e-01,-1.435386389493942261e-01,5.553708225488662720e-02,-9.323418140411376953e-02,-4.150879755616188049e-02,2.517213523387908936e-01,-9.337057417724281549e-05,-2.449575513601303101e-01,3.572521358728408813e-02,-2.825211882591247559e-01,-6.846991926431655884e-02,9.922240860760211945e-03,-7.402069866657257080e-02,-2.177663594484329224e-01,-5.852390825748443604e-02,7.942932844161987305e-02,-2.264626175165176392e-01,3.836123645305633545e-02,3.513025864958763123e-02,5.434757471084594727e-02,7.901865243911743164e-02,8.487127721309661865e-02,-1.555813848972320557e-01,-4.762675985693931580e-02,2.185311317443847656e-01,3.195351734757423401e-02,1.507016867399215698e-01,-1.063557639718055725e-01,-9.289827942848205566e-02,-8.881339430809020996e-02,-1.373101621866226196e-01,5.939642339944839478e-02,3.193533420562744141e-02,-1.339179575443267822e-01,8.604644984006881714e-02,3.246111562475562096e-03,2.780486643314361572e-02,6.417911499738693237e-03,1.275826692581176758e-01,1.407255139201879501e-02,-3.394441604614257812e-01,1.183222755789756775e-01,-1.951761990785598755e-01,-2.881661430001258850e-02,1.635283678770065308e-01,-7.621391862630844116e-02,-9.284194558858871460e-02,-1.233636066317558289e-01,1.331665844190865755e-04,7.325204461812973022e-02
7.124436646699905396e-02,5.032588914036750793e-02,-1.374198943376541138e-01,-7.743967324495315552e-02,-9.972627460956573486e-02,8.885633200407028198e-02,6.128136068582534790e-02,-6.013425067067146301e-02,-8.734647929668426514e-02,-1.436007022857666016e-01,1.267053838819265366e-02,2.126169390976428986e-02,-2.353934384882450104e-02,-7.145055383443832397e-02,8.572266995906829834e-02,-1.302180588245391846e-01,1.967738270759582520e-01,-1.857777535915374756e-01,5.368981882929801941e-02,-1.069397777318954468e-01,-1.182382851839065552e-01,-8.029276877641677856e-02,5.310429260134696960e-02,4.959838464856147766e-02,2.083835899829864502e-01,-8.474095165729522705e-02,-9.278739988803863525e-02,-3.653284907341003418e-02,-3.046582937240600586e-01,2.288294956088066101e-02,6.475341971963644028e-03,6.776432693004608154e-02,-1.991705149412155151e-01,7.735601812601089478e-02,1.063553914427757263e-01,-1.992243081331253052e-01,-5.361560359597206116e-02,2.468073666095733643e-01,-2.922217128798365593e-03,-1.046452000737190247e-01,9.059548377990722656e-02,-7.944518327713012695e-02,-3.957304637879133224e-03,1.138600185513496399e-01,-1.394489407539367676e-01,2.275230549275875092e-02,1.724651157855987549e-01,2.512041293084621429e-02,-1.999628543853759766e-01,-5.870036408305168152e-02,5.704431980848312378e-02,1.934541016817092896e-02,-3.131238371133804321e-02,-1.816437691450119019e-01,1.961860209703445435e-01,1.512921508401632309e-02,4.736094921827316284e-02,-2.487802132964134216e-02,-3.507165610790252686e-02,2.377077043056488037e-01,-5.493070930242538452e-02,-1.972067058086395264e-01,-2.873526811599731445e-01,2.731955423951148987e-02,1.187009215354919434e-01,-1.290527433156967163e-01,-1.344075351953506470e-01,2.325190901756286621e-01,-1.809725463390350342e-01,-1.481463164091110229e-01,1.037060618400573730e-01,-1.903260312974452972e-02,2.082431912422180176e-01,3.838286921381950378e-02,-5.158815160393714905e-02,-5.467036366462707520e-02,3.450809512287378311e-03,1.257390528917312622e-02,2.803182303905487061e-01,1.349376980215311050e-02,-6.952463835477828979e-02,-8.165411651134490967e-02,-9.368097782135009766e-02,-5.654205754399299622e-02,7.294245064258575439e-02,-2.730235271155834198e-02,3.489052411168813705e-03,6.816916912794113159e-02,-1.002735868096351624e-01,-1.083686724305152893e-01,-4.475875291973352432e-03,2.181027978658676147e-01,9.466296434402465820e-02,7.234675437211990356e-02,-7.492344081401824951e-02,-2.748319320380687714e-02,1.089267954230308533e-01,5.981649458408355713e-02,1.434727199375629425e-02,-4.164844751358032227e-02,-1.792640052735805511e-02,-2.545714937150478363e-02,1.034614741802215576e-01,6.042535603046417236e-02,6.884597241878509521e-02,-2.218592315912246704e-01,-1.532714231871068478e-03,-9.419704228639602661e-02,2.159463018178939819e-01,2.141532748937606812e-01,-1.366241574287414551e-01,2.145432680845260620e-01,-1.044639497995376587e-01,1.699333339929580688e-01,2.702617645263671875e-01,3.754363581538200378e-02,1.557417307049036026e-02,1.357569545507431030e-01,-1.645268648862838745e-01,-2.150934040546417236e-01,3.265366330742835999e-02,1.528985649347305298e-01,-5.271168425679206848e-02,2.404886782169342041e-01,9.211636334657669067e-02,9.701858507469296455e-04,-1.332514286041259766e-01,2.841578982770442963e-02,-1.532685458660125732e-01,-2.368541508913040161e-01,1.050504297018051147e-01,-4.958076775074005127e-02,1.135043352842330933e-01,-1.439847797155380249e-01,1.308343932032585144e-02,1.066524982452392578e-01,3.283847123384475708e-02,-1.373685896396636963e-01,1.199349388480186462e-01,-6.358087062835693359e-02,-1.680172681808471680e-01,1.782314181327819824e-01,6.594792474061250687e-03,9.017701260745525360e-03
-2.048092186450958252e-01,1.108820587396621704e-01,-1.511128386482596397e-03,-2.194485664367675781e-01,-2.774771116673946381e-02,2.010186761617660522e-01,-5.718354880809783936e-02,-6.511800736188888550e-02,-1.809514313936233521e-01,3.559735044836997986e-02,1.363976895809173584e-01,1.454324871301651001e-01,-4.859739914536476135e-02,-7.433528453111648560e-02,-1.589307487010955811e-01,-1.080729439854621887e-01,1.013389229774475098e-01,8.368511497974395752e-02,9.905737638473510742e-02,-1.380577683448791504e-01,6.796248257160186768e-02,2.262732088565826416e-01,-1.231006532907485962e-01,-6.505046039819717407e-02,6.437550485134124756e-02,-5.017028748989105225e-02,-1.238469555974006653e-01,5.511754192411899567e-03,-1.807611137628555298e-01,-8.398927748203277588e-02,-5.388473346829414368e-02,6.345096230506896973e-02,3.675634041428565979e-02,1.231141015887260437e-01,7.012185454368591309e-02,1.379020512104034424e-01,-7.033368200063705444e-02,-1.577028483152389526e-01,-5.797487869858741760e-02,-5.224501714110374451e-02,-9.276449680328369141e-02,-5.284140631556510925e-02,-2.352518402040004730e-02,-3.239770531654357910e-01,-2.512810826301574707e-01,1.321276575326919556e-01,-2.089209407567977905e-01,-1.240875944495201111e-01,1.383868604898452759e-01,4.527151584625244141e-02,6.653690338134765625e-02,1.808493882417678833e-01,-2.006449997425079346e-01,-1.028780564665794373e-01,2.612535059452056885e-01,8.965807408094406128e-02,4.638467431068420410e-01,1.868356168270111084e-01,-3.548487648367881775e-02,1.772988587617874146e-01,-1.671525537967681885e-01,-9.730615466833114624e-02,3.995589539408683777e-02,-1.669684499502182007e-01,1.580590754747390747e-01,2.345626614987850189e-02,9.011407941579818726e-02,-6.312909722328186035e-02,-3.174612298607826233e-02,-1.330443471670150757e-01,-7.182157039642333984e-02,2.207521647214889526e-01,2.494112998247146606e-01,2.768838405609130859e-01,3.060665726661682129e-01,3.423881828784942627e-01,2.049170881509780884e-01,1.865754127502441406e-01,-6.252143532037734985e-02,9.144027531147003174e-02,2.118211239576339722e-01,1.805798709392547607e-01,8.546736091375350952e-02,-1.787575632333755493e-01,6.895846128463745117e-02,8.904195576906204224e-02,6.263415515422821045e-02,-3.677901253104209900e-02,-8.269524574279785156e-02,-1.808986663818359375e-01,2.384793758392333984e-01,-6.427726242691278458e-03,1.253363788127899170e-01,-2.644940279424190521e-02,1.385209858417510986e-01,-1.689377725124359131e-01,-2.068403176963329315e-02,-7.907138206064701080e-03,-2.125499583780765533e-02,4.733891226351261139e-03,2.423772066831588745e-01,4.062980785965919495e-02,3.236469998955726624e-02,1.797647029161453247e-02,-1.950511336326599121e-01,8.837776631116867065e-02,-2.723802812397480011e-02,8.014308661222457886e-02,1.885050833225250244e-01,-8.746729791164398193e-02,-1.153254602104425430e-02,-8.668645471334457397e-02,2.966115996241569519e-02,-1.339789032936096191e-01,-7.862774282693862915e-02,3.167467564344406128e-02,-1.891295909881591797e-01,3.476345539093017578e-02,4.832522198557853699e-02,-1.332494616508483887e-01,1.569197326898574829e-01,2.665158212184906006e-01,-1.692816913127899170e-01,7.250129245221614838e-03,-4.267762973904609680e-02,-1.779418289661407471e-01,-1.278270184993743896e-01,-1.213245913386344910e-01,1.584131270647048950e-01,1.775449514389038086e-01,-1.740477234125137329e-01,3.007359057664871216e-02,-4.327709227800369263e-02,-1.749667823314666748e-01,-1.133950706571340561e-02,2.156374603509902954e-01,-5.894666910171508789e-02,1.195992901921272278e-01,1.205310747027397156e-01,2.210966348648071289e-01,-3.121287561953067780e-02,2.479650974273681641e-01,2.302588820457458496e-01,1.043219268321990967e-01
-8.540636301040649414e-02,-6.044792756438255310e-02,1.024932786822319031e-02,-3.475077152252197266e-01,5.109504610300064087e-02,-2.024389207363128662e-01,-2.535374164581298828e-01,-1.112096086144447327e-01,1.923908591270446777e-01,6.409822497516870499e-03,8.962923288345336914e-02,-1.830382272601127625e-02,-6.113916262984275818e-02,-4.842309281229972839e-02,-1.931899636983871460e-01,-1.413421183824539185e-01,1.472345143556594849e-01,7.964234054088592529e-02,-4.379900172352790833e-02,1.857200264930725098e-01,2.701443620026111603e-02,-4.976942390203475952e-02,-4.257829487323760986e-02,-3.646647185087203979e-02,-7.698682136833667755e-03,1.879933476448059082e-02,-5.534241721034049988e-02,-9.510650485754013062e-02,-6.758798658847808838e-02,1.972736269235610962e-01,-3.277260363101959229e-01,-1.014253720641136169e-01,-1.075832247734069824e-01,-2.488309442996978760e-01,-1.744794398546218872e-01,8.144530653953552246e-02,-1.562607139348983765e-01,-1.554593071341514587e-02,-3.245319053530693054e-02,-1.426277607679367065e-01,6.285275518894195557e-02,4.034943506121635437e-02,-1.644346266984939575e-01,9.413573890924453735e-02,2.081466168165206909e-01,3.896076977252960205e-02,-2.175882831215858459e-02,-9.334943443536758423e-02,-1.622310280799865723e-01,-1.588471084833145142e-01,-1.297059804201126099e-01,-9.419497102499008179e-02,4.761482402682304382e-02,-4.367557168006896973e-02,-3.544965386390686035e-02,5.707134306430816650e-02,-1.158170029520988464e-01,-9.245459735393524170e-02,2.344801276922225952e-01,1.170226037502288818e-01,-8.942142128944396973e-03,8.700414001941680908e-02,3.242005109786987305e-01,7.069804123602807522e-04,-1.487982552498579025e-02,-1.530205160379409790e-01,1.810229755938053131e-02,2.178320474922657013e-02,-1.991766840219497681e-01,5.838274210691452026e-02,1.348868310451507568e-01,-5.121745541691780090e-02,-1.155755370855331421e-01,9.515759348869323730e-02,1.797972172498703003e-01,-1.190850734710693359e-01,1.770699322223663330e-01,4.692320525646209717e-02,7.767102867364883423e-02,1.594922691583633423e-01,-1.988336443901062012e-01,4.672203585505485535e-02,-2.335499525070190430e-01,-2.517867982387542725e-01,1.266745850443840027e-02,-2.614009976387023926e-01,2.125396393239498138e-02,8.547133207321166992e-02,-9.218904376029968262e-02,-8.015991747379302979e-02,-5.237801000475883484e-02,-2.531753294169902802e-02,1.071653142571449280e-01,5.025488883256912231e-02,-8.402645587921142578e-02,9.762536734342575073e-02,8.455988764762878418e-02,4.005680978298187256e-02,-1.674789786338806152e-01,-6.318101286888122559e-02,-5.811027809977531433e-02,-9.050468355417251587e-02,-1.256947517395019531e-01,-6.211532279849052429e-02,-3.142689913511276245e-02,-1.289576441049575806e-01,1.014104336500167847e-01,-1.082520708441734314e-01,-2.865459211170673370e-02,6.801572442054748535e-02,-1.169123500585556030e-01,-6.221099174581468105e-04,9.799671918153762817e-02,1.290892362594604492e-01,-9.967987984418869019e-02,1.460795700550079346e-01,1.602098792791366577e-01,1.053641065955162048e-01,-2.926225364208221436e-01,-1.674485765397548676e-02,1.664100140333175659e-01,-1.955907493829727173e-01,-4.194302111864089966e-02,-6.925676763057708740e-02,-1.345026344060897827e-01,1.000936999917030334e-01,-2.869974970817565918e-01,9.512883424758911133e-02,-5.880613625049591064e-02,-1.297497600317001343e-01,-1.109966486692428589e-01,-1.529678404331207275e-01,-9.019602090120315552e-02,-1.630404144525527954e-01,1.033726036548614502e-01,-2.365596890449523926e-01,-1.146527901291847229e-01,-2.032515220344066620e-02,-2.044208794832229614e-01,1.884763874113559723e-02,4.067905619740486145e-02,-3.823290765285491943e-01,-1.253447495400905609e-02,2.256551086902618408e-01
1.454123854637145996e-01,6.351114716380834579e-03,-2.511932253837585449e-01,-1.471111476421356201e-01,8.528223633766174316e-02,1.873002946376800537e-01,1.027661040425300598e-01,1.168546453118324280e-02,1.061860378831624985e-02,-5.513158813118934631e-02,-2.930275537073612213e-02,-4.584916681051254272e-02,-1.081934422254562378e-01,7.116409484297037125e-03,-1.507906764745712280e-01,6.432226300239562988e-02,-9.507662057876586914e-02,-1.527377814054489136e-01,1.132064014673233032e-01,1.419052481651306152e-01,1.554570794105529785e-01,1.003516688942909241e-01,7.573863118886947632e-02,2.578509412705898285e-02,5.428846925497055054e-02,1.780528388917446136e-02,1.367796808481216431e-01,2.030305713415145874e-01,4.110509902238845825e-02,9.905387461185455322e-02,8.569511026144027710e-02,1.617272756993770599e-02,-4.084203392267227173e-02,-4.365811496973037720e-02,6.664430350065231323e-02,2.616087496280670166e-01,-2.508307099342346191e-01,-2.805217206478118896e-01,1.577579602599143982e-02,-8.467047661542892456e-02,1.615058928728103638e-01,1.400432288646697998e-01,1.782732829451560974e-02,2.521011419594287872e-02,-2.012717127799987793e-01,-1.417517364025115967e-01,-4.455845430493354797e-02,7.158374041318893433e-02,-6.844400614500045776e-02,-2.261569201946258545e-01,7.814668118953704834e-02,1.816713251173496246e-02,-1.034366190433502197e-01,-5.447798967361450195e-02,-2.994996123015880585e-02,-7.038288563489913940e-02,-3.167081475257873535e-01,5.243268236517906189e-02,1.140822917222976685e-01,-4.649984091520309448e-02,6.065785884857177734e-02,6.635660678148269653e-02,4.401987791061401367e-02,1.013975664973258972e-01,7.417410612106323242e-02,-9.350994229316711426e-02,-4.343684017658233643e-02,-1.857190974988043308e-03,1.160191968083381653e-01,3.796919807791709900e-02,-1.008295640349388123e-01,-2.090414762496948242e-01,-1.408815383911132812e-01,-7.164819538593292236e-02,2.449371665716171265e-02,5.443363636732101440e-02,-1.327641755342483521e-01,2.363384962081909180e-01,-1.167769059538841248e-01,-5.718612374039366841e-05,-6.448667496442794800e-02,2.923163399100303650e-02,-7.254943996667861938e-02,3.731054812669754028e-02,-9.939815104007720947e-02,1.713436543941497803e-01,-2.947001457214355469e-01,-1.923350691795349121e-01,-2.009191513061523438e-01,-1.842469573020935059e-01,-9.167291969060897827e-02,-1.884979903697967529e-01,1.615478098392486572e-01,-4.228885471820831299e-02,-8.218523114919662476e-02,2.304413123056292534e-03,-1.535532921552658081e-01,-7.076298445463180542e-02,-2.556397020816802979e-01,7.028935104608535767e-02,-5.348973721265792847e-02,-1.869167387485504150e-02,-4.503460824489593506e-01,1.133098155260086060e-01,-7.823263108730316162e-02,-9.708520025014877319e-02,-6.203794479370117188e-02,-1.118208095431327820e-01,5.846154689788818359e-02,-1.395178735256195068e-01,1.831726431846618652e-01,7.848999649286270142e-02,-2.508338987827301025e-01,7.425326108932495117e-02,-2.436383068561553955e-01,-8.447832614183425903e-02,5.210678279399871826e-02,-9.889195859432220459e-02,-2.953647375106811523e-01,-1.429826766252517700e-01,-1.357870846986770630e-01,1.128748357295989990e-01,-2.683622995391488075e-03,-1.826910078525543213e-01,2.105400860309600830e-01,1.288536339998245239e-01,-1.047833114862442017e-01,-2.740214765071868896e-01,1.409870479255914688e-02,3.885011374950408936e-02,-1.535755768418312073e-02,2.012811303138732910e-01,-8.447228372097015381e-02,-2.018131911754608154e-01,2.034937888383865356e-01,1.284186076372861862e-02,-3.920188173651695251e-03,5.271552130579948425e-02,1.215174347162246704e-01,-3.165328502655029297e-01,-1.304918527603149414e-01,-1.980542093515396118e-01,-5.719628185033798218e-02,1.354874372482299805e-01
-1.403626650571823120e-01,1.475422382354736328e-01,8.983518928289413452e-03,-8.101882040500640869e-02,-2.136766724288463593e-02,1.127373427152633667e-01,3.324817866086959839e-02,1.236528623849153519e-02,-6.565753370523452759e-03,7.232896238565444946e-02,-1.333304494619369507e-01,4.867743700742721558e-02,-2.417136877775192261e-01,1.409890353679656982e-01,-4.995526745915412903e-02,-3.109249845147132874e-02,-1.529832482337951660e-01,-9.081364423036575317e-02,-6.212821230292320251e-02,2.711002230644226074e-01,1.226693987846374512e-01,-8.828748017549514771e-02,2.717387676239013672e-01,2.248661965131759644e-01,-1.404216587543487549e-01,7.026238739490509033e-02,2.406933456659317017e-01,4.177992418408393860e-02,5.778986494988203049e-03,-2.166856545954942703e-03,3.682336211204528809e-02,-1.196602592244744301e-03,-1.226329579949378967e-01,3.861328586935997009e-03,7.382159680128097534e-02,-2.194484770298004150e-01,-6.973018497228622437e-02,-1.413329243659973145e-01,-2.524535655975341797e-01,-2.380461543798446655e-01,-6.926526129245758057e-02,1.694151610136032104e-01,-1.227242350578308105e-01,6.552321463823318481e-02,-3.649222850799560547e-02,-8.348400145769119263e-02,-2.097731828689575195e-02,-6.492846645414829254e-03,-7.476432248950004578e-03,-1.063764095306396484e-01,4.021443054080009460e-02,-1.197012290358543396e-01,1.218565180897712708e-01,2.418214976787567139e-01,-1.403418779373168945e-01,1.075401529669761658e-01,-1.172603443264961243e-01,-2.481037192046642303e-02,3.937732279300689697e-01,-7.618296891450881958e-02,1.357169598340988159e-01,3.641022145748138428e-01,4.133494943380355835e-02,4.794947430491447449e-02,1.829904876649379730e-02,-4.716327786445617676e-02,-2.024823874235153198e-01,8.249041438102722168e-02,8.004981279373168945e-02,5.074557289481163025e-02,4.951353371143341064e-02,-8.301819860935211182e-02,-1.030830815434455872e-01,-1.495271921157836914e-02,-2.062205411493778229e-02,-4.723687842488288879e-02,-2.373542338609695435e-01,-1.695828326046466827e-02,-5.887339636683464050e-02,1.828120090067386627e-02,-2.492845244705677032e-02,8.554776199162006378e-03,-7.915279269218444824e-02,-1.381499916315078735e-01,-5.600696895271539688e-03,-4.810395464301109314e-02,-2.612713277339935303e-01,-1.145667359232902527e-01,-1.904357820749282837e-01,-4.324713721871376038e-02,1.143930852413177490e-01,-1.944827884435653687e-01,1.408955454826354980e-01,-1.761674135923385620e-01,-7.434763759374618530e-02,-1.744137890636920929e-02,5.160159990191459656e-02,-3.613984212279319763e-02,6.628476828336715698e-02,4.908946901559829712e-02,-4.476884007453918457e-02,9.854310750961303711e-02,-1.274580955505371094e-01,5.223252624273300171e-02,9.597287327051162720e-02,-1.088728830218315125e-01,-2.656081020832061768e-01,-5.002116784453392029e-02,-1.877746917307376862e-02,-1.203851625323295593e-01,-7.298230379819869995e-02,-7.166043668985366821e-02,-3.898949921131134033e-02,-2.682223170995712280e-02,2.016415745019912720e-01,1.073313280940055847e-01,-7.340947538614273071e-02,5.722495913505554199e-02,-9.504114091396331787e-02,1.271034870296716690e-02,-1.136141270399093628e-01,-1.614924669265747070e-01,2.204197943210601807e-01,-9.037436917424201965e-03,6.894186884164810181e-02,-6.101364642381668091e-02,-8.448575437068939209e-02,-3.614981891587376595e-03,-1.249846592545509338e-01,2.403338253498077393e-01,2.975845709443092346e-02,9.028497338294982910e-02,1.034608855843544006e-01,2.771093845367431641e-01,-9.267655760049819946e-02,-5.857586115598678589e-02,-3.738002181053161621e-01,-2.172365337610244751e-01,-8.877530694007873535e-03,-3.442453444004058838e-01,-9.712534397840499878e-02,2.190814167261123657e-02,8.760312944650650024e-02,-2.854630723595619202e-02
-1.913869008421897888e-02,-4.760855808854103088e-02,-1.793320029973983765e-01,-1.238886117935180664e-01,7.388888299465179443e-02,-2.206911444664001465e-01,8.048798888921737671e-02,-1.289530247449874878e-01,-2.962699234485626221e-01,-5.678883288055658340e-03,-8.469648659229278564e-02,-1.543193124234676361e-02,-2.442324757575988770e-01,1.251554936170578003e-01,-1.656506024301052094e-02,-6.006545946002006531e-02,-1.449468433856964111e-01,2.198668420314788818e-01,-1.269785761833190918e-01,1.322280466556549072e-01,-1.382349431514739990e-01,-2.760351262986660004e-02,-8.410251885652542114e-02,7.209049165248870850e-02,-2.690906524658203125e-01,-8.472678810358047485e-02,-1.429710537195205688e-01,2.719655260443687439e-02,1.229908242821693420e-01,-3.747082501649856567e-02,1.111024543642997742e-01,-1.348733901977539062e-01,-1.496755778789520264e-01,-6.675257533788681030e-02,-1.009643822908401489e-01,-3.247869759798049927e-02,-7.914265245199203491e-02,-1.431739628314971924e-01,-3.096211254596710205e-01,-3.613484650850296021e-02,4.521398618817329407e-02,8.813419938087463379e-02,-9.561249613761901855e-02,1.899112388491630554e-02,-1.320037245750427246e-01,-5.917477607727050781e-02,8.178415149450302124e-02,1.731478124856948853e-01,-1.219133883714675903e-01,-3.141596540808677673e-02,1.738472841680049896e-02,-2.544983755797147751e-03,1.235330775380134583e-01,-8.149794489145278931e-02,2.186146751046180725e-02,-4.872707650065422058e-02,1.731068193912506104e-01,-3.905242681503295898e-01,-5.630909651517868042e-02,2.288958639837801456e-04,-1.570855528116226196e-01,-1.670049577951431274e-01,-1.250294148921966553e-01,1.428346931934356689e-01,1.775647997856140137e-01,-1.394837200641632080e-01,1.285154074430465698e-01,-1.133228763937950134e-01,3.842284157872200012e-02,-2.706708759069442749e-02,8.865509182214736938e-02,1.325612887740135193e-02,-1.942019537091255188e-02,-7.653687149286270142e-02,1.936849951744079590e-01,7.542897760868072510e-02,1.035303547978401184e-01,1.598610579967498779e-01,-4.936489090323448181e-02,-1.785945743322372437e-01,-1.730893924832344055e-02,-2.601800262928009033e-01,5.122345406562089920e-03,1.187770143151283264e-01,-1.500767469406127930e-01,7.120648771524429321e-02,3.678070381283760071e-02,6.751672178506851196e-02,9.577485918998718262e-02,5.671281367540359497e-02,-6.393506377935409546e-02,-2.391974925994873047e-01,1.904079690575599670e-02,-2.291865497827529907e-01,-4.038378596305847168e-02,1.024835929274559021e-01,-2.120227366685867310e-01,7.776506245136260986e-02,-1.326148062944412231e-01,-1.790353283286094666e-02,-1.731989830732345581e-01,-1.128295958042144775e-01,1.668670587241649628e-02,1.139915660023689270e-01,-1.188697069883346558e-01,5.185054615139961243e-02,-1.752763986587524414e-01,-1.749660670757293701e-01,2.025862783193588257e-01,-1.134119108319282532e-01,9.094830602407455444e-02,9.089974313974380493e-02,6.239729374647140503e-02,-2.307890951633453369e-01,-3.077648580074310303e-02,-1.136424466967582703e-01,-1.075595840811729431e-01,-7.046438753604888916e-02,-8.799219131469726562e-02,-1.503652930259704590e-01,1.146306023001670837e-01,8.138469606637954712e-02,-1.727487593889236450e-01,-1.635849475860595703e-01,-2.538140714168548584e-01,1.275905072689056396e-01,5.536591261625289917e-02,-2.651541233062744141e-01,-2.155612260103225708e-01,-2.023662179708480835e-01,4.372479021549224854e-02,-2.647368311882019043e-01,-1.793162524700164795e-01,1.997267603874206543e-01,2.624812535941600800e-02,9.266415983438491821e-02,9.205952286720275879e-02,1.960879266262054443e-01,-1.928283832967281342e-02,2.705579102039337158e-01,-8.991576731204986572e-02,2.199150808155536652e-02,1.954668574035167694e-02,2.145366966724395752e-01
8.829549700021743774e-02,-1.782786697149276733e-01,-9.660683572292327881e-02,-9.776958823204040527e-02,-1.442334949970245361e-01,1.227014586329460144e-01,-2.705854177474975586e-02,-8.919838815927505493e-02,-7.596143335103988647e-02,-2.274911850690841675e-03,1.928025335073471069e-01,-1.655937172472476959e-02,-4.433932900428771973e-02,-1.182725504040718079e-01,-1.888468414545059204e-01,2.894960939884185791e-01,-8.237875998020172119e-02,1.584120839834213257e-01,-6.220974028110504150e-02,-7.170866429805755615e-02,8.801811188459396362e-02,-7.837709039449691772e-03,-3.234781697392463684e-02,2.908022515475749969e-02,2.748915255069732666e-01,2.623433470726013184e-01,-6.147112580947577953e-04,-1.505403369665145874e-01,1.384681314229965210e-01,-1.295363754034042358e-01,-6.738187372684478760e-02,-7.690361142158508301e-02,-1.345133334398269653e-01,-1.094159297645092010e-02,2.973192930221557617e-02,-1.424847990274429321e-01,2.731703817844390869e-01,-8.649463206529617310e-02,-3.706216439604759216e-02,1.797987967729568481e-01,1.739167571067810059e-01,7.739476114511489868e-02,2.060034722089767456e-01,1.298737674951553345e-01,2.974464297294616699e-01,-1.441766321659088135e-01,-1.935134083032608032e-02,-3.407835587859153748e-02,1.171096973121166229e-02,1.009902805089950562e-01,-1.397293657064437866e-01,-4.737693816423416138e-03,3.178869187831878662e-02,-2.269956320524215698e-01,3.955012932419776917e-02,3.478872776031494141e-02,2.290522679686546326e-02,1.930207908153533936e-01,-2.466782927513122559e-01,1.553442776203155518e-01,2.080120332539081573e-02,-4.316535592079162598e-01,-2.157298028469085693e-01,1.988817900419235229e-01,-1.652346253395080566e-01,-1.326069533824920654e-01,-6.797251105308532715e-02,-9.358476102352142334e-02,-1.897520273923873901e-01,-6.028496101498603821e-02,1.259812414646148682e-01,-1.653796434402465820e-01,1.857804954051971436e-01,1.346543431282043457e-01,7.783745229244232178e-02,1.505892258137464523e-02,-2.359090372920036316e-02,1.990128308534622192e-01,1.385018527507781982e-01,-1.005771681666374207e-01,8.937291800975799561e-03,-2.472782507538795471e-02,-9.841615334153175354e-03,-7.412040233612060547e-02,8.188144117593765259e-02,-8.769281208515167236e-03,-1.712638437747955322e-01,-1.308352351188659668e-01,3.165093809366226196e-02,-1.989788562059402466e-01,1.052580401301383972e-01,4.549390077590942383e-02,-1.089888587594032288e-01,-4.493694379925727844e-02,-8.610983379185199738e-03,-1.192894577980041504e-01,-8.984138071537017822e-02,2.380379475653171539e-02,-5.381903424859046936e-02,5.581839755177497864e-02,1.980198025703430176e-01,-1.058693528175354004e-01,-5.685632675886154175e-02,1.196313872933387756e-01,7.521396130323410034e-02,1.261991858482360840e-01,1.461568623781204224e-01,-1.738281846046447754e-01,-1.387549042701721191e-01,-3.355502709746360779e-02,2.534558475017547607e-01,-1.530970633029937744e-01,-3.899361565709114075e-02,1.398568153381347656e-01,4.322433471679687500e-02,-2.415924221277236938e-01,-2.250732183456420898e-01,6.998152285814285278e-02,-8.741849660873413086e-02,-7.187301758676767349e-03,1.397501677274703979e-01,-4.115938395261764526e-02,-9.777177870273590088e-02,5.571895465254783630e-02,6.381358951330184937e-02,-6.616335362195968628e-02,-1.224149018526077271e-04,1.388539653271436691e-02,-2.184293866157531738e-01,-8.976870030164718628e-02,-8.835577219724655151e-02,-4.148648120462894440e-03,6.667972356081008911e-02,2.723869085311889648e-01,-5.009320564568042755e-03,2.498464584350585938e-01,1.662060469388961792e-01,8.706464618444442749e-02,5.606348812580108643e-02,3.447860851883888245e-02,5.342105869203805923e-04,-4.747087880969047546e-02,-1.435578912496566772e-01,-6.572380661964416504e-02
1.808754056692123413e-01,2.898828089237213135e-01,1.141963601112365723e-01,-1.072515025734901428e-01,1.346203535795211792e-01,1.872263401746749878e-01,-1.314389556646347046e-01,8.323426544666290283e-02,-2.054986208677291870e-01,-3.841648399829864502e-01,-3.355202376842498779e-01,-5.561975017189979553e-02,8.133585751056671143e-02,-4.773856326937675476e-02,-1.033203303813934326e-01,-1.330236941576004028e-01,-3.761031851172447205e-02,-1.954796463251113892e-01,1.622224412858486176e-02,1.120023280382156372e-01,-2.134123630821704865e-02,-5.971293523907661438e-02,1.217826977372169495e-01,7.132103666663169861e-03,-9.962543100118637085e-02,1.279485821723937988e-01,1.767982095479965210e-01,1.284725666046142578e-01,7.109892368316650391e-02,-1.493318122811615467e-03,6.947076320648193359e-02,-2.016882896423339844e-01,3.683559224009513855e-02,-9.650505147874355316e-03,9.410777688026428223e-02,-6.061533465981483459e-02,-8.479193598031997681e-02,4.874395951628684998e-02,-1.324245184659957886e-01,-3.584486991167068481e-02,-1.450880169868469238e-01,-3.238829597830772400e-02,-2.745541632175445557e-01,-1.965420097112655640e-01,-3.352782130241394043e-01,-8.968151360750198364e-02,-1.985174864530563354e-01,-5.811131000518798828e-02,1.171036660671234131e-01,-2.137099057435989380e-01,1.853937506675720215e-01,1.364543139934539795e-01,2.438669800758361816e-01,1.535557806491851807e-01,1.482287347316741943e-01,-1.714199781417846680e-02,7.166688144207000732e-02,3.448357880115509033e-01,-1.092009395360946655e-01,3.478048741817474365e-01,5.793838575482368469e-02,4.639223590493202209e-02,2.908716201782226562e-01,2.143506519496440887e-02,-1.443075090646743774e-01,1.021973565220832825e-01,3.016995638608932495e-02,1.176302880048751831e-01,-5.008992552757263184e-02,-2.123953551054000854e-01,1.321467757225036621e-01,4.604516923427581787e-02,-3.233435750007629395e-01,1.446781754493713379e-01,-4.502928256988525391e-02,-2.967315614223480225e-01,2.294119447469711304e-02,-8.182191848754882812e-02,-6.096524000167846680e-02,-2.363087832927703857e-01,-1.165486648678779602e-01,1.619111746549606323e-01,4.532546550035476685e-02,1.827564239501953125e-01,9.352514892816543579e-02,1.668606102466583252e-01,1.071546748280525208e-01,-6.802255660295486450e-02,-6.227892637252807617e-02,-1.915953457355499268e-01,-2.004784345626831055e-01,4.443560028448700905e-04,-8.387832902371883392e-03,1.293137110769748688e-02,-5.272825807332992554e-02,-1.238715797662734985e-01,-1.548982458189129829e-03,6.567086279392242432e-02,-8.222205191850662231e-02,-1.013069823384284973e-01,-1.495595425367355347e-01,2.448699623346328735e-01,-1.443300098180770874e-01,-2.080086022615432739e-01,7.640423625707626343e-02,-1.755236461758613586e-02,7.791507989168167114e-02,2.099031805992126465e-01,-2.031657248735427856e-01,-3.136939182877540588e-02,7.420419156551361084e-02,1.078628599643707275e-01,-9.913828223943710327e-02,-1.704810857772827148e-01,-1.079145297408103943e-01,-5.116270110011100769e-02,-2.947975099086761475e-01,-1.621413826942443848e-01,-3.548848628997802734e-02,3.218478336930274963e-02,1.385374739766120911e-02,-1.568368971347808838e-01,1.393158137798309326e-01,-1.533126533031463623e-01,1.645821779966354370e-01,1.821028590202331543e-01,-1.190775632858276367e-01,1.541840434074401855e-01,1.165808066725730896e-01,7.334358245134353638e-02,1.718244403600692749e-01,1.578016281127929688e-01,-8.943944424390792847e-02,2.389634400606155396e-01,1.747899949550628662e-01,-9.961650706827640533e-03,-1.331430971622467041e-01,-1.088365614414215088e-01,3.809253871440887451e-02,-8.026589453220367432e-02,2.429256215691566467e-02,-2.211145907640457153e-01,-6.518336385488510132e-02,-9.781982749700546265e-02
1.078340336680412292e-01,1.011276319622993469e-01,-2.899358794093132019e-02,3.504078984260559082e-01,-9.846165776252746582e-03,-2.384646385908126831e-01,-1.787966303527355194e-02,1.782570779323577881e-01,-8.208135515451431274e-02,-7.124934345483779907e-02,6.087363511323928833e-02,-5.646738782525062561e-02,-1.466684341430664062e-01,1.734128035604953766e-02,1.165170446038246155e-01,2.028706111013889313e-02,1.951671093702316284e-01,-1.227543968707323074e-02,-2.712106890976428986e-02,-8.192927576601505280e-03,7.388836890459060669e-02,-1.673487573862075806e-02,1.828610748052597046e-01,1.288339942693710327e-01,-6.162536330521106720e-03,1.501497626304626465e-01,-3.318168222904205322e-02,-1.741077378392219543e-02,1.471247076988220215e-01,-5.390980467200279236e-02,-1.805213466286659241e-02,-1.927391253411769867e-02,4.244647920131683350e-02,-1.944815814495086670e-01,1.958006620407104492e-01,1.705762445926666260e-01,-5.286395922303199768e-02,-1.246583685278892517e-01,-1.126363053917884827e-01,1.415685415267944336e-01,-1.836230605840682983e-02,-1.738154739141464233e-01,1.221191287040710449e-01,1.603763401508331299e-01,-2.190306186676025391e-01,-7.775471359491348267e-02,1.041512489318847656e-01,-4.408488422632217407e-02,-1.073570400476455688e-01,1.927971392869949341e-01,1.408213824033737183e-01,-1.161955893039703369e-01,1.536609046161174774e-02,2.301838248968124390e-01,1.175502240657806396e-01,3.356627374887466431e-02,3.925966843962669373e-02,3.854207694530487061e-02,-1.987252831459045410e-01,-1.481578201055526733e-01,-1.306284964084625244e-01,-1.124927997589111328e-01,-2.507942169904708862e-02,-3.290148451924324036e-02,3.541374206542968750e-02,-1.852400898933410645e-01,1.395777612924575806e-01,-1.095606908202171326e-01,-4.098937660455703735e-02,1.127681508660316467e-02,-1.219042092561721802e-01,-8.634901046752929688e-02,-2.239573597908020020e-01,-5.098583176732063293e-02,-3.190011084079742432e-01,-2.801011316478252411e-02,1.162090301513671875e-01,-6.537871062755584717e-02,1.003310084342956543e-01,3.615044802427291870e-02,-6.544680148363113403e-02,-2.902259826660156250e-01,-7.555083930492401123e-02,-1.161647029221057892e-02,-2.008844912052154541e-01,-1.081562489271163940e-01,2.175721228122711182e-01,-2.998478412628173828e-01,8.648169040679931641e-02,-5.470342934131622314e-02,5.915395542979240417e-02,-1.497291028499603271e-01,2.575716376304626465e-01,-1.852759122848510742e-01,-5.122940242290496826e-02,7.815470546483993530e-02,-6.633371859788894653e-02,-1.269064843654632568e-01,7.022759318351745605e-02,1.917577534914016724e-01,3.446866199374198914e-02,1.227676682174205780e-02,-2.794897928833961487e-02,-2.071630209684371948e-01,-1.296678036451339722e-01,-6.868658214807510376e-02,-2.200430929660797119e-01,-4.027105867862701416e-01,-3.642942383885383606e-02,-3.399924188852310181e-02,-1.450112760066986084e-01,-1.749879913404583931e-03,-1.012207418680191040e-01,-2.397077828645706177e-01,3.063473105430603027e-02,6.509384512901306152e-02,-1.006721332669258118e-01,6.401035189628601074e-02,-1.591757088899612427e-01,1.123253032565116882e-01,-8.337625861167907715e-02,6.225713528692722321e-03,1.996610015630722046e-01,-3.245385289192199707e-01,-9.823202341794967651e-02,-1.266395896673202515e-01,1.882340162992477417e-01,2.027576789259910583e-02,-1.564071923494338989e-01,-2.523121237754821777e-02,5.211151763796806335e-02,6.136239692568778992e-02,2.103697806596755981e-01,-2.085230797529220581e-01,-9.714737534523010254e-02,1.376556158065795898e-01,-1.285755634307861328e-02,-1.375367492437362671e-01,3.573647141456604004e-02,-2.368391603231430054e-01,-8.632580935955047607e-02,2.036421187222003937e-02,2.243333756923675537e-01,-2.213338315486907959e-01
-1.041122451424598694e-01,1.585358679294586182e-01,1.308388262987136841e-01,-1.533802747726440430e-01,1.676680296659469604e-01,2.038343101739883423e-01,2.778122723102569580e-01,7.829359173774719238e-02,-9.603977203369140625e-02,1.024020835757255554e-02,1.131656318902969360e-01,-9.955633431673049927e-02,2.871076166629791260e-01,1.895546466112136841e-01,5.144596844911575317e-02,6.096981093287467957e-02,9.310159087181091309e-02,2.361986227333545685e-02,-2.067496441304683685e-02,-8.599752187728881836e-02,5.310536362230777740e-04,-1.759654283523559570e-01,-6.671299785375595093e-02,7.637614756822586060e-02,-8.553722500801086426e-02,-6.626092642545700073e-02,2.613893747329711914e-01,-1.709442436695098877e-01,2.180134644731879234e-03,6.999076157808303833e-02,-5.622222274541854858e-02,-1.596367806196212769e-01,1.317933052778244019e-01,-1.221560984849929810e-01,-9.762763231992721558e-02,1.544740051031112671e-01,9.269560873508453369e-02,-6.637796014547348022e-02,2.811548672616481781e-02,9.351674467325210571e-02,-1.553562432527542114e-01,-8.432967588305473328e-03,4.667600244283676147e-02,2.253955006599426270e-01,1.572284251451492310e-01,-8.692580461502075195e-02,-1.510400474071502686e-01,-1.284002326428890228e-02,-6.693829596042633057e-02,-7.331340759992599487e-02,7.798315584659576416e-02,-5.854099243879318237e-02,-8.398576080799102783e-02,-8.720465004444122314e-03,-5.712236836552619934e-02,1.612985879182815552e-01,-1.858099997043609619e-01,7.495897822082042694e-03,1.024317517876625061e-01,-1.360972225666046143e-01,-4.469591677188873291e-01,-1.450068056583404541e-01,-6.846629083156585693e-02,8.466576784849166870e-02,1.524500250816345215e-01,-9.335526823997497559e-02,8.246636018157005310e-03,-1.262126117944717407e-01,4.113645851612091064e-02,1.440853625535964966e-02,1.875173002481460571e-01,8.189305663108825684e-02,-2.824546396732330322e-01,-1.433529555797576904e-01,1.521986126899719238e-01,-1.946963518857955933e-01,5.266943573951721191e-02,-2.168226987123489380e-01,-2.185146510601043701e-01,-2.346524000167846680e-01,1.761317253112792969e-02,2.023054063320159912e-01,1.261244863271713257e-01,3.354461118578910828e-02,-1.403079330921173096e-01,1.012289244681596756e-02,2.879807539284229279e-02,-7.741583138704299927e-02,-3.827399015426635742e-02,-1.747208684682846069e-01,5.806072801351547241e-02,3.111477009952068329e-02,-1.181486025452613831e-01,-7.359550148248672485e-02,-1.669564694166183472e-01,1.643931120634078979e-01,-5.583465471863746643e-02,-2.729179859161376953e-01,-3.243413567543029785e-02,2.785800993442535400e-01,5.542469024658203125e-02,3.565865755081176758e-02,2.465794533491134644e-01,-2.113354951143264771e-01,-2.371090054512023926e-01,3.428296744823455811e-02,-5.308291409164667130e-03,1.588779836893081665e-01,6.656246632337570190e-02,-4.851992055773735046e-02,-2.580275237560272217e-01,5.636507272720336914e-02,5.087167955935001373e-03,-3.375528752803802490e-02,-4.041088744997978210e-02,-1.061773821711540222e-01,-1.374461352825164795e-01,2.783309482038021088e-02,-2.483612149953842163e-01,-1.556023061275482178e-01,-1.637865789234638214e-02,-2.447505593299865723e-01,-1.456193625926971436e-01,-1.510339975357055664e-01,-1.397518664598464966e-01,-2.693889439105987549e-01,-4.518936201930046082e-02,5.127967149019241333e-02,2.293054759502410889e-01,2.756243944168090820e-02,-2.045189402997493744e-02,-1.851465739309787750e-02,-5.292158573865890503e-03,-1.034608855843544006e-01,-1.633329689502716064e-01,-1.430041939020156860e-01,4.045952484011650085e-02,1.217209175229072571e-01,-3.121519088745117188e-01,-1.618852764368057251e-01,6.086762994527816772e-02,-1.543055921792984009e-01,1.146292835474014282e-01,-2.162003070116043091e-01
9.845279902219772339e-02,-1.975974142551422119e-01,4.521344974637031555e-02,-2.437800616025924683e-01,-1.561216115951538086e-01,5.816172063350677490e-02,-1.163772866129875183e-01,2.577487528324127197e-01,9.954259544610977173e-02,-2.481081485748291016e-01,2.628264427185058594e-01,2.222905308008193970e-01,-9.702879935503005981e-02,1.137538328766822815e-01,-1.575611531734466553e-02,1.048994138836860657e-01,-4.832976683974266052e-02,-4.085610806941986084e-02,3.377942740917205811e-02,-1.474036574363708496e-01,-2.091943286359310150e-02,-1.265784800052642822e-01,4.157667607069015503e-02,1.419858336448669434e-01,2.042408138513565063e-01,6.845413893461227417e-02,1.090311259031295776e-02,2.964536845684051514e-02,-1.239923164248466492e-01,-3.125964999198913574e-01,2.173887193202972412e-01,-7.094227522611618042e-02,1.843954473733901978e-01,4.087314754724502563e-02,2.194110006093978882e-01,9.326454252004623413e-03,-2.757837772369384766e-01,8.265116065740585327e-02,4.083072021603584290e-02,-3.020555377006530762e-01,-7.646973431110382080e-02,2.281783819198608398e-01,-6.275387108325958252e-02,3.761456906795501709e-02,1.534553319215774536e-01,4.095247387886047363e-02,7.976160198450088501e-02,-5.203031469136476517e-03,2.535597383975982666e-01,4.404327645897865295e-02,2.823293022811412811e-02,-6.050794385373592377e-03,-1.002772077918052673e-01,-3.496065363287925720e-02,-1.390148699283599854e-01,6.903745234012603760e-02,-7.135451585054397583e-02,-5.796436965465545654e-02,7.382211089134216309e-02,2.214490622282028198e-01,4.468455538153648376e-02,-2.396134193986654282e-03,1.354045569896697998e-01,1.899608820676803589e-01,4.261933639645576477e-02,1.363967806100845337e-01,9.359681978821754456e-03,1.869975477457046509e-01,-5.030393972992897034e-02,-2.324806302785873413e-01,-2.372750267386436462e-02,1.199276968836784363e-01,-1.877776533365249634e-01,-5.574048310518264771e-02,-2.020975947380065918e-01,-4.825108870863914490e-02,-2.905042171478271484e-01,-1.326958388090133667e-01,-2.736044488847255707e-02,-6.996818631887435913e-02,-9.164762496948242188e-02,-1.789534837007522583e-02,1.709093600511550903e-01,2.647801339626312256e-01,-4.797199741005897522e-02,5.482948198914527893e-02,-2.287620492279529572e-02,-1.022857725620269775e-01,-1.526333689689636230e-01,-2.151400744915008545e-01,3.243055939674377441e-02,1.658093184232711792e-01,3.683364018797874451e-02,1.998143047094345093e-01,-1.226152013987302780e-02,2.311324328184127808e-02,-1.368814110755920410e-01,-5.361454561352729797e-02,-1.797008961439132690e-01,2.076358199119567871e-01,2.062761224806308746e-02,9.248788654804229736e-02,4.234051704406738281e-02,-1.748738586902618408e-01,-1.073911339044570923e-01,1.173367444425821304e-02,-1.079592034220695496e-01,-8.784800767898559570e-02,-2.135947197675704956e-01,-5.123903974890708923e-02,-9.564654529094696045e-02,-3.394786268472671509e-02,-5.816041678190231323e-02,-2.104748785495758057e-01,-7.941843010485172272e-03,-3.781887888908386230e-02,1.620324552059173584e-01,8.287303894758224487e-02,1.084328219294548035e-01,-8.274571597576141357e-02,1.498416513204574585e-01,2.110183537006378174e-01,-1.230308040976524353e-01,-5.852070078253746033e-02,-2.450815960764884949e-02,-2.800371944904327393e-01,2.092276215553283691e-01,6.769938021898269653e-02,-5.844915285706520081e-02,8.757625520229339600e-02,2.284333556890487671e-01,1.862905919551849365e-01,-8.462793380022048950e-02,-1.261993795633316040e-01,4.958799108862876892e-02,-3.353078365325927734e-01,-1.280145645141601562e-01,-1.237579733133316040e-01,-3.575192093849182129e-01,-8.604811877012252808e-02,-1.389729827642440796e-01,-4.217656850814819336e-01,-3.024942874908447266e-01,1.010256409645080566e-01
-9.918367117643356323e-02,2.297371178865432739e-01,-1.885883212089538574e-01,1.156314536929130554e-01,9.537583589553833008e-02,-1.370833516120910645e-01,1.488955318927764893e-01,1.731932046823203564e-03,1.020997017621994019e-01,-9.986197203397750854e-02,-8.945234864950180054e-02,-1.185794100165367126e-01,1.183301359415054321e-01,5.580322444438934326e-02,1.993509978055953979e-01,-4.678393527865409851e-02,2.070660740137100220e-01,9.433198720216751099e-03,4.969854652881622314e-02,1.058613806962966919e-01,1.815387159585952759e-01,-1.773561239242553711e-01,1.576732695102691650e-01,2.936772406101226807e-01,-1.454697847366333008e-01,6.656500697135925293e-02,8.986787497997283936e-02,6.222379207611083984e-02,3.178226202726364136e-02,1.735167503356933594e-01,6.230712682008743286e-02,7.772404700517654419e-02,1.663803495466709137e-02,-8.527661859989166260e-02,-2.023125141859054565e-01,-2.280308492481708527e-02,1.222846563905477524e-02,-4.185303300619125366e-02,1.182143911719322205e-01,-1.256184768863022327e-03,-2.197963744401931763e-01,-1.689996942877769470e-02,-5.950038135051727295e-02,1.057774424552917480e-01,4.211738705635070801e-02,-2.476830482482910156e-01,2.853495478630065918e-01,1.722153574228286743e-01,-1.225367784500122070e-01,-2.340693473815917969e-01,-7.516621798276901245e-02,-7.955496013164520264e-02,-6.331488490104675293e-02,-9.017242118716239929e-03,-1.835132390260696411e-01,1.016114726662635803e-01,1.617495268583297729e-01,2.903769537806510925e-02,1.045824289321899414e-01,-1.076675280928611755e-01,-7.821344584226608276e-02,-2.167100459337234497e-02,-2.009750455617904663e-01,3.510291874408721924e-02,-1.044923216104507446e-01,1.532525420188903809e-01,-5.353203788399696350e-02,9.335201233625411987e-02,-5.574648082256317139e-02,5.420957878232002258e-02,-1.179207265377044678e-01,-8.626069873571395874e-02,1.734345257282257080e-01,1.196389272809028625e-01,7.553423941135406494e-02,1.213086470961570740e-01,1.464184075593948364e-01,-1.500652879476547241e-01,7.435744628310203552e-03,7.704544812440872192e-02,-1.396248042583465576e-01,1.456192433834075928e-01,-1.069166585803031921e-01,2.520941384136676788e-02,-9.225308150053024292e-02,1.030738949775695801e-01,-2.509254813194274902e-01,-1.080687344074249268e-01,-3.105163760483264923e-02,-2.239385694265365601e-01,-1.484184861183166504e-01,-1.401421725749969482e-01,1.527197062969207764e-01,9.942346811294555664e-02,-1.233101412653923035e-01,4.536126926541328430e-02,1.806985288858413696e-01,-1.365780681371688843e-01,8.398257195949554443e-02,-2.983671240508556366e-02,1.227672249078750610e-01,-2.064635744318366051e-03,-6.073314696550369263e-02,-2.102199569344520569e-02,-1.185491010546684265e-01,1.114129722118377686e-01,-4.490086063742637634e-02,-1.300010085105895996e-01,2.523520216345787048e-02,5.836980417370796204e-02,-1.833925396203994751e-01,9.918354451656341553e-02,2.192002236843109131e-01,3.055238910019397736e-02,-8.893319405615329742e-03,1.136031225323677063e-01,6.803047657012939453e-02,1.539430394768714905e-02,4.235879331827163696e-02,2.025754004716873169e-01,-7.054724544286727905e-02,1.793099045753479004e-01,-2.959914691746234894e-02,1.082747131586074829e-01,-6.382649391889572144e-02,-1.707407087087631226e-01,2.217711210250854492e-01,-3.088742867112159729e-02,-1.413767337799072266e-01,-2.823472954332828522e-02,-2.554123103618621826e-01,-2.049750238656997681e-01,7.006235420703887939e-02,-7.693579792976379395e-02,-2.543389797210693359e-01,3.180451691150665283e-01,-1.105863135308027267e-02,8.280377089977264404e-02,6.748037040233612061e-02,4.494897276163101196e-02,2.398297935724258423e-01,1.629659235477447510e-01,1.083013880997896194e-02,1.014671176671981812e-01
-6.458511948585510254e-02,-2.099310979247093201e-02,-1.227095276117324829e-01,1.288057416677474976e-01,-1.119358092546463013e-01,1.434274856001138687e-02,1.379217803478240967e-01,-5.727094784379005432e-02,-1.363402931019663811e-03,1.236415505409240723e-01,-9.300222247838973999e-02,1.808041781187057495e-01,2.421850264072418213e-01,-2.284543961286544800e-02,1.138620525598526001e-01,-1.673506386578083038e-02,-7.909209281206130981e-02,-5.038391798734664917e-02,2.787359952926635742e-01,1.622757315635681152e-01,-1.954091936349868774e-01,-1.932353973388671875e-01,-1.901394873857498169e-01,-1.960751563310623169e-01,1.922667026519775391e-01,1.206906884908676147e-01,-1.093360483646392822e-01,-1.215374469757080078e-01,3.853434696793556213e-02,9.993348270654678345e-02,7.222835440188646317e-03,-1.558817476034164429e-01,3.233533725142478943e-02,1.102849766612052917e-01,9.981495887041091919e-02,1.815361827611923218e-01,1.141115054488182068e-01,-8.009860664606094360e-02,1.903576105833053589e-01,2.333990335464477539e-01,1.580645442008972168e-01,-2.307255119085311890e-01,1.740977615118026733e-01,-4.022083245217800140e-03,-1.247502490878105164e-01,3.968833014369010925e-02,6.753325462341308594e-02,1.736561208963394165e-01,9.046618826687335968e-03,9.792677313089370728e-02,-1.691498309373855591e-01,2.939550951123237610e-02,-2.861167192459106445e-01,-1.897565722465515137e-01,-1.177292317152023315e-01,1.077261473983526230e-02,3.962084650993347168e-02,-2.203489989042282104e-01,-1.309382170438766479e-01,-1.201867833733558655e-01,1.934798061847686768e-01,-2.015095949172973633e-02,-6.215450167655944824e-02,-1.751866787672042847e-01,-2.444003708660602570e-02,-7.005702704191207886e-02,-2.794037759304046631e-02,2.328504621982574463e-01,1.983899995684623718e-02,-2.056098282337188721e-01,-1.830821484327316284e-01,-7.920156419277191162e-02,-2.144913822412490845e-01,-1.186185777187347412e-01,-5.182256549596786499e-02,-3.322051838040351868e-02,-8.665078133344650269e-02,3.656683862209320068e-02,-2.823187708854675293e-01,1.899053342640399933e-02,3.341387584805488586e-02,2.184097915887832642e-01,-2.611043751239776611e-01,-8.734028786420822144e-02,-6.563581526279449463e-02,-1.966706663370132446e-01,8.350171893835067749e-02,3.891471307724714279e-03,-2.347223460674285889e-01,-2.832285761833190918e-01,-1.048771589994430542e-01,-3.024085052311420441e-02,-1.294295191764831543e-01,1.238167658448219299e-01,3.842205181717872620e-02,-3.185997158288955688e-02,-3.712360933423042297e-02,1.946941465139389038e-01,-8.582618832588195801e-02,2.543275244534015656e-02,-3.606134653091430664e-02,-8.271040767431259155e-02,6.697133928537368774e-02,2.266342937946319580e-01,-8.589573204517364502e-02,-9.736342728137969971e-02,1.546682696789503098e-02,4.359609261155128479e-02,-4.426870867609977722e-02,3.408178985118865967e-01,-1.565541140735149384e-03,-1.064569950103759766e-01,9.533392265439033508e-03,3.212010860443115234e-02,-8.276773244142532349e-02,2.143397927284240723e-01,-9.807352721691131592e-02,6.139615178108215332e-02,4.023704305291175842e-02,1.422395110130310059e-01,1.140539348125457764e-01,-6.644312292337417603e-02,-1.349991112947463989e-01,-5.331899970769882202e-02,-1.665704101324081421e-01,5.652192980051040649e-02,-3.221696009859442711e-03,3.448656201362609863e-02,-1.399330794811248779e-01,3.074459731578826904e-01,-2.602227777242660522e-02,-8.360362797975540161e-02,6.712161004543304443e-02,2.181416377425193787e-03,5.059075355529785156e-02,-8.615661412477493286e-02,4.604167491197586060e-02,-6.383579224348068237e-02,-5.462269857525825500e-02,1.265832781791687012e-01,2.191914916038513184e-01,1.315126270055770874e-01,-1.199746951460838318e-01,1.524430811405181885e-01
-9.953054040670394897e-02,8.926430717110633850e-03,1.792421005666255951e-02,-6.584649533033370972e-02,-1.869979128241539001e-02,1.046797558665275574e-01,1.420128196477890015e-01,-6.822758913040161133e-02,-9.154555946588516235e-02,-1.908779740333557129e-01,9.733247011899948120e-02,-1.056501045823097229e-01,-1.430814154446125031e-02,-1.418492794036865234e-01,2.193630635738372803e-01,-8.541725575923919678e-02,-1.106126755475997925e-01,7.435032725334167480e-02,1.280827075242996216e-01,1.090432852506637573e-01,8.977348357439041138e-02,1.791161894798278809e-01,-6.073362007737159729e-02,6.591776013374328613e-02,-2.365568280220031738e-01,2.823270857334136963e-01,3.010061085224151611e-01,-1.197119429707527161e-01,4.821559414267539978e-02,1.587397754192352295e-01,-2.688657641410827637e-01,6.837727129459381104e-02,-7.983347401022911072e-03,-2.302376031875610352e-01,-1.597263962030410767e-01,1.207572221755981445e-01,6.749729812145233154e-02,-3.775928169488906860e-02,4.772677551954984665e-03,1.254688799381256104e-01,-1.674336791038513184e-01,-5.690194666385650635e-02,3.318058252334594727e-01,-3.823390603065490723e-02,3.130692616105079651e-02,7.317973673343658447e-02,1.671160459518432617e-01,2.625976875424385071e-02,-2.097495198249816895e-01,5.047080293297767639e-02,2.573901042342185974e-02,-3.812621906399726868e-02,-5.722144152969121933e-03,-1.633414179086685181e-01,-3.342128992080688477e-01,-2.077468931674957275e-01,-3.676248490810394287e-01,-1.978510618209838867e-01,-2.598405480384826660e-01,-5.385654792189598083e-02,-1.733948737382888794e-01,-2.169302552938461304e-01,-7.024980336427688599e-02,-4.106498509645462036e-02,-7.568425685167312622e-02,-1.075838282704353333e-01,1.147805377840995789e-01,2.152729406952857971e-02,6.629931181669235229e-02,-1.200668606907129288e-02,2.035777419805526733e-01,-2.022466957569122314e-01,1.376445889472961426e-01,1.343066990375518799e-01,-1.527342796325683594e-01,1.285025775432586670e-01,6.170213222503662109e-02,-1.755124479532241821e-01,-2.583990991115570068e-01,-3.077314496040344238e-01,-4.018016159534454346e-02,2.195454239845275879e-01,-1.860247701406478882e-01,6.505122408270835876e-03,-1.719865016639232635e-02,-1.355726420879364014e-01,-2.430413290858268738e-02,-1.670869141817092896e-01,-2.450813651084899902e-01,1.290616244077682495e-01,1.789196878671646118e-01,-3.731099888682365417e-02,1.775735318660736084e-01,1.327112615108489990e-01,3.537947311997413635e-02,-1.539561450481414795e-01,-6.557112187147140503e-02,-1.658056229352951050e-01,-1.363496389240026474e-02,6.234519556164741516e-02,-5.348862707614898682e-02,1.680300384759902954e-02,1.547701358795166016e-01,1.303581446409225464e-01,-1.876346766948699951e-01,3.558632433414459229e-01,-3.332221880555152893e-02,-2.251832783222198486e-01,-6.304559111595153809e-02,9.903865307569503784e-02,1.742261201143264771e-01,-1.805423200130462646e-01,-2.009861022233963013e-01,-5.547077581286430359e-02,-5.805052071809768677e-02,-4.833904281258583069e-02,5.111378151923418045e-03,2.136778831481933594e-01,1.655673235654830933e-01,-3.435674309730529785e-02,-1.384853422641754150e-01,1.427398771047592163e-01,-1.414762586355209351e-01,-4.918066412210464478e-02,-2.580415010452270508e-01,-1.243545934557914734e-01,8.546590805053710938e-02,2.263895720243453979e-01,2.012371122837066650e-01,1.496309041976928711e-01,-5.756774917244911194e-02,-4.257813468575477600e-02,-1.851533651351928711e-01,2.214606255292892456e-01,-2.303627729415893555e-01,5.642678216099739075e-02,-1.286685466766357422e-01,-8.578836172819137573e-02,1.223682910203933716e-01,-6.006952375173568726e-02,-1.435341089963912964e-01,-2.375533133745193481e-01,-8.106738328933715820e-02,-2.286449074745178223e-02
-2.217172645032405853e-02,-8.715584129095077515e-02,-1.024089679121971130e-01,9.228441119194030762e-02,-1.181384921073913574e-01,-1.517186909914016724e-01,-2.390669882297515869e-01,-3.962664604187011719e-01,-3.835074901580810547e-01,-7.761488109827041626e-02,8.392753452062606812e-02,-2.091152817010879517e-01,3.101902902126312256e-01,9.163299575448036194e-03,2.617481648921966553e-01,-2.501566335558891296e-02,1.492502242326736450e-01,1.365671902894973755e-01,-2.287480682134628296e-01,1.428809314966201782e-01,2.196346670389175415e-01,1.448056846857070923e-01,1.023947894573211670e-01,2.025891244411468506e-01,2.565784156322479248e-01,2.125330567359924316e-01,5.946407467126846313e-02,-6.854699552059173584e-02,-2.416039854288101196e-01,-1.071525178849697113e-02,-9.118832647800445557e-03,8.503372967243194580e-02,1.050165668129920959e-01,1.066127326339483261e-02,4.187029972672462463e-02,1.945049911737442017e-01,3.822768852114677429e-02,-8.836214244365692139e-02,-7.496567070484161377e-02,1.362443417310714722e-01,1.148393154144287109e-01,1.814527809619903564e-01,-3.162466287612915039e-01,-1.789295226335525513e-01,-1.408926956355571747e-02,1.026904135942459106e-01,1.730947941541671753e-01,1.911720931529998779e-01,1.414407193660736084e-01,-1.827270388603210449e-01,-8.266206830739974976e-02,-2.256641238927841187e-01,4.538314789533615112e-02,-3.108718991279602051e-01,-2.626068592071533203e-01,-1.205898821353912354e-01,3.181678429245948792e-02,-5.783780291676521301e-02,-1.098298430442810059e-01,-1.485732495784759521e-01,-3.405194282531738281e-01,-3.661726117134094238e-01,-1.247429661452770233e-02,1.881443262100219727e-01,-1.999651491641998291e-01,-1.052449569106101990e-01,-1.291052848100662231e-01,1.005290448665618896e-02,2.377358227968215942e-01,-6.190834566950798035e-02,1.101199686527252197e-01,1.568247675895690918e-01,3.684071898460388184e-01,-7.442494481801986694e-02,2.112190239131450653e-02,2.627454102039337158e-01,-7.754768431186676025e-02,-1.439610868692398071e-01,3.093686699867248535e-02,-1.813848018646240234e-01,-6.491558253765106201e-02,1.938207149505615234e-01,-2.027011513710021973e-01,2.510191500186920166e-01,-1.313692331314086914e-01,-6.494237482547760010e-02,2.850219309329986572e-01,-8.777766674757003784e-02,-1.324938237667083740e-01,1.238247826695442200e-01,-1.216066181659698486e-01,2.923530712723731995e-02,-1.167284026741981506e-01,1.707137376070022583e-01,6.082647666335105896e-02,-4.362766444683074951e-02,3.476475551724433899e-02,-3.512094318866729736e-01,-2.059393376111984253e-01,-1.297315210103988647e-01,-9.512441605329513550e-02,-1.157643347978591919e-01,2.933018654584884644e-02,5.296132341027259827e-02,-6.574098020792007446e-02,-3.685400187969207764e-01,-2.681746482849121094e-01,6.641443073749542236e-02,-6.090369075536727905e-02,-3.176407888531684875e-02,4.651267081499099731e-02,-7.651899755001068115e-02,1.541784703731536865e-01,-2.108496576547622681e-01,-8.220591396093368530e-02,-1.811063289642333984e-01,-1.581417471170425415e-01,-3.727219253778457642e-02,-1.441728025674819946e-01,3.703738376498222351e-02,-1.125760301947593689e-01,-9.131057187914848328e-03,-1.598376333713531494e-01,-3.133323192596435547e-01,-2.258038371801376343e-01,-4.334690980613231659e-03,-1.177823916077613831e-01,1.578458398580551147e-02,-2.956048846244812012e-01,1.283988952636718750e-01,7.924603670835494995e-02,2.340932637453079224e-01,1.276411563158035278e-01,1.350511610507965088e-01,1.025443226099014282e-01,3.799318373203277588e-01,2.576392590999603271e-01,1.674287617206573486e-01,-5.448939278721809387e-02,-1.788156293332576752e-02,2.419559061527252197e-01,8.000753074884414673e-02,2.877672016620635986e-02,-2.395422458648681641e-01
-1.910866051912307739e-01,-1.088434159755706787e-01,-1.453546136617660522e-01,1.258459836244583130e-01,2.153148353099822998e-01,3.499807417392730713e-02,-1.517380326986312866e-01,-3.244364401325583458e-03,1.918094307184219360e-01,-5.643208324909210205e-02,-9.238860756158828735e-02,1.025945991277694702e-01,9.905181825160980225e-03,1.332394406199455261e-02,-6.355605274438858032e-02,-1.381874084472656250e-01,1.317997276782989502e-01,1.052642613649368286e-01,-8.073838800191879272e-02,1.052235141396522522e-01,-2.461621724069118500e-02,-5.491794645786285400e-02,4.968092218041419983e-02,1.215534135699272156e-01,-4.997584223747253418e-02,1.042663976550102234e-01,-8.915904909372329712e-02,5.114709492772817612e-04,-5.404374003410339355e-02,7.068504393100738525e-02,2.007512748241424561e-01,-1.756672114133834839e-01,-2.544561773538589478e-02,5.249806866049766541e-02,-6.657212227582931519e-02,-1.899555176496505737e-01,-1.010154858231544495e-01,9.204050153493881226e-02,-1.191935837268829346e-01,1.126497611403465271e-01,9.843175113201141357e-02,1.269142776727676392e-01,1.068093627691268921e-01,-4.492437466979026794e-02,9.178755432367324829e-02,-9.643094986677169800e-02,-1.613006740808486938e-01,4.592923074960708618e-02,7.851474732160568237e-02,-3.724303562194108963e-03,-1.006103679537773132e-01,-5.294591933488845825e-02,3.286374732851982117e-02,1.515592932701110840e-01,9.956093132495880127e-02,-1.041555255651473999e-01,-1.197486370801925659e-01,6.422559171915054321e-02,-1.065618321299552917e-01,-6.336638703942298889e-03,2.443253844976425171e-01,-3.133757039904594421e-02,2.895234152674674988e-02,1.364022940397262573e-01,-1.994263231754302979e-01,-1.663597375154495239e-01,-1.491139531135559082e-01,-1.570409238338470459e-01,6.209032144397497177e-04,-2.817871421575546265e-02,3.271586447954177856e-02,1.610353589057922363e-02,-1.025431603193283081e-01,1.352453231811523438e-01,2.247515469789505005e-01,7.056425511837005615e-02,-1.650858204811811447e-03,-1.712020188570022583e-01,8.584449440240859985e-02,-3.689497709274291992e-02,-1.527976710349321365e-02,-1.258695125579833984e-02,2.050486952066421509e-01,4.698828607797622681e-02,2.810740470886230469e-01,1.426804083166643977e-04,-2.036722749471664429e-01,2.222969979047775269e-01,-1.020036637783050537e-01,-1.654936671257019043e-01,5.464755930006504059e-03,-7.170957326889038086e-02,3.618251904845237732e-02,-1.147477179765701294e-01,-2.173617035150527954e-01,1.687738448381423950e-01,8.613554388284683228e-02,4.942045733332633972e-02,-3.726194053888320923e-02,2.210156619548797607e-01,3.154345229268074036e-02,-1.429127901792526245e-01,2.058294415473937988e-01,1.694580018520355225e-01,-1.245699748396873474e-01,1.136178374290466309e-01,-4.676712676882743835e-02,-7.074812054634094238e-02,1.532422006130218506e-01,-2.519820630550384521e-01,3.280874714255332947e-02,1.791015565395355225e-01,-1.185612976551055908e-01,6.104123964905738831e-02,-5.133542232215404510e-03,-2.455510199069976807e-01,-7.305210828781127930e-02,-2.548979222774505615e-02,-7.426168769598007202e-02,-1.160200014710426331e-01,1.567794829607009888e-01,1.963750272989273071e-01,1.512736380100250244e-01,-1.195531636476516724e-01,1.131814569234848022e-01,3.368987143039703369e-02,4.553399980068206787e-02,8.526930585503578186e-03,1.548048108816146851e-01,7.300916127860546112e-03,-1.112241372466087341e-01,-3.924892097711563110e-02,7.937680184841156006e-02,1.276979409158229828e-02,5.993468686938285828e-03,7.988198846578598022e-02,-4.688864201307296753e-02,2.880428731441497803e-02,1.205608993768692017e-01,-4.686696920543909073e-03,-6.006033346056938171e-02,9.705083817243576050e-02,9.361791610717773438e-02,7.885718345642089844e-02
3.320390582084655762e-01,-2.488732337951660156e-01,3.120696544647216797e-02,3.370397910475730896e-02,7.372844219207763672e-02,6.278510391712188721e-02,2.927466928958892822e-01,-5.100376904010772705e-02,-6.882452219724655151e-02,-6.821709126234054565e-02,-5.047639459371566772e-02,-1.385689973831176758e-01,-5.453975126147270203e-02,8.204016089439392090e-02,-1.140167564153671265e-01,-1.962282955646514893e-01,-2.034351229667663574e-01,6.297720130532979965e-03,1.251107007265090942e-01,1.095468923449516296e-02,1.586493998765945435e-01,1.122282221913337708e-01,-3.899160400032997131e-02,6.705252081155776978e-02,4.610627517104148865e-02,1.684217602014541626e-01,-6.185649707913398743e-02,-1.741802096366882324e-01,1.070896759629249573e-01,7.240529358386993408e-02,8.747027069330215454e-02,-1.238492056727409363e-01,1.114066764712333679e-01,-6.192691624164581299e-02,4.928525537252426147e-02,5.462367832660675049e-02,1.813329756259918213e-02,1.396812349557876587e-01,4.874975234270095825e-02,-5.974572896957397461e-02,6.600460410118103027e-02,-3.150832951068878174e-01,2.702548801898956299e-01,-4.897532612085342407e-02,1.690977439284324646e-02,-2.901663780212402344e-01,-7.030290365219116211e-02,1.786133348941802979e-01,-2.881955504417419434e-01,1.087431907653808594e-01,2.783520817756652832e-01,-1.241968721151351929e-01,1.376593112945556641e-01,5.237652361392974854e-02,1.414851378649473190e-02,-2.766151446849107742e-03,-3.081348538398742676e-01,2.402532612904906273e-03,8.370154350996017456e-02,1.369704157114028931e-01,1.509141474962234497e-01,-4.892283678054809570e-02,-2.628921270370483398e-01,1.340732872486114502e-01,1.307675689458847046e-01,7.318896055221557617e-02,1.584040187299251556e-02,-1.616342365741729736e-01,-5.228963494300842285e-02,5.487494170665740967e-03,4.360295832157135010e-02,1.831061393022537231e-01,1.788702011108398438e-01,-8.848714083433151245e-02,1.125821396708488464e-01,-9.437727183103561401e-02,-4.562196787446737289e-03,-1.685713529586791992e-01,8.175493776798248291e-02,-7.885609567165374756e-02,-1.543000489473342896e-01,-2.167535722255706787e-01,-1.943034082651138306e-01,4.434631764888763428e-02,-2.084629237651824951e-02,5.037598684430122375e-02,-1.062211617827415466e-01,4.504531249403953552e-02,4.468202963471412659e-02,-1.060125902295112610e-01,-1.714061647653579712e-01,-3.185192868113517761e-02,1.547764241695404053e-01,-1.181031763553619385e-02,-6.395069509744644165e-02,4.073255229741334915e-03,1.051435917615890503e-01,-2.236229032278060913e-01,2.614038586616516113e-01,1.627888232469558716e-01,-1.813365817070007324e-01,1.616030186414718628e-01,5.715295299887657166e-02,-3.291845321655273438e-02,-1.925615034997463226e-02,3.488060086965560913e-02,-1.259130090475082397e-01,6.036533042788505554e-03,1.677078008651733398e-02,-2.523516714572906494e-01,6.720270961523056030e-02,-3.648481890559196472e-02,-1.314469724893569946e-01,-1.562184095382690430e-01,-2.454487681388854980e-01,-1.048040017485618591e-01,-8.079298585653305054e-02,-2.362098731100559235e-02,6.847353279590606689e-02,8.859656006097793579e-02,-1.304524093866348267e-01,1.946069598197937012e-01,2.143868990242481232e-02,-1.932070404291152954e-01,1.143643446266651154e-02,1.912750452756881714e-01,9.263466298580169678e-02,-8.138615638017654419e-02,-4.974759742617607117e-02,1.999168284237384796e-02,-9.270346909761428833e-02,-1.920739375054836273e-02,1.248479709029197693e-01,-2.066501975059509277e-02,6.825993955135345459e-02,-6.166477128863334656e-02,-1.609587669372558594e-01,-9.256526827812194824e-02,1.224631965160369873e-01,-2.997658848762512207e-01,3.268700465559959412e-02,4.148890729993581772e-03,-3.115911781787872314e-01,-1.846873201429843903e-02
-1.886191815137863159e-01,1.061257645487785339e-01,1.006418000906705856e-02,1.971520036458969116e-01,-1.004030257463455200e-01,1.182539984583854675e-01,-1.241028159856796265e-01,-1.569549292325973511e-01,-5.315098911523818970e-02,-1.896304450929164886e-02,1.784471720457077026e-01,3.400833159685134888e-02,-1.060685962438583374e-01,-2.908772602677345276e-02,-1.810545325279235840e-01,1.492154002189636230e-01,-8.474120404571294785e-04,3.387614712119102478e-02,5.508201569318771362e-02,-6.596432626247406006e-02,-9.959743171930313110e-02,-1.559685617685317993e-01,2.570316009223461151e-02,7.393922191113233566e-03,-7.397351413965225220e-02,1.528666168451309204e-01,3.877780213952064514e-02,8.241792023181915283e-02,-1.646691262722015381e-01,-4.006077721714973450e-02,-4.454224184155464172e-02,-1.348223686218261719e-01,5.093204975128173828e-02,5.726617202162742615e-02,-6.867988407611846924e-02,-1.053825244307518005e-01,-1.773293763399124146e-01,1.895120553672313690e-02,-9.259559959173202515e-02,-5.486274510622024536e-02,-1.372160166501998901e-01,2.065698616206645966e-02,4.268104955554008484e-02,6.531704217195510864e-02,-6.396440416574478149e-02,2.070267051458358765e-01,-5.524093285202980042e-03,1.438502129167318344e-02,-2.609972953796386719e-01,-9.989911317825317383e-02,1.358293145895004272e-01,-1.648676991462707520e-01,-1.316206604242324829e-01,-5.736462771892547607e-02,-2.049119174480438232e-01,1.497253924608230591e-01,4.917990416288375854e-02,-1.150218844413757324e-01,-9.382570534944534302e-02,-5.009581800550222397e-03,-3.469127789139747620e-02,1.369591802358627319e-01,1.325885057449340820e-01,1.514182537794113159e-01,1.695797592401504517e-01,-1.868344377726316452e-03,-3.252715989947319031e-02,1.616469770669937134e-01,8.114835619926452637e-02,-2.704485692083835602e-02,1.947475075721740723e-01,2.403625696897506714e-01,1.243050023913383484e-02,-5.153540149331092834e-02,-2.381512522697448730e-02,3.555700182914733887e-02,1.013150066137313843e-01,5.497353151440620422e-02,-3.265547007322311401e-02,1.400411725044250488e-01,-1.453487724065780640e-01,2.181166261434555054e-01,-3.714596107602119446e-02,2.885617082938551903e-03,-9.538620710372924805e-02,-1.739864647388458252e-01,-9.782761335372924805e-02,-6.907012313604354858e-02,8.762731403112411499e-02,-2.550421953201293945e-01,5.451570078730583191e-02,1.212021484971046448e-01,-1.437016725540161133e-01,-1.530805975198745728e-01,1.908618025481700897e-02,6.416787952184677124e-02,-3.447651490569114685e-02,3.467829152941703796e-02,1.878608763217926025e-01,4.555932432413101196e-02,1.687947660684585571e-01,3.787196241319179535e-03,1.223315894603729248e-01,-3.272437304258346558e-02,-6.233661249279975891e-02,-4.292626678943634033e-02,-2.808490097522735596e-01,-6.365334987640380859e-02,-6.486613303422927856e-02,-9.236062318086624146e-02,5.078795365989208221e-03,1.718334853649139404e-01,2.874361909925937653e-02,-1.322314143180847168e-01,1.639070063829421997e-01,-1.701079867780208588e-02,5.341141298413276672e-02,-8.467151969671249390e-02,3.516995906829833984e-02,-5.552847310900688171e-02,1.643559038639068604e-01,-6.216758862137794495e-02,4.364785179495811462e-02,-2.784990146756172180e-02,-1.939495652914047241e-02,5.852448940277099609e-02,2.185245007276535034e-01,-1.003883928060531616e-01,1.806320399045944214e-01,1.145172268152236938e-01,-3.120998851954936981e-02,-3.071457706391811371e-02,-6.906232982873916626e-02,-5.410701408982276917e-02,-9.429540485143661499e-02,1.271700710058212280e-01,4.654025658965110779e-02,9.302736073732376099e-02,1.181270778179168701e-01,1.734805405139923096e-01,1.665405482053756714e-01,2.556458413600921631e-01,-9.665881097316741943e-02,1.896230131387710571e-01
1.539386957883834839e-01,-9.306289255619049072e-02,8.715279400348663330e-03,2.067454308271408081e-01,1.051067560911178589e-01,-2.346481382846832275e-01,6.873328238725662231e-03,-1.404985040426254272e-01,-8.451883494853973389e-02,-1.468069553375244141e-01,-1.065029278397560120e-01,8.778540417551994324e-03,1.209349632263183594e-01,-2.469294937327504158e-03,2.270086109638214111e-02,-2.498219907283782959e-02,3.054653108119964600e-01,-9.249602444469928741e-03,9.611247479915618896e-02,7.031200081110000610e-02,-1.647370010614395142e-01,-2.253827825188636780e-02,-1.985017657279968262e-01,-5.851325765252113342e-02,-1.616630405187606812e-01,4.224999994039535522e-02,-1.386678367853164673e-01,1.625524014234542847e-01,1.424327641725540161e-01,2.984974719583988190e-02,-1.446814090013504028e-01,2.602548301219940186e-01,-2.889737188816070557e-01,1.324654072523117065e-01,2.945042960345745087e-02,-5.157667770981788635e-02,1.023618951439857483e-01,3.447065502405166626e-02,-1.324770599603652954e-01,1.369895227253437042e-02,-8.420621044933795929e-03,-1.083756089210510254e-01,1.857041269540786743e-01,-6.895651575177907944e-03,-2.298343926668167114e-01,2.971729636192321777e-02,-5.091761797666549683e-02,2.787783443927764893e-01,-2.073213011026382446e-01,7.508569210767745972e-02,2.596995830535888672e-01,-3.118316233158111572e-01,-1.099825426936149597e-01,2.255623638629913330e-01,-1.911779344081878662e-01,-1.776496022939682007e-01,1.993910409510135651e-02,-1.646423637866973877e-01,-1.914723664522171021e-01,-2.112205773591995239e-01,-8.782090991735458374e-02,-2.836108207702636719e-01,-1.286667436361312866e-01,-4.556570574641227722e-02,-2.691301703453063965e-02,-1.846610940992832184e-02,2.177706956863403320e-01,1.666201502084732056e-01,4.941309988498687744e-02,4.751713015139102936e-03,-8.696029335260391235e-02,1.297149620950222015e-02,1.002917438745498657e-01,2.448153048753738403e-01,2.626769430935382843e-02,2.580170333385467529e-01,-1.895823180675506592e-01,-2.166070044040679932e-01,1.989519037306308746e-02,9.343577176332473755e-02,1.546567976474761963e-01,-1.074240878224372864e-01,-1.874472573399543762e-02,9.159761667251586914e-02,-2.142988890409469604e-01,1.428697705268859863e-01,1.623753756284713745e-01,-5.916577205061912537e-02,3.384387120604515076e-02,2.494321670383214951e-03,-2.852230668067932129e-01,1.468884479254484177e-02,3.927129507064819336e-02,1.338069140911102295e-01,-1.488713175058364868e-01,2.568192183971405029e-01,-2.307481877505779266e-02,2.029940485954284668e-02,2.897926568984985352e-01,-1.433901190757751465e-01,1.254515200853347778e-01,5.796541273593902588e-02,2.148938030004501343e-01,-4.032322391867637634e-02,-1.204075366258621216e-01,-4.046678543090820312e-02,-1.507703959941864014e-01,-1.114097312092781067e-01,-1.501383781433105469e-01,7.111585885286331177e-02,-7.302048616111278534e-03,9.956318885087966919e-02,-1.168645545840263367e-01,-2.245316058397293091e-01,3.576097264885902405e-02,1.667572408914566040e-01,9.423764050006866455e-02,-1.477555632591247559e-01,1.191529352217912674e-02,-6.037773936986923218e-02,-1.819151192903518677e-01,7.902991771697998047e-02,1.254721134901046753e-01,1.340164840221405029e-01,-3.598868474364280701e-02,1.255398243665695190e-01,-9.319489472545683384e-04,-8.889577537775039673e-02,-1.546788364648818970e-01,-2.402998208999633789e-01,1.766213625669479370e-01,-1.841826736927032471e-01,-1.126648858189582825e-01,9.905677288770675659e-02,-7.279546931385993958e-03,4.599308222532272339e-02,1.159020885825157166e-02,1.662771701812744141e-01,2.857532501220703125e-01,1.091046407818794250e-01,2.392129749059677124e-01,6.270863115787506104e-02,-2.564178546890616417e-03,1.344252470880746841e-02
1.949154585599899292e-01,1.098403483629226685e-01,3.529608994722366333e-02,5.580978840589523315e-02,1.896945643238723278e-03,7.722824811935424805e-02,-1.025826111435890198e-01,-1.874046921730041504e-01,-6.842483580112457275e-02,1.959348656237125397e-02,-3.830631077289581299e-02,7.549840956926345825e-02,-8.900757133960723877e-02,1.943788230419158936e-01,1.184310838580131531e-01,-2.735406160354614258e-02,8.354202657938003540e-02,-1.539865881204605103e-01,-1.120041590183973312e-02,1.933901309967041016e-01,-1.026142463088035583e-01,-6.466817855834960938e-02,1.661732941865921021e-01,1.059916019439697266e-01,-7.813653349876403809e-02,7.461181282997131348e-02,1.224608439952135086e-02,-5.979998409748077393e-02,-1.201161965727806091e-01,1.671809107065200806e-01,4.437102004885673523e-03,-2.570872902870178223e-01,-2.802191860973834991e-02,8.719982206821441650e-02,3.292640205472707748e-03,1.796093732118606567e-01,1.134918853640556335e-01,2.050686031579971313e-01,1.699261218309402466e-01,8.869788050651550293e-02,5.124798975884914398e-03,-1.939324736595153809e-01,2.173580676317214966e-01,2.451333962380886078e-02,-2.817965857684612274e-02,-1.135907135903835297e-02,5.179868638515472412e-02,1.049801856279373169e-01,-1.274668611586093903e-02,-1.303452998399734497e-01,-3.055058233439922333e-02,-1.592658460140228271e-01,1.011280193924903870e-01,-1.589459478855133057e-01,2.957451045513153076e-01,-3.769608214497566223e-02,3.061559796333312988e-01,-1.005777493119239807e-01,-2.487637847661972046e-01,-2.070811390876770020e-01,-6.461236625909805298e-02,-2.401876896619796753e-01,-8.856817334890365601e-02,1.776765286922454834e-01,4.020250588655471802e-02,-4.112230986356735229e-02,-1.417075842618942261e-01,6.426033098250627518e-03,-1.117745935916900635e-01,1.348028779029846191e-01,-7.933051139116287231e-02,1.736507862806320190e-01,2.996057644486427307e-02,8.495929837226867676e-02,-1.249461174011230469e-01,5.698087159544229507e-03,1.381962895393371582e-01,7.526674866676330566e-02,1.840741373598575592e-02,-1.228927001357078552e-01,2.326215356588363647e-01,-1.476229131221771240e-01,2.193065732717514038e-02,-2.295967787504196167e-01,-9.012026339769363403e-02,-1.897745579481124878e-02,-1.802832931280136108e-01,8.875453472137451172e-02,7.129082083702087402e-02,1.805790066719055176e-01,-1.878257840871810913e-01,-4.365186765789985657e-02,-1.583641767501831055e-01,-1.434282958507537842e-01,-6.323933601379394531e-03,-1.967082023620605469e-01,-3.295195475220680237e-02,-5.849466100335121155e-02,6.181886792182922363e-02,-2.598010301589965820e-01,-1.341751515865325928e-01,2.936348319053649902e-03,1.016018018126487732e-01,-5.416380614042282104e-02,5.367764458060264587e-02,-8.192559331655502319e-02,6.902644783258438110e-02,6.870461255311965942e-02,-1.044388413429260254e-01,-1.664207875728607178e-01,-2.002772390842437744e-01,-1.158586665987968445e-01,1.047542467713356018e-01,-3.187267342582345009e-03,1.379639725200831890e-03,-9.544046968221664429e-02,1.082262955605983734e-02,-9.589449316263198853e-02,7.722510490566492081e-03,-4.694549716077744961e-04,5.625022202730178833e-02,-1.478746533393859863e-01,1.549169123172760010e-01,-7.876113057136535645e-02,-1.600095629692077637e-01,6.668560951948165894e-02,1.094657275825738907e-02,-1.244370942004024982e-03,-1.309595704078674316e-01,8.461791276931762695e-02,-1.720790117979049683e-01,1.178237497806549072e-01,-1.435625459998846054e-02,-1.530415713787078857e-01,-4.206669703125953674e-02,3.592027723789215088e-01,7.545552216470241547e-03,-1.933510899543762207e-01,6.713764369487762451e-02,-5.572366341948509216e-02,2.568971216678619385e-01,1.678100228309631348e-01,1.194970533251762390e-01,-1.149256452918052673e-01
4.782108217477798462e-02,-9.425538778305053711e-02,4.212009254842996597e-03,9.204357117414474487e-02,1.412510126829147339e-01,1.192616522312164307e-01,-2.230113558471202850e-02,1.022208109498023987e-01,1.161587536334991455e-01,5.416114814579486847e-03,2.440364509820938110e-01,1.039942651987075806e-01,1.740761473774909973e-02,3.008202463388442993e-02,-1.316855549812316895e-01,1.007381826639175415e-01,-2.612591087818145752e-01,-7.548795640468597412e-02,9.297960251569747925e-02,-6.811473518610000610e-02,1.326602548360824585e-01,1.750666052103042603e-01,-1.536228209733963013e-01,1.204696148633956909e-01,3.093119859695434570e-01,-1.911141574382781982e-01,-3.214657679200172424e-02,2.148693352937698364e-01,1.134402379393577576e-01,9.375742077827453613e-02,3.877360746264457703e-02,8.593535423278808594e-02,-5.167569592595100403e-02,-1.864764094352722168e-01,-1.894167214632034302e-01,-1.361823976039886475e-01,1.424486166797578335e-03,2.257266640663146973e-01,1.269566118717193604e-01,-1.404513567686080933e-01,-7.186970859766006470e-02,2.507361583411693573e-02,-1.265410333871841431e-01,-1.245096400380134583e-01,-1.356019526720046997e-01,-3.728177770972251892e-02,6.551155447959899902e-02,-5.620391294360160828e-02,5.415022000670433044e-02,8.222183585166931152e-02,2.337997108697891235e-01,2.314315736293792725e-02,-8.153733611106872559e-02,-2.192953377962112427e-01,2.622603774070739746e-01,1.599263697862625122e-01,2.136267349123954773e-02,1.881723105907440186e-02,2.751455307006835938e-01,2.391776889562606812e-01,-1.884063333272933960e-01,5.935235414654016495e-03,1.330418586730957031e-01,7.448102533817291260e-02,9.196378290653228760e-02,-3.211179748177528381e-02,-2.588197588920593262e-02,3.380497545003890991e-02,-1.309098601341247559e-01,3.011846169829368591e-02,-2.252161353826522827e-01,-1.919564455747604370e-01,-2.380022108554840088e-01,1.836448758840560913e-01,1.668095141649246216e-01,4.070663708262145519e-04,9.720392525196075439e-02,-2.684877626597881317e-02,-1.189996767789125443e-02,-6.887950003147125244e-02,-1.094185560941696167e-01,-2.504833638668060303e-01,1.629872173070907593e-01,5.257051438093185425e-02,-3.325448185205459595e-02,-4.872436448931694031e-02,1.126517206430435181e-01,-1.801075935363769531e-01,-4.910412244498729706e-03,1.097333058714866638e-01,-9.197154641151428223e-02,1.390674412250518799e-01,9.304406121373176575e-04,5.937511101365089417e-02,-5.125440657138824463e-02,-2.338914200663566589e-02,-2.747525870800018311e-01,-1.892836242914199829e-01,-1.521597802639007568e-01,1.631687432527542114e-01,-7.508239243179559708e-03,1.545926090329885483e-03,-9.569843858480453491e-02,6.925117224454879761e-02,7.998760789632797241e-02,-2.329333126544952393e-01,6.767970323562622070e-02,1.635565981268882751e-02,-1.752382963895797729e-01,9.869114309549331665e-02,-1.392128616571426392e-01,-1.650887578725814819e-01,4.706484824419021606e-02,-8.842811733484268188e-02,8.769247680902481079e-02,-1.589835733175277710e-01,9.589470177888870239e-02,1.278117112815380096e-02,-1.053798720240592957e-01,-1.405998319387435913e-01,1.197450049221515656e-02,6.310656666755676270e-02,-6.334685534238815308e-02,-1.438687592744827271e-01,1.559567898511886597e-01,-5.084514990448951721e-02,-1.360865384340286255e-01,-7.226139307022094727e-02,3.831635415554046631e-02,3.706505149602890015e-02,2.393575012683868408e-01,1.438522189855575562e-01,-1.556876748800277710e-01,1.655177325010299683e-01,1.052068173885345459e-01,5.605160072445869446e-02,-1.448294818401336670e-01,2.789915539324283600e-02,1.502940803766250610e-01,-2.089004516601562500e-01,-1.897054910659790039e-01,-2.221638113260269165e-01,-8.876870572566986084e-02,-2.331747710704803467e-01
