-3.236896172165870667e-02,-6.792301684617996216e-02,1.132572162896394730e-02,7.064285129308700562e-02,6.572961062192916870e-02,-3.343516215682029724e-02,-7.449183613061904907e-02,3.365595638751983643e-02,-1.515443716198205948e-02,2.802559919655323029e-02,4.890491068363189697e-02,1.357108470983803272e-03,-4.814838618040084839e-02,-5.442336201667785645e-02,-7.681126147508621216e-02,4.758808761835098267e-02,3.596501424908638000e-02,2.091728150844573975e-02,9.849380701780319214e-03,-3.052078653126955032e-03,-6.270051002502441406e-02,-2.174935117363929749e-02,-7.747811079025268555e-02,-1.153286844491958618e-01,-3.548220172524452209e-02,8.381241559982299805e-02,1.092953234910964966e-02,1.102753058075904846e-01,-5.272820219397544861e-02,1.505605410784482956e-02,-6.441756337881088257e-02,-1.825983449816703796e-02,1.171110197901725769e-02,9.406538307666778564e-02,-1.473874449729919434e-01,3.450753167271614075e-03,1.425731033086776733e-01,1.094905287027359009e-01,4.166046157479286194e-02,-1.563080586493015289e-02,-5.355183500796556473e-03,1.164971962571144104e-01,2.983301691710948944e-02,7.324495911598205566e-02,5.164322629570960999e-02,-5.180056020617485046e-02,-2.972069382667541504e-02,4.196088761091232300e-02,5.783277377486228943e-02,2.496095374226570129e-02,5.000035162083804607e-04,-7.518352568149566650e-02,7.348828762769699097e-02,5.068788304924964905e-02,3.437972441315650940e-02,3.660328313708305359e-02,8.248671889305114746e-02,-4.069011658430099487e-02,2.743070758879184723e-02,1.829406991600990295e-02,-7.805377990007400513e-02,-8.650516718626022339e-02,-8.339386433362960815e-02,-1.508939713239669800e-01
