-8.031598478555679321e-02,1.818851977586746216e-01,-5.455805454403162003e-03,-2.074797749519348145e-01,-7.919812202453613281e-02,-1.034529283642768860e-01,-1.107565686106681824e-01,-1.083586961030960083e-01,-8.952215313911437988e-02,-2.906991913914680481e-02,1.905007064342498779e-01,2.504561245441436768e-01,-1.739412248134613037e-01,-2.319488488137722015e-02,-2.558856271207332611e-02,1.081391200423240662e-01,6.066878512501716614e-02,1.819032058119773865e-02,-9.868088364601135254e-02,-3.667711094021797180e-02,-6.466867774724960327e-02,-5.037810653448104858e-02,1.262403279542922974e-01,-9.332134388387203217e-03,-1.068326085805892944e-01,-1.167375221848487854e-01,1.930446131154894829e-03,-5.887341871857643127e-02,-3.872277587652206421e-02,2.352020591497421265e-01,1.352182477712631226e-01,5.877372249960899353e-02,1.251274645328521729e-01,2.695518136024475098e-01,1.536490768194198608e-02,-8.463228493928909302e-02,2.828698977828025818e-02,-6.986617296934127808e-02,1.778749749064445496e-02,4.073682799935340881e-02,-6.627180427312850952e-02,-5.564153939485549927e-02,-1.279989928007125854e-01,3.295496851205825806e-02,5.314443632960319519e-02,4.298534616827964783e-02,-3.333256021142005920e-02,1.442089676856994629e-01,-7.710482925176620483e-02,1.498694270849227905e-01,9.385915845632553101e-02,1.140057966113090515e-01,9.964530169963836670e-02,1.044692918658256531e-01,5.493848025798797607e-02,-3.728931769728660583e-02,3.508182615041732788e-02,-8.122417330741882324e-02,-1.233325675129890442e-01,-1.622646860778331757e-02,-1.568242609500885010e-01,3.206607699394226074e-02,1.049863100051879883e-01,5.889537185430526733e-02,-5.240021646022796631e-02,-9.063044190406799316e-02,1.272830665111541748e-01,-2.070910632610321045e-01,5.727435648441314697e-02,-1.647147536277770996e-01,-1.995084993541240692e-02,4.778891429305076599e-02,2.555865645408630371e-01,-1.368902623653411865e-01,3.409738093614578247e-02,2.414016723632812500e-01,9.004930406808853149e-02,1.045487821102142334e-01,9.589533507823944092e-02,1.061470955610275269e-01,-3.227399289608001709e-02,1.906421482563018799e-01,6.164290010929107666e-02,5.030684918165206909e-02,1.136306971311569214e-01,1.149132102727890015e-01,1.152163594961166382e-01,-5.760711058974266052e-02,3.324176743626594543e-02,2.061220407485961914e-01,-1.411819159984588623e-01,3.989009931683540344e-02,1.494436711072921753e-01,-2.311907857656478882e-01,-9.784464538097381592e-02,1.093290522694587708e-01,-1.446394175291061401e-01,-1.161289028823375702e-02,1.575233936309814453e-01,-3.761084377765655518e-02,7.553156465291976929e-02,2.829098701477050781e-01,1.256252527236938477e-01,1.319456547498703003e-01,9.724540263414382935e-02,8.253087848424911499e-02,1.022885143756866455e-01,4.490227252244949341e-02,-1.871014237403869629e-01,8.095932006835937500e-02,1.219766139984130859e-01,-1.004238985478878021e-02,-6.756852567195892334e-02,4.316930100321769714e-02,-1.195726022124290466e-01,8.733928203582763672e-02,-3.299225494265556335e-02,3.989220783114433289e-02,-6.438483297824859619e-02,-4.339309036731719971e-02,1.110147312283515930e-01,-1.262038946151733398e-02,-3.130601253360509872e-03,4.725732654333114624e-02,-1.185923963785171509e-01,1.064497977495193481e-01,-4.729568585753440857e-02,6.919801980257034302e-02,2.410949915647506714e-01,1.897438317537307739e-01,5.177583917975425720e-02,2.429527789354324341e-01,1.388674378395080566e-01,2.020889073610305786e-01,1.163214221596717834e-01,-5.820669606328010559e-02,-1.557738333940505981e-01,1.182781532406806946e-01,-5.792135000228881836e-02,-8.961198478937149048e-02,-1.140275299549102783e-01,-9.109085053205490112e-02,-7.284841686487197876e-02,4.839622974395751953e-02,-3.084899485111236572e-02,-5.391695350408554077e-02,9.929420053958892822e-02,-2.143016308546066284e-01,-1.571477949619293213e-02,-7.721322774887084961e-02,-2.838525921106338501e-02,-7.815943658351898193e-02,-1.732111722230911255e-01,-1.165070161223411560e-01,-5.905175954103469849e-02,-6.397967785596847534e-02,-6.019861623644828796e-02,1.303116679191589355e-01,-1.573951244354248047e-01,2.402227558195590973e-02,5.509528517723083496e-02,-7.087348401546478271e-02,-2.421944169327616692e-03,3.963829204440116882e-02,7.527119666337966919e-02,-6.811534613370895386e-02,1.008627787232398987e-01,-7.175627350807189941e-02,-3.630011528730392456e-02,1.137300804257392883e-01,-5.153833888471126556e-03,-1.994162611663341522e-02,1.070953980088233948e-01,-5.260903388261795044e-03,-1.288916170597076416e-01,-1.014317497611045837e-01,1.540673226118087769e-01,-1.697716712951660156e-01,-1.289202570915222168e-01,6.250130385160446167e-02,1.762226670980453491e-01,2.124434411525726318e-01,1.233462989330291748e-02,1.994764506816864014e-01,9.810103476047515869e-02,1.240309327840805054e-01,2.113899141550064087e-01,1.725056916475296021e-01,-1.188825443387031555e-01,-2.437669597566127777e-02,-4.643963649868965149e-03,-1.475863903760910034e-01,-1.940554380416870117e-01,9.146165102720260620e-02,1.506267338991165161e-01,-1.074078306555747986e-01,5.145693570375442505e-02,-1.798832118511199951e-01,9.590411186218261719e-02,1.160316541790962219e-01,6.371965259313583374e-02,-6.673785299062728882e-02,9.470526129007339478e-02,6.582736223936080933e-02,1.025113165378570557e-01,-2.274906076490879059e-02,-8.717489428818225861e-03,-6.018982827663421631e-02,-2.915262244641780853e-02,8.540175855159759521e-02,3.214784339070320129e-02,-8.774171024560928345e-02,3.711224347352981567e-02,-6.677285581827163696e-02,-1.144528314471244812e-01,-6.486649066209793091e-02,3.681274875998497009e-02,1.039706449955701828e-02,1.942897886037826538e-01,8.623605966567993164e-02,5.713864043354988098e-02,-1.529446840286254883e-01,6.307823956012725830e-02,1.410571485757827759e-02,-2.414489537477493286e-02,8.498460799455642700e-02,5.908371135592460632e-02,-3.911726176738739014e-02,1.043595001101493835e-01,-4.328879714012145996e-02,-6.724290549755096436e-02,-6.711533665657043457e-02,-1.156771555542945862e-01,-1.246333271265029907e-01,6.380686908960342407e-02,3.483744803816080093e-03,1.248357072472572327e-01,4.504531249403953552e-02,1.559688448905944824e-01,1.389672458171844482e-01,1.056961864233016968e-01,-6.217660754919052124e-02,3.011487051844596863e-02,2.232331931591033936e-01,3.435870110988616943e-01,3.381880223751068115e-01,-1.943544251844286919e-03,-2.056229626759886742e-03,1.955696642398834229e-01,1.163964197039604187e-01,3.018203889951109886e-03,8.007329702377319336e-02,3.614991158246994019e-02,1.458333581686019897e-01,1.733321994543075562e-01,1.002540066838264465e-01,2.883366048336029053e-01,2.602263689041137695e-01,7.091230154037475586e-02,1.806847304105758667e-01,1.252067834138870239e-01,6.591737270355224609e-02,-1.758091449737548828e-01,-2.592577226459980011e-02,7.163379341363906860e-02,-5.215436220169067383e-02,-4.952435567975044250e-02,-9.227903932332992554e-02,-4.707485064864158630e-02,-5.438871681690216064e-03,6.581437587738037109e-02,1.887588202953338623e-01,-8.770385384559631348e-02,-6.789853423833847046e-02,-9.969750419259071350e-03,1.892311424016952515e-01,-5.071321036666631699e-03,-5.899878591299057007e-02,-1.409451961517333984e-01,5.847506225109100342e-02,8.365909568965435028e-03,-6.426479667425155640e-02,8.496095240116119385e-02,-9.245990216732025146e-02,3.493542969226837158e-02,-1.589567661285400391e-01,-5.673407018184661865e-02,7.902381569147109985e-02
1.150776445865631104e-01,1.601678133010864258e-02,-4.336331970989704132e-03,7.855268567800521851e-02,1.087478995323181152e-01,1.203211024403572083e-01,2.716759443283081055e-01,2.495360672473907471e-01,2.178663909435272217e-01,1.178542897105216980e-02,-1.297995746135711670e-01,3.442354500293731689e-02,4.380869492888450623e-02,-3.963120281696319580e-02,1.062962878495454788e-02,-2.590326359495520592e-03,1.055466011166572571e-01,1.948156654834747314e-01,2.303825914859771729e-01,2.895219018682837486e-03,6.141366902738809586e-03,2.957165613770484924e-02,6.544843316078186035e-02,5.335835739970207214e-02,5.060017853975296021e-02,-9.181156009435653687e-02,1.405537128448486328e-01,-1.412768363952636719e-01,4.610959812998771667e-02,-7.223760336637496948e-02,-9.603966027498245239e-03,-4.110490903258323669e-02,-1.282895654439926147e-01,7.546139415353536606e-03,-1.117223352193832397e-01,-1.052778437733650208e-01,3.567393496632575989e-02,4.016136378049850464e-02,-1.353785544633865356e-01,3.965685144066810608e-02,1.612060815095901489e-01,9.591653011739253998e-03,7.169181015342473984e-03,1.179383471608161926e-01,-4.051740095019340515e-02,1.035255789756774902e-01,-1.089600697159767151e-01,-3.123432397842407227e-01,-7.770503312349319458e-02,-1.696435064077377319e-01,-4.575368016958236694e-02,-2.685982501134276390e-03,-1.904163658618927002e-01,-1.975926160812377930e-01,-6.966736633330583572e-03,-1.993099898099899292e-01,5.805563554167747498e-02,-3.584317490458488464e-02,-9.976512193679809570e-02,-1.541066765785217285e-01,2.066907845437526703e-02,4.728436097502708435e-02,-3.891968354582786560e-02,-4.282129555940628052e-02,-9.491818025708198547e-03,-3.247591480612754822e-02,-1.667220294475555420e-01,-1.135141029953956604e-02,-4.411138221621513367e-02,5.433425307273864746e-02,-8.293911814689636230e-02,4.128077998757362366e-02,-1.435455381870269775e-01,5.649159476161003113e-02,3.549202531576156616e-02,5.820449441671371460e-02,7.070795632898807526e-03,4.352102801203727722e-02,-1.707171052694320679e-01,-8.269434422254562378e-02,-1.486156284809112549e-01,1.810825467109680176e-01,5.168347433209419250e-02,-1.286526117473840714e-02,7.629005610942840576e-02,8.665128797292709351e-02,1.323326230049133301e-01,1.590755283832550049e-01,-7.486058771610260010e-02,8.598345331847667694e-03,1.679457575082778931e-01,-2.232480496168136597e-01,-6.051908060908317566e-02,2.475400567054748535e-01,-1.773736067116260529e-02,-3.169389963150024414e-01,1.750717461109161377e-01,-8.065751940011978149e-02,-2.028865218162536621e-01,-2.459047883749008179e-01,8.726304024457931519e-02,3.067021071910858154e-02,3.476724028587341309e-02,-1.390490829944610596e-01,1.591995805501937866e-01,-3.402969613671302795e-02,-1.294198930263519287e-01,4.694624990224838257e-02,2.287606000900268555e-01,-1.044303998351097107e-01,9.431405365467071533e-02,1.022623330354690552e-01,-6.860746443271636963e-02,6.720702350139617920e-02,-1.785586401820182800e-02,8.128603920340538025e-03,2.697129249572753906e-01,-1.832117140293121338e-01,-1.100485399365425110e-01,-7.764121145009994507e-02,-4.062838479876518250e-02,8.135465905070304871e-04,-6.339403241872787476e-02,-7.313990592956542969e-02,-1.352698206901550293e-01,-6.121481582522392273e-02,1.828507333993911743e-01,2.167281229048967361e-03,3.130406141281127930e-01,2.502842992544174194e-02,1.447666436433792114e-01,1.976671218872070312e-01,4.983178898692131042e-02,1.678295731544494629e-01,1.275842189788818359e-01,1.089648231863975525e-01,-1.071295738220214844e-01,3.355664014816284180e-02,2.652316540479660034e-02,1.163847967982292175e-01,-1.408131718635559082e-01,-3.612100332975387573e-02,7.430952787399291992e-02,1.797972768545150757e-01,-2.627588808536529541e-03,-1.287874132394790649e-01,-7.665155827999114990e-02,-5.150391533970832825e-02,-2.021186649799346924e-01,1.731319469399750233e-03,-4.915042221546173096e-02,-5.228395015001296997e-02,-2.630982697010040283e-01,1.173206567764282227e-01,2.134987115859985352e-01,2.630702033638954163e-02,-1.147020086646080017e-01,5.002926662564277649e-02,-4.913107305765151978e-02,5.745590105652809143e-02,7.344656158238649368e-03,4.022235423326492310e-02,-9.108062833547592163e-02,-1.427097022533416748e-01,-1.228572428226470947e-02,-2.394543439149856567e-01,-3.366047516465187073e-02,-6.429504603147506714e-02,-3.345248103141784668e-02,5.717223137617111206e-02,-5.655991658568382263e-02,5.138332769274711609e-02,1.682318598031997681e-01,4.141606017947196960e-02,-1.980706751346588135e-01,1.007416471838951111e-01,1.990780532360076904e-01,-1.271883398294448853e-01,1.670296676456928253e-02,1.682084947824478149e-01,8.084460347890853882e-02,8.725388348102569580e-02,6.493834406137466431e-02,7.624507695436477661e-02,7.681353390216827393e-02,-1.354060620069503784e-01,2.160953134298324585e-01,1.307032555341720581e-01,-7.247652113437652588e-02,1.641393154859542847e-01,1.373177766799926758e-01,-2.048465311527252197e-01,-4.052418097853660583e-02,-9.196271747350692749e-02,-1.336095947772264481e-02,1.970379985868930817e-02,8.337487280368804932e-02,7.545685023069381714e-02,2.611647248268127441e-01,2.357448935508728027e-01,3.331415727734565735e-02,1.384693831205368042e-01,2.448810040950775146e-01,2.779344916343688965e-01,-8.533357828855514526e-02,2.070737481117248535e-01,1.391152739524841309e-01,-1.137595549225807190e-01,5.470131710171699524e-02,1.896813511848449707e-01,-1.082076728343963623e-01,-2.378123579546809196e-03,-4.196734633296728134e-03,-1.229389160871505737e-01,-8.460031449794769287e-02,-8.930402249097824097e-02,-1.463572233915328979e-01,-4.999319463968276978e-02,1.433389335870742798e-01,-1.755181699991226196e-01,1.711371727287769318e-02,1.770442426204681396e-01,-7.447020709514617920e-02,2.444452233612537384e-02,1.000966993160545826e-03,1.601738631725311279e-01,-7.504488527774810791e-02,-1.191978007555007935e-01,2.160033956170082092e-02,1.656318306922912598e-01,-1.415742374956607819e-02,-6.551740318536758423e-02,-4.721660539507865906e-02,6.602159887552261353e-02,-7.622101157903671265e-02,-9.200821071863174438e-02,2.500073425471782684e-02,-6.348926573991775513e-02,4.570326302200555801e-03,1.361964792013168335e-01,-3.386277821846306324e-04,2.733585890382528305e-03,6.358280032873153687e-02,-7.141441851854324341e-02,-5.539878830313682556e-02,-2.102550268173217773e-01,-2.832211852073669434e-01,-3.299533128738403320e-01,6.549205631017684937e-02,-2.673838138580322266e-01,-1.781156659126281738e-01,-1.135648861527442932e-01,-2.900516800582408905e-02,-3.258119523525238037e-02,2.021158672869205475e-02,1.855682395398616791e-02,-7.924216240644454956e-02,-5.762301385402679443e-02,3.444632887840270996e-02,7.519712299108505249e-02,4.575443745125085115e-04,-4.339715465903282166e-02,-1.085545793175697327e-01,-8.686928451061248779e-02,6.173472478985786438e-02,-2.224984019994735718e-02,2.189596183598041534e-02,-1.187746226787567139e-01,9.821824729442596436e-03,-6.189488247036933899e-02,1.185564771294593811e-01,5.617931950837373734e-03,-1.479106396436691284e-01,2.141921669244766235e-01,9.784846007823944092e-02,6.492410786449909210e-03,7.344565354287624359e-03,1.313848197460174561e-01,-3.454042598605155945e-02,-8.915521204471588135e-02,2.243938855826854706e-03,-1.191741153597831726e-01,-2.082799524068832397e-01,-1.588469445705413818e-01,-1.150575950741767883e-01,-6.378605216741561890e-02,2.849538624286651611e-02,-8.984361588954925537e-02
-7.816917449235916138e-02,9.639436006546020508e-02,1.309927999973297119e-01,1.930332481861114502e-01,8.132375776767730713e-02,1.517990231513977051e-01,3.904290962964296341e-03,1.432778090238571167e-01,2.787725627422332764e-01,9.106700122356414795e-02,1.967585682868957520e-01,2.361039221286773682e-01,-1.351443026214838028e-02,1.433659940958023071e-01,2.189238369464874268e-02,-3.309889137744903564e-02,9.205446392297744751e-02,2.008542977273464203e-02,4.871863871812820435e-02,9.819035232067108154e-02,-2.373375929892063141e-02,-1.446363478899002075e-01,6.114484369754791260e-02,-5.281744524836540222e-02,-5.848964676260948181e-02,2.938715275377035141e-03,2.582232700660824776e-04,-1.220735255628824234e-02,1.387863457202911377e-01,2.193388789892196655e-01,-1.400583833456039429e-01,-1.451522577553987503e-02,4.831001907587051392e-02,1.259604543447494507e-01,1.778831519186496735e-02,7.904535531997680664e-02,4.236761108040809631e-02,-2.554785273969173431e-02,-1.049319356679916382e-01,5.807415395975112915e-02,7.337309420108795166e-02,-1.396613940596580505e-02,-9.654829278588294983e-03,-1.145674660801887512e-01,-7.348521030507981777e-04,1.343373358249664307e-01,-1.296453550457954407e-02,4.386306554079055786e-02,1.329242289066314697e-01,-9.056024998426437378e-02,5.874221026897430420e-02,1.583051979541778564e-01,-6.889380048960447311e-03,1.518448740243911743e-01,1.909305527806282043e-02,-7.554806023836135864e-02,6.778279691934585571e-02,4.897687956690788269e-02,-5.278456583619117737e-02,1.439004242420196533e-01,1.065550465136766434e-02,-1.631855592131614685e-02,4.144462943077087402e-02,-5.257448181509971619e-02,-5.034715309739112854e-02,-1.642813980579376221e-01,-2.550756325945258141e-03,1.453382968902587891e-01,5.259001627564430237e-02,-1.645115464925765991e-01,1.343219876289367676e-01,1.031468957662582397e-01,8.599231392145156860e-02,-3.785340115427970886e-02,-1.084029451012611389e-01,2.177822403609752655e-02,-2.298117727041244507e-01,1.001382246613502502e-01,1.262035369873046875e-01,-2.732596360146999359e-02,1.178356185555458069e-01,7.999693602323532104e-02,6.124791130423545837e-02,5.755040422081947327e-02,-2.952838316559791565e-02,1.005804724991321564e-02,7.456208765506744385e-02,6.648364663124084473e-02,4.979808628559112549e-02,2.646949589252471924e-01,1.560720652341842651e-01,-4.201369732618331909e-02,1.113023683428764343e-01,1.671594083309173584e-01,-1.045442670583724976e-01,2.850256115198135376e-02,6.156578660011291504e-02,-1.512887328863143921e-01,2.191133499145507812e-01,-9.022399038076400757e-02,-1.660973429679870605e-01,8.981341868638992310e-02,1.093983873724937439e-01,-5.298633873462677002e-02,-1.404255181550979614e-01,1.735812872648239136e-01,-2.184442244470119476e-02,-5.511398985981941223e-02,1.032656282186508179e-01,9.892557561397552490e-02,8.833238482475280762e-02,7.289172708988189697e-02,1.300937980413436890e-01,9.985612332820892334e-02,-3.203858062624931335e-02,5.870392173528671265e-02,7.133794575929641724e-02,-1.192044541239738464e-01,1.284636408090591431e-01,7.926803082227706909e-02,-5.215943604707717896e-02,9.965574741363525391e-02,1.344307512044906616e-01,-3.038224764168262482e-02,-9.505850821733474731e-02,9.446229040622711182e-02,7.814798504114151001e-02,-5.197332426905632019e-02,-1.343553420156240463e-02,2.335779368877410889e-02,6.882393360137939453e-02,-6.384553015232086182e-02,1.624434143304824829e-01,1.206392869353294373e-01,-1.107807457447052002e-01,3.257526457309722900e-02,7.380241155624389648e-02,8.219867199659347534e-02,1.669259965419769287e-01,6.303682178258895874e-02,4.043788462877273560e-02,-3.473127260804176331e-02,7.034332491457462311e-03,6.036126986145973206e-02,-8.196235448122024536e-02,1.664192788302898407e-02,7.360219955444335938e-02,-9.394398331642150879e-02,-7.188817858695983887e-02,-1.803150922060012817e-01,-3.512447327375411987e-02,1.492608189582824707e-01,4.719037190079689026e-02,-5.029132217168807983e-02,4.856317862868309021e-02,-6.553128361701965332e-02,-1.962102251127362251e-03,-5.910626053810119629e-02,1.365645229816436768e-02,-7.819414138793945312e-03,2.749633044004440308e-02,9.874796867370605469e-02,1.244521662592887878e-01,-1.275515928864479065e-02,6.284970045089721680e-02,-1.309205591678619385e-01,9.145292639732360840e-02,7.482192665338516235e-02,-4.818574711680412292e-02,-1.198496073484420776e-01,7.998704165220260620e-02,1.808945983648300171e-01,3.556085377931594849e-02,1.528784334659576416e-01,1.905212402343750000e-01,1.209221035242080688e-01,-4.116437584161758423e-02,8.747285604476928711e-02,2.171074226498603821e-02,5.709772184491157532e-02,1.661256253719329834e-01,1.430374532938003540e-01,1.602271348237991333e-01,1.925250738859176636e-01,6.531786173582077026e-02,1.168426275253295898e-01,5.941602587699890137e-02,-3.251847997307777405e-02,-9.556548297405242920e-02,1.290535777807235718e-01,-8.183634839951992035e-03,8.741404861211776733e-02,-9.694199264049530029e-02,1.557918787002563477e-01,-7.514759898185729980e-02,4.272498562932014465e-02,-1.458434164524078369e-01,1.774686761200428009e-02,8.010813593864440918e-02,1.969361901283264160e-01,4.249523952603340149e-02,1.537714451551437378e-01,2.358201444149017334e-01,1.302911937236785889e-01,1.067021265625953674e-01,-1.328915506601333618e-01,-1.420356482267379761e-01,-1.195191666483879089e-01,4.852579440921545029e-03,-1.565534323453903198e-01,-2.312923781573772430e-02,8.919699490070343018e-02,2.672701328992843628e-02,-3.770325332880020142e-02,1.052963733673095703e-01,1.944238878786563873e-02,-6.623542867600917816e-03,-8.049392700195312500e-02,-1.268002837896347046e-01,-1.175421401858329773e-01,-4.831704497337341309e-02,-1.181973665952682495e-01,1.931068152189254761e-01,-1.504482328891754150e-01,6.362302601337432861e-02,1.066426783800125122e-01,-2.460084296762943268e-02,-1.041515693068504333e-01,1.332419216632843018e-01,4.864046350121498108e-02,4.220735654234886169e-02,-5.938294529914855957e-02,1.643401384353637695e-01,9.310214966535568237e-02,6.336483359336853027e-02,1.025509461760520935e-01,5.976335704326629639e-02,3.644512034952640533e-03,1.738952398300170898e-01,2.009954899549484253e-01,-7.020181044936180115e-03,1.037678867578506470e-02,1.087500900030136108e-01,1.139329746365547180e-01,1.110028550028800964e-01,2.218846231698989868e-01,2.366553246974945068e-01,-8.446092717349529266e-03,1.641882061958312988e-01,1.835784465074539185e-01,8.010914176702499390e-02,-1.589235365390777588e-01,-2.760850451886653900e-02,-1.055126190185546875e-01,-3.939727693796157837e-02,-4.093161318451166153e-03,-9.659985452890396118e-02,-1.080201789736747742e-01,-6.051420047879219055e-02,-9.799150377511978149e-02,9.422428905963897705e-02,8.980282396078109741e-02,-1.632074117660522461e-01,-8.696090430021286011e-02,-1.579524250701069832e-03,-1.041982471942901611e-01,6.832747254520654678e-03,-2.164075337350368500e-02,5.292817577719688416e-02,1.628138870000839233e-01,1.198334991931915283e-01,-5.747187510132789612e-02,-6.466319411993026733e-02,5.244444310665130615e-02,1.143256574869155884e-01,1.241862922906875610e-01,6.973682343959808350e-02,-1.201534718275070190e-01,8.670065551996231079e-03,-1.381125003099441528e-01,1.011676341295242310e-02,8.825455605983734131e-02,-1.520592421293258667e-01,-3.110680542886257172e-02,7.944729924201965332e-02,4.844771325588226318e-02,-1.650519818067550659e-01,-1.074601784348487854e-01
2.768575958907604218e-02,-1.003789678215980530e-01,-1.830196827650070190e-01,9.305887669324874878e-02,-7.740229368209838867e-02,-2.831042408943176270e-01,-5.277986824512481689e-02,-3.253067284822463989e-02,-1.054389327764511108e-01,6.016313284635543823e-02,4.535031970590353012e-03,4.527175426483154297e-02,1.442469358444213867e-01,-1.184076890349388123e-01,5.464474856853485107e-02,-8.574690436944365501e-04,1.059004664421081543e-01,1.631271839141845703e-01,-1.565011739730834961e-01,1.215840354561805725e-01,-1.848374307155609131e-01,2.670289762318134308e-02,1.067104656249284744e-02,-6.859163194894790649e-02,1.141367256641387939e-01,9.971304237842559814e-02,-1.050181835889816284e-01,9.865626692771911621e-02,6.626707315444946289e-02,6.057687476277351379e-02,-7.395545393228530884e-02,3.456252068281173706e-02,3.737029805779457092e-02,-1.152969077229499817e-01,-1.290381699800491333e-01,-6.782169640064239502e-02,-1.729028522968292236e-01,2.324008345603942871e-01,9.285362064838409424e-02,-2.230796515941619873e-01,-4.971934109926223755e-02,-1.574207656085491180e-02,-1.543933153152465820e-01,6.131666526198387146e-02,8.629995584487915039e-02,9.664070606231689453e-02,3.415514901280403137e-02,-2.237222194671630859e-01,6.125061959028244019e-02,-2.521309815347194672e-02,-1.499082148075103760e-01,9.650117903947830200e-02,-2.157991565763950348e-02,-1.024327203631401062e-01,-1.337179988622665405e-01,1.334868669509887695e-01,-2.366667240858078003e-02,7.046879082918167114e-02,-1.664755344390869141e-01,4.286593943834304810e-02,-9.688687324523925781e-02,-1.786732524633407593e-01,-6.031155213713645935e-02,-7.196684181690216064e-02,-6.212776899337768555e-02,-7.244075089693069458e-02,5.035157129168510437e-02,1.076490506529808044e-01,-1.657566726207733154e-01,1.057972908020019531e-01,5.857773125171661377e-02,-1.559280902147293091e-01,-6.094683706760406494e-02,-7.491369545459747314e-02,3.952843695878982544e-02,2.253528311848640442e-02,-2.344846725463867188e-02,-4.961098730564117432e-02,1.270963400602340698e-01,2.021851092576980591e-01,-7.525659352540969849e-02,3.932827617973089218e-03,-9.527347981929779053e-02,1.500164419412612915e-01,6.264979392290115356e-02,-1.082431524991989136e-01,1.695083528757095337e-01,-6.234489381313323975e-03,-5.841427668929100037e-02,9.657695144414901733e-02,-3.209327161312103271e-02,3.319944441318511963e-02,-2.988673746585845947e-01,-1.131867766380310059e-01,-4.223677515983581543e-02,-2.176554203033447266e-01,1.016002073884010315e-01,-2.928485721349716187e-02,-1.684786938130855560e-02,-9.233508259057998657e-02,-5.302871763706207275e-02,-4.605892673134803772e-02,-3.451756201684474945e-03,-1.528647094964981079e-01,-2.430709265172481537e-02,-9.271733462810516357e-02,-9.493727982044219971e-02,3.013778477907180786e-03,1.083218008279800415e-01,4.544716328382492065e-02,-1.548293530941009521e-01,-8.755505084991455078e-02,-1.157285273075103760e-01,-8.191992342472076416e-02,1.852713897824287415e-02,-1.907997131347656250e-01,6.033210083842277527e-02,-1.173944622278213501e-01,-4.548528790473937988e-02,-1.170755252242088318e-01,-5.723613128066062927e-02,8.514204621315002441e-02,2.464937232434749603e-02,-7.927664555609226227e-03,-9.294043481349945068e-02,9.066011011600494385e-02,-1.231940165162086487e-01,-3.872685134410858154e-02,2.452505081892013550e-01,-3.856885433197021484e-02,-5.787628144025802612e-02,2.447953075170516968e-01,-2.374205365777015686e-02,4.849654063582420349e-02,3.369791060686111450e-02,1.514327675104141235e-01,-1.511167269200086594e-02,-2.350859194993972778e-01,4.063662886619567871e-02,1.414837837219238281e-01,-1.551853418350219727e-01,5.957074090838432312e-02,-1.526722162961959839e-01,-1.889195144176483154e-01,8.112714439630508423e-02,-3.926147520542144775e-02,-1.028337981551885605e-02,-2.691872790455818176e-02,-3.660298138856887817e-02,3.987808898091316223e-02,2.479645609855651855e-02,-1.383855193853378296e-01,-8.708839118480682373e-02,1.248968616127967834e-01,-7.500122487545013428e-02,-2.739104256033897400e-02,7.640199363231658936e-02,-1.462308615446090698e-01,1.412889570929110050e-03,4.295342415571212769e-02,1.247346177697181702e-01,4.841345921158790588e-02,-7.902191579341888428e-02,-2.460776418447494507e-01,-2.024942040443420410e-01,-7.849282771348953247e-02,-2.097606211900711060e-01,-6.270591984502971172e-04,3.736069425940513611e-03,6.438995897769927979e-02,-1.455111950635910034e-01,6.765004992485046387e-02,-8.757930248975753784e-03,1.582846790552139282e-01,1.830779612064361572e-01,1.422338653355836868e-02,4.913050308823585510e-02,9.138615429401397705e-02,2.046941407024860382e-02,8.523324131965637207e-02,-9.981770068407058716e-02,-1.809667609632015228e-02,4.325819313526153564e-01,2.424927894026041031e-03,1.935894340276718140e-01,2.116832733154296875e-01,1.360068619251251221e-01,1.298950016498565674e-01,2.064109742641448975e-01,-3.820108994841575623e-02,-4.706460237503051758e-02,-1.220660060644149780e-01,-7.445283234119415283e-02,1.109805405139923096e-01,9.046743065118789673e-02,-8.937791734933853149e-02,8.651720732450485229e-02,-5.924967583268880844e-03,-2.054104655981063843e-01,-4.003890790045261383e-03,5.539716780185699463e-02,1.746672205626964569e-03,3.476035315543413162e-03,1.957588791847229004e-01,-1.051837727427482605e-01,1.988723874092102051e-02,2.229438424110412598e-01,1.476126313209533691e-01,3.466998785734176636e-02,9.563363343477249146e-02,1.703617745079100132e-03,-1.718219816684722900e-01,-7.813115417957305908e-02,1.940134167671203613e-01,-1.027124468237161636e-02,-2.373712360858917236e-01,-9.364796429872512817e-02,3.759355284273624420e-03,1.254763305187225342e-01,-2.044221311807632446e-01,4.302731528878211975e-02,1.875726878643035889e-02,-2.051192969083786011e-01,-4.689053818583488464e-02,1.314781978726387024e-02,-1.501084398478269577e-02,-1.091626584529876709e-01,9.082630276679992676e-02,-8.211316913366317749e-02,-8.396360278129577637e-02,-5.337402969598770142e-02,-4.493047669529914856e-02,-1.696431189775466919e-01,4.141017794609069824e-03,1.640168130397796631e-01,8.595117181539535522e-02,6.815490871667861938e-02,1.364043802022933960e-01,7.964192330837249756e-02,7.162446528673171997e-02,-1.533934026956558228e-01,-1.579512655735015869e-01,4.534866288304328918e-02,2.508965432643890381e-01,1.082823276519775391e-01,-3.717284649610519409e-02,-3.278918302385136485e-05,-7.113812863826751709e-02,-1.749357283115386963e-01,-7.286521047353744507e-02,-2.778895795345306396e-01,-3.324901759624481201e-01,5.709559097886085510e-02,-7.426543533802032471e-02,8.979997038841247559e-02,-9.740238636732101440e-02,-3.110564686357975006e-02,-7.987905293703079224e-03,-6.321346759796142578e-02,-1.200256645679473877e-01,-2.642363123595714569e-02,8.813574910163879395e-02,-1.143466979265213013e-01,-6.878175307065248489e-03,-1.229223143309354782e-02,-4.986595734953880310e-02,-1.856543868780136108e-02,-8.984532207250595093e-02,-1.552745401859283447e-01,-1.192785054445266724e-01,1.390597783029079437e-02,4.515984654426574707e-02,-2.427961826324462891e-01,1.766580194234848022e-01,-2.763776294887065887e-02,-2.483119815587997437e-01,-5.776846036314964294e-02,9.237250313162803650e-03,-5.503114685416221619e-02,9.849922358989715576e-02,-2.234142720699310303e-01,3.874175623059272766e-02,1.084277257323265076e-01,-1.265167593955993652e-01,-5.596369877457618713e-02,9.764565527439117432e-02,-1.251299381256103516e-01,9.874826669692993164e-02
8.254140615463256836e-02,-2.124653905630111694e-01,-9.553154557943344116e-02,1.169589832425117493e-01,-4.542844742536544800e-02,-1.009021475911140442e-01,3.368366062641143799e-01,1.374738197773694992e-02,-6.074764579534530640e-02,5.854575708508491516e-02,-1.733249723911285400e-01,8.113699406385421753e-02,-1.109183281660079956e-01,-8.115494251251220703e-02,6.104639545083045959e-02,-1.018412262201309204e-01,-8.647899329662322998e-02,9.970332682132720947e-02,-1.014781445264816284e-01,-4.449721053242683411e-02,8.011183142662048340e-02,-1.986591815948486328e-01,1.581626683473587036e-01,8.849036693572998047e-02,-1.670707166194915771e-01,1.162209734320640564e-01,6.765882670879364014e-02,5.900794640183448792e-02,1.082185879349708557e-01,7.565095275640487671e-02,3.086965717375278473e-02,4.305220767855644226e-02,1.641152352094650269e-01,1.084162145853042603e-01,4.382395371794700623e-02,1.004619151353836060e-02,1.011764910072088242e-02,7.979123294353485107e-02,-1.245026476681232452e-03,1.853412389755249023e-01,4.127150028944015503e-02,1.896418631076812744e-02,9.650338441133499146e-03,1.991241239011287689e-02,5.661462619900703430e-02,1.858671754598617554e-02,-1.263136416673660278e-01,-1.589918136596679688e-01,6.751485168933868408e-02,1.141436863690614700e-02,-3.407415375113487244e-02,4.106676951050758362e-02,-1.553357690572738647e-01,-1.022232472896575928e-01,-1.064492166042327881e-01,8.048464357852935791e-02,3.296755626797676086e-02,3.274921327829360962e-02,-4.262447729706764221e-02,9.862560033798217773e-02,2.949524484574794769e-02,1.276344805955886841e-01,-7.949700951576232910e-02,7.688339799642562866e-02,3.754735365509986877e-02,-4.428617283701896667e-02,1.001246050000190735e-01,9.245608747005462646e-02,-1.955927908420562744e-01,-5.352525785565376282e-02,-4.813536535948514938e-03,-4.897381365299224854e-02,-2.787094712257385254e-01,-1.287249922752380371e-01,2.228065207600593567e-02,-1.543200165033340454e-01,-2.597039937973022461e-01,8.909840136766433716e-02,-3.273553550243377686e-01,-1.305847615003585815e-01,-1.640164665877819061e-02,3.455994278192520142e-02,6.214762106537818909e-02,-1.427847445011138916e-01,3.565676743164658546e-03,-2.610108628869056702e-02,-1.242223680019378662e-01,7.499927282333374023e-02,8.917690254747867584e-03,1.140738129615783691e-01,-1.235667336732149124e-02,3.408791869878768921e-02,-1.159201096743345261e-02,1.876356899738311768e-01,-2.274161130189895630e-01,-2.502084523439407349e-02,5.116788297891616821e-02,-1.367406398057937622e-01,-8.014211058616638184e-02,-1.545728445053100586e-01,-1.607486903667449951e-01,2.173773944377899170e-01,1.270482130348682404e-02,-1.464484818279743195e-02,2.357280440628528595e-02,-1.443410813808441162e-01,1.920823566615581512e-02,-2.054604738950729370e-01,-7.158294320106506348e-02,-1.025639846920967102e-01,-1.091374754905700684e-01,6.621478497982025146e-02,1.434109359979629517e-02,8.771336078643798828e-02,-8.200705051422119141e-03,7.748737931251525879e-02,1.396799832582473755e-02,8.731877803802490234e-02,-1.457170844078063965e-01,-3.785526379942893982e-02,-1.265918910503387451e-01,-2.092092670500278473e-02,-7.919528335332870483e-02,-7.267544511705636978e-03,-1.915353350341320038e-02,-2.599558234214782715e-02,-1.247665211558341980e-01,-9.157554060220718384e-02,1.592269837856292725e-01,-1.592782437801361084e-01,-9.996218234300613403e-02,1.767245233058929443e-01,-9.334934502840042114e-02,-1.097423210740089417e-01,-1.894895881414413452e-01,-9.625648707151412964e-02,-1.552874296903610229e-01,-1.135606840252876282e-01,6.916536390781402588e-02,4.205553978681564331e-02,-1.874610595405101776e-02,5.960276350378990173e-02,-2.582046575844287872e-02,4.568233340978622437e-02,-1.324134916067123413e-01,-2.665831148624420166e-01,6.985259056091308594e-02,-1.570376902818679810e-01,-1.255440562963485718e-01,6.403609365224838257e-02,5.868783965706825256e-02,1.208083480596542358e-01,8.358038216829299927e-02,1.688919514417648315e-01,3.745957091450691223e-02,4.906347021460533142e-02,-2.059374451637268066e-01,-7.966414839029312134e-02,7.627392560243606567e-02,3.540496900677680969e-02,-1.406053006649017334e-01,-5.035530403256416321e-02,-3.569927811622619629e-02,-8.832000941038131714e-02,-2.292845547199249268e-01,-1.423939615488052368e-01,-2.173621207475662231e-01,-4.129356518387794495e-02,-2.614696919918060303e-01,-1.991156190633773804e-01,8.375052362680435181e-03,2.090227454900741577e-01,9.580486267805099487e-02,-1.880845986306667328e-02,-1.863575726747512817e-01,-1.687238067388534546e-01,-1.967649161815643311e-01,-1.042826548218727112e-01,-1.483888924121856689e-01,1.100004687905311584e-01,1.245211064815521240e-01,-3.719093650579452515e-02,-1.297962963581085205e-01,8.292040228843688965e-02,-3.090422973036766052e-02,-1.082605272531509399e-01,9.563118219375610352e-02,3.780322149395942688e-02,1.006351858377456665e-01,2.570539526641368866e-02,5.167138949036598206e-02,1.235484611243009567e-02,-3.368723206222057343e-03,4.390041343867778778e-03,-4.251326993107795715e-02,8.583498746156692505e-02,1.179689913988113403e-01,7.857906073331832886e-02,1.585858017206192017e-01,6.071076542139053345e-02,-4.549551382660865784e-02,-1.037285774946212769e-01,1.281051933765411377e-01,4.862837865948677063e-02,7.066220045089721680e-02,-1.885548979043960571e-02,-8.199933171272277832e-02,8.431902527809143066e-02,1.164397746324539185e-01,1.473979353904724121e-01,-6.756595522165298462e-02,-1.559030264616012573e-01,-2.848465181887149811e-02,1.403866261243820190e-01,7.000982761383056641e-02,-5.293307080864906311e-02,-2.168954014778137207e-01,-2.583066523075103760e-01,1.025746949017047882e-02,-4.939214512705802917e-02,-1.107090339064598083e-01,2.783597074449062347e-02,-2.378750890493392944e-01,-5.466444790363311768e-02,-1.560568809509277344e-03,-1.075472403317689896e-02,8.021615445613861084e-02,2.854227460920810699e-02,8.485095947980880737e-02,3.327130153775215149e-02,-9.779538214206695557e-02,-9.834441542625427246e-02,7.011988013982772827e-02,-4.453028365969657898e-02,-1.605749875307083130e-01,-1.601952314376831055e-01,1.074974983930587769e-01,-1.474178284406661987e-01,-4.964487627148628235e-02,1.049386523663997650e-02,1.517745852470397949e-02,7.874564267694950104e-03,-1.109833177179098129e-02,-5.799214914441108704e-02,-1.163123100996017456e-01,1.856163144111633301e-01,1.211317721754312515e-02,-1.180913895368576050e-01,-2.116521298885345459e-01,2.277187444269657135e-02,-1.074566543102264404e-01,-6.232664734125137329e-02,-5.377972126007080078e-02,-1.556364893913269043e-01,9.258615225553512573e-02,-4.095558822154998779e-02,5.030765384435653687e-02,-2.585520967841148376e-02,4.494697973132133484e-02,1.846308074891567230e-02,-9.841844439506530762e-02,6.128743290901184082e-02,5.164674669504165649e-02,2.254490368068218231e-02,7.933331653475761414e-03,-2.975062280893325806e-02,-1.601967960596084595e-01,1.596695780754089355e-01,1.176324114203453064e-01,2.227186970412731171e-02,-3.182752057909965515e-02,5.602884292602539062e-02,-1.854548305273056030e-01,-9.214688837528228760e-02,6.825705617666244507e-02,-2.590376734733581543e-01,-8.523144572973251343e-02,5.158014595508575439e-02,-6.671281903982162476e-02,-1.184908300638198853e-01,-9.972408413887023926e-02,-1.109087541699409485e-01,5.279620364308357239e-02,-6.802912801504135132e-02,-1.558827757835388184e-01,-1.057537570595741272e-01,-3.924189880490303040e-02,5.252462252974510193e-02
-1.012397184967994690e-01,1.140790358185768127e-01,-1.610540449619293213e-01,3.627403825521469116e-02,-1.495341677218675613e-02,6.567336153239011765e-03,-1.386631163768470287e-03,2.734291367232799530e-02,1.205757185816764832e-01,-1.865447498857975006e-02,-2.808168530464172363e-03,9.135923534631729126e-02,-2.160088717937469482e-01,-4.425378888845443726e-02,1.898044720292091370e-02,9.723576903343200684e-02,1.791048198938369751e-01,1.277584135532379150e-01,5.045471712946891785e-02,4.760961607098579407e-02,2.785344840958714485e-03,1.476776599884033203e-01,-8.113230019807815552e-02,-1.090045720338821411e-01,1.792238056659698486e-01,-1.505232602357864380e-01,5.952112376689910889e-03,2.847422100603580475e-02,-1.207543611526489258e-01,-2.430434152483940125e-02,1.440932601690292358e-01,2.750299870967864990e-03,-5.748524889349937439e-02,3.162139793857932091e-03,8.272463828325271606e-02,4.603984579443931580e-02,-1.406482011079788208e-01,-4.658370092511177063e-02,3.153850883245468140e-02,-4.262177273631095886e-02,1.377229094505310059e-01,-5.173922702670097351e-02,1.426125317811965942e-01,-3.104201517999172211e-02,1.372585892677307129e-01,-7.791330426698550582e-05,9.203330427408218384e-02,-1.536375582218170166e-01,-2.126354724168777466e-01,-5.329591780900955200e-02,-1.922494173049926758e-01,-1.018137857317924500e-01,2.978441491723060608e-02,7.931502535939216614e-03,-1.132095698267221451e-02,1.084038540720939636e-01,4.287720099091529846e-02,-5.116130784153938293e-02,2.896503545343875885e-02,-2.189505100250244141e-01,-3.159699589014053345e-02,-1.103094890713691711e-01,-1.158612221479415894e-01,1.641371250152587891e-01,6.326758861541748047e-02,-1.715152710676193237e-01,6.823890376836061478e-03,-8.183275908231735229e-02,-1.338450908660888672e-01,7.238618284463882446e-02,1.487901550717651844e-03,-1.825550049543380737e-01,-2.776029147207736969e-02,2.264525741338729858e-02,5.568549409508705139e-02,-1.801435351371765137e-01,1.514733135700225830e-01,-8.575527369976043701e-02,-2.004375457763671875e-01,-1.489786338061094284e-02,3.954022377729415894e-02,6.879785656929016113e-02,5.822011083364486694e-02,-1.276841163635253906e-01,1.142113730311393738e-01,-7.037449628114700317e-02,6.522074341773986816e-02,2.544234097003936768e-01,6.902225315570831299e-02,-1.151153892278671265e-01,2.133916467428207397e-01,-1.965148448944091797e-01,5.639045313000679016e-02,1.164632439613342285e-01,-7.055942714214324951e-02,-8.489720523357391357e-02,7.085346430540084839e-02,-2.282905578613281250e-01,-6.747898180037736893e-03,-3.063054010272026062e-02,-3.252832591533660889e-02,4.166044294834136963e-02,7.592519279569387436e-03,-7.664710283279418945e-02,1.632257103919982910e-01,-1.211355403065681458e-01,1.772014945745468140e-01,5.253753066062927246e-02,-1.163735464215278625e-01,-9.296076744794845581e-02,-4.137847572565078735e-02,-6.760805100202560425e-02,-2.357853204011917114e-01,-5.503628402948379517e-02,3.946695104241371155e-02,-3.180728107690811157e-02,-9.228515625000000000e-02,-1.965167373418807983e-02,-1.603609323501586914e-01,-1.750714033842086792e-01,-1.129817441105842590e-01,5.905048921704292297e-03,-1.560674458742141724e-01,-2.691812217235565186e-01,-1.353973746299743652e-01,2.224062569439411163e-02,1.425017118453979492e-01,1.388175934553146362e-01,2.326871305704116821e-01,1.162880435585975647e-01,2.337229698896408081e-01,1.628499329090118408e-01,1.091039329767227173e-01,1.263600308448076248e-02,2.668847143650054932e-01,8.689095824956893921e-02,1.058788225054740906e-01,6.341604143381118774e-02,3.052957914769649506e-02,1.157939620316028595e-02,3.102244995534420013e-02,8.179879188537597656e-02,1.543301045894622803e-01,-1.342183351516723633e-01,1.832733154296875000e-01,6.184427440166473389e-02,1.599855870008468628e-01,1.604532897472381592e-01,2.349895611405372620e-02,-7.987261563539505005e-02,-5.698976293206214905e-02,-7.323408126831054688e-02,3.440791741013526917e-02,1.563591808080673218e-01,-4.012459889054298401e-02,3.868253529071807861e-02,1.723638176918029785e-01,-2.177347801625728607e-02,-9.131532162427902222e-03,1.651239544153213501e-01,7.395192235708236694e-02,-4.787286743521690369e-02,-4.824843257665634155e-03,1.206835824996232986e-02,-2.568939700722694397e-02,-6.827470660209655762e-02,-1.391068398952484131e-01,-7.399473339319229126e-02,-1.246458012610673904e-02,-1.161797642707824707e-01,-2.019514888525009155e-02,2.677593827247619629e-01,1.927703619003295898e-01,-5.237570963799953461e-03,1.725091487169265747e-01,9.697228670120239258e-02,-1.603914499282836914e-01,8.929122239351272583e-02,1.963683031499385834e-02,-1.537463068962097168e-01,-1.401046216487884521e-01,-4.562545940279960632e-02,7.825794070959091187e-02,-4.541408643126487732e-02,3.905379772186279297e-02,-2.091794833540916443e-02,1.347555369138717651e-01,1.054558977484703064e-01,-2.139381766319274902e-01,7.700057327747344971e-02,-9.101793169975280762e-03,-7.605437189340591431e-02,-4.675504937767982483e-02,-1.023781970143318176e-01,-1.246597915887832642e-01,-1.485504209995269775e-02,-1.012932360172271729e-01,-9.190078824758529663e-02,-6.522902846336364746e-02,-9.170913696289062500e-02,-1.345720887184143066e-01,5.009599402546882629e-02,1.151577681303024292e-01,7.667557895183563232e-02,5.171497166156768799e-02,5.633759126067161560e-02,-6.457960233092308044e-03,6.311994791030883789e-02,-7.813507318496704102e-02,-8.409159258008003235e-03,2.187855169177055359e-02,1.503724157810211182e-01,-6.919103115797042847e-02,1.592891812324523926e-01,9.273052215576171875e-02,-6.239255890250205994e-02,1.160190254449844360e-01,-1.363084018230438232e-01,-6.440503150224685669e-02,1.338770985603332520e-02,3.870522230863571167e-02,1.566015183925628662e-01,-2.454800754785537720e-01,-1.864957958459854126e-01,1.661529093980789185e-01,-1.020878553390502930e-01,-9.279283881187438965e-02,-9.094628691673278809e-02,-1.136171519756317139e-01,-2.106416225433349609e-02,-1.499436795711517334e-01,-7.595399022102355957e-02,4.156625643372535706e-02,-6.607504189014434814e-02,1.627214550971984863e-01,1.396549046039581299e-01,8.904385566711425781e-02,-1.131268888711929321e-01,-9.654300659894943237e-02,-2.231543362140655518e-01,1.388432681560516357e-01,-7.825801521539688110e-02,5.165173113346099854e-02,1.481814831495285034e-01,5.696251243352890015e-02,-4.057192709296941757e-04,-2.127369046211242676e-01,-4.341940209269523621e-02,-2.047902792692184448e-01,-2.402075976133346558e-01,-1.600078046321868896e-01,-1.703271269798278809e-01,1.403572708368301392e-01,2.263903170824050903e-01,-4.520932585000991821e-02,-1.481069028377532959e-01,6.299945712089538574e-02,4.093782231211662292e-02,8.141488581895828247e-02,-5.157945305109024048e-02,1.039765775203704834e-01,-6.998419761657714844e-02,5.165328085422515869e-02,-1.364287137985229492e-01,-1.422487050294876099e-01,1.346102822571992874e-02,4.801901802420616150e-02,4.785554949194192886e-03,1.092016398906707764e-01,7.673344016075134277e-02,-4.078002646565437317e-03,-1.139424592256546021e-01,-4.525383934378623962e-02,1.666592359542846680e-01,6.339592486619949341e-02,8.895293623208999634e-02,8.952667564153671265e-02,-1.533136516809463501e-01,-4.782491549849510193e-02,-2.070419788360595703e-01,-1.483010947704315186e-01,9.438100457191467285e-02,-1.624731719493865967e-01,-1.978497803211212158e-01,3.608650341629981995e-02,-1.993824094533920288e-01,8.017698675394058228e-02,7.626949995756149292e-02
-5.314691364765167236e-02,-2.173718065023422241e-01,-1.108986064791679382e-01,5.404583737254142761e-02,1.117420848459005356e-02,4.236739128828048706e-02,-2.933600358664989471e-02,-8.878315566107630730e-04,-2.271924316883087158e-01,2.530283927917480469e-01,1.227085441350936890e-01,-2.560593746602535248e-02,1.629474163055419922e-01,3.692877478897571564e-03,1.293051093816757202e-01,-5.125811323523521423e-02,-5.392614752054214478e-02,-1.602346599102020264e-01,1.171839535236358643e-01,8.091056719422340393e-03,-1.101117860525846481e-02,-6.003510951995849609e-02,-5.356223136186599731e-02,-5.040772631764411926e-02,-3.327854350209236145e-02,4.234347119927406311e-02,-5.477773770689964294e-02,-5.798586457967758179e-02,6.888767331838607788e-02,-3.982917219400405884e-02,6.520786881446838379e-02,-1.186055839061737061e-01,-8.416096121072769165e-02,1.177840679883956909e-01,1.108635775744915009e-02,4.311048891395330429e-03,5.117948632687330246e-03,1.599727757275104523e-02,-1.275147199630737305e-01,-9.495708346366882324e-02,-6.516546010971069336e-02,-5.747459828853607178e-02,2.815034240484237671e-02,2.329183742403984070e-02,1.215228810906410217e-01,1.608754880726337433e-02,-1.102923005819320679e-01,5.433410033583641052e-02,-4.816615208983421326e-02,-8.672992140054702759e-02,5.522296950221061707e-02,-7.992714643478393555e-02,3.642853349447250366e-02,-1.040902510285377502e-01,-4.986403509974479675e-02,-4.256760701537132263e-02,4.080587625503540039e-02,6.556990742683410645e-02,1.571907252073287964e-01,-1.238238215446472168e-01,-6.131445616483688354e-02,-1.070229150354862213e-02,-2.960196696221828461e-02,-2.053936123847961426e-01,-1.852346509695053101e-01,-2.162674069404602051e-02,-1.298344582319259644e-01,-1.253623068332672119e-01,-1.742035523056983948e-02,-1.350412815809249878e-01,-7.197824120521545410e-02,5.051530525088310242e-02,-5.605708062648773193e-02,-2.272849082946777344e-01,-3.016632236540317535e-02,5.214669555425643921e-02,4.868537932634353638e-02,-2.234464697539806366e-02,6.179761514067649841e-02,-1.194626986980438232e-01,-8.787351846694946289e-02,5.675385147333145142e-02,-3.985275700688362122e-02,7.857498712837696075e-03,1.831018924713134766e-01,-8.475199341773986816e-02,-5.775229260325431824e-02,-1.750257797539234161e-03,-1.311301738023757935e-01,-3.792844712734222412e-02,-3.259317576885223389e-02,-6.086399406194686890e-02,7.383508980274200439e-02,-3.889749199151992798e-02,-5.083403736352920532e-02,-1.588750332593917847e-01,3.462633118033409119e-02,-1.363668143749237061e-01,-1.339561790227890015e-01,-1.203398182988166809e-01,5.098325759172439575e-02,-3.389745578169822693e-02,-4.986032843589782715e-02,9.626381099224090576e-02,-3.006710857152938843e-02,2.285306155681610107e-02,-1.289121657609939575e-01,1.251092739403247833e-02,9.675512090325355530e-03,-1.765720695257186890e-01,-2.100086957216262817e-01,-2.841809391975402832e-02,5.220128968358039856e-02,4.560641199350357056e-02,1.087548211216926575e-01,6.539055705070495605e-02,-1.137303337454795837e-01,-1.694633364677429199e-01,-4.009908810257911682e-02,3.949050232768058777e-02,-4.137565940618515015e-02,-8.057489991188049316e-02,5.942736566066741943e-02,9.988159686326980591e-02,4.055278748273849487e-02,-1.745515465736389160e-01,9.656320512294769287e-02,5.322657153010368347e-02,2.421147376298904419e-01,1.115760207176208496e-01,3.372068703174591064e-02,1.393515616655349731e-01,9.224058687686920166e-02,1.661459058523178101e-01,1.318258643150329590e-01,3.985467180609703064e-02,5.755323171615600586e-02,-1.018139943480491638e-01,-1.182591170072555542e-01,1.318871080875396729e-01,-1.002100333571434021e-01,2.746743150055408478e-02,1.047734636813402176e-02,1.854849904775619507e-01,-1.366940587759017944e-01,-8.886497467756271362e-02,1.109787151217460632e-01,-1.904490143060684204e-01,-1.439487040042877197e-01,3.754436597228050232e-02,-2.485324889421463013e-01,-7.866863906383514404e-02,1.428034622222185135e-02,-2.156174369156360626e-02,2.224417962133884430e-02,-6.001311913132667542e-02,2.136484086513519287e-01,1.462678760290145874e-01,-1.431802809238433838e-01,8.153668791055679321e-02,-8.065409027040004730e-03,1.065299287438392639e-01,4.984869062900543213e-02,-1.300404593348503113e-02,7.934478111565113068e-03,1.426519174128770828e-02,5.839500576257705688e-02,1.283814907073974609e-01,-1.071851924061775208e-01,9.264571219682693481e-02,-3.949783369898796082e-02,1.105193234980106354e-02,-2.473474852740764618e-02,5.235519632697105408e-02,-4.845791682600975037e-02,1.435845941305160522e-01,-1.054942160844802856e-01,4.519398882985115051e-02,-1.460220217704772949e-01,2.190330624580383301e-01,-1.154093071818351746e-01,-7.268879562616348267e-02,1.667070388793945312e-02,2.710707858204841614e-02,8.874534815549850464e-02,1.409808993339538574e-01,9.390684776008129120e-03,1.238102465867996216e-01,8.854207396507263184e-02,-1.237166523933410645e-01,6.657450646162033081e-02,1.400210894644260406e-02,-7.671526819467544556e-02,7.466364651918411255e-03,-5.537618324160575867e-02,-2.768193744122982025e-02,9.597380459308624268e-02,-2.727644331753253937e-02,-6.208965182304382324e-02,-4.595650732517242432e-02,-2.024439163506031036e-02,1.206010952591896057e-02,1.833755820989608765e-01,-4.657138884067535400e-02,-4.888516291975975037e-02,-2.607598528265953064e-02,8.177141845226287842e-02,-4.483495280146598816e-02,1.503503471612930298e-01,7.086336612701416016e-02,9.737363457679748535e-02,-1.897082664072513580e-02,1.115975081920623779e-01,-3.097280114889144897e-02,-9.725693613290786743e-02,1.080571636557579041e-01,-5.601754039525985718e-02,1.546081304550170898e-01,1.701216697692871094e-01,5.842755734920501709e-02,1.779018044471740723e-01,1.119132563471794128e-01,-1.520380843430757523e-03,-7.418134808540344238e-02,1.343470662832260132e-01,-9.500221908092498779e-02,4.570748656988143921e-02,-1.387388855218887329e-01,1.848720014095306396e-02,7.523042708635330200e-02,6.215584650635719299e-02,6.217188760638237000e-02,1.732828170061111450e-01,1.070141643285751343e-01,-9.708858281373977661e-02,-2.094481736421585083e-01,-1.314482986927032471e-01,1.343185454607009888e-01,8.751204609870910645e-02,-1.108862757682800293e-01,8.410920202732086182e-02,1.144231259822845459e-01,-6.135660037398338318e-02,2.116820514202117920e-01,-2.772302739322185516e-02,1.316581666469573975e-01,3.914442285895347595e-02,1.207693759351968765e-02,-4.469866398721933365e-03,-1.075932011008262634e-01,9.507321566343307495e-02,1.740743517875671387e-01,1.723633557558059692e-01,7.432205229997634888e-02,1.938268542289733887e-01,-1.061917245388031006e-01,-9.130461513996124268e-02,-3.850981220602989197e-02,-2.061111479997634888e-01,-1.326752901077270508e-01,-3.152795881032943726e-02,1.292658001184463501e-01,3.806298971176147461e-02,-1.128386855125427246e-01,1.760910749435424805e-01,1.415556818246841431e-01,5.213268101215362549e-02,-5.960705876350402832e-02,1.501282155513763428e-01,4.926466383039951324e-03,-1.137945987284183502e-02,-7.484985142946243286e-02,-2.628219723701477051e-01,5.622568354010581970e-02,-4.757611826062202454e-02,-1.447069644927978516e-01,-5.620022770017385483e-03,2.344409748911857605e-02,-2.876801416277885437e-02,-2.991992793977260590e-02,6.450656056404113770e-02,-8.136979490518569946e-02,-8.544746041297912598e-02,-1.208774298429489136e-01,-1.649340149015188217e-03,5.223307386040687561e-02,1.333264447748661041e-02,-6.782241165637969971e-02
-1.393632292747497559e-01,-7.839956134557723999e-02,1.768116056919097900e-01,-7.380361855030059814e-02,-1.157487928867340088e-01,1.771294511854648590e-02,-4.195194691419601440e-03,6.691098213195800781e-02,-1.599377393722534180e-02,1.758706122636795044e-01,1.624238640069961548e-01,2.323760241270065308e-01,1.807519420981407166e-02,-7.096455991268157959e-02,-2.055947929620742798e-01,-5.027886480093002319e-02,-9.152437001466751099e-02,-5.832554027438163757e-02,-3.779607638716697693e-02,1.560301147401332855e-02,-1.287487000226974487e-01,-1.221646443009376526e-01,9.688441455364227295e-02,1.761974990367889404e-01,-2.408596314489841461e-02,5.922619998455047607e-02,1.441378295421600342e-01,-1.626288704574108124e-02,-1.495836768299341202e-02,2.980066239833831787e-01,-1.614988222718238831e-02,9.134521707892417908e-03,1.657116040587425232e-02,-1.665688604116439819e-01,-4.785774275660514832e-03,2.383756339550018311e-01,-5.931613221764564514e-02,1.075620725750923157e-01,1.467690169811248779e-01,8.141350001096725464e-02,7.137569785118103027e-02,-2.824621275067329407e-03,1.529121864587068558e-02,-6.832654029130935669e-02,-1.009963601827621460e-01,3.784300759434700012e-02,-7.983840256929397583e-02,-1.090162023901939392e-01,8.127406984567642212e-02,6.214585527777671814e-02,1.047545671463012695e-02,1.407847851514816284e-01,1.144433990120887756e-01,-1.344866678118705750e-02,-1.262505352497100830e-01,-1.799454838037490845e-01,8.531063050031661987e-02,6.246896088123321533e-02,-5.428216606378555298e-02,-7.420349866151809692e-02,-1.082355156540870667e-02,-1.132338028401136398e-02,1.927050501108169556e-01,-5.748238787055015564e-02,-7.721116393804550171e-02,6.927052512764930725e-03,-1.489707231521606445e-01,-8.647552132606506348e-02,2.882400713860988617e-02,-7.893114537000656128e-02,-8.397226035594940186e-02,-7.234394550323486328e-02,3.286879137158393860e-02,-4.475386440753936768e-02,6.930583622306585312e-04,9.778429754078388214e-03,-1.405779123306274414e-01,5.063935369253158569e-02,8.381545543670654297e-02,-1.683457791805267334e-01,-3.245535120368003845e-02,-1.123782154172658920e-02,-1.507561188191175461e-03,1.691936701536178589e-01,-7.290700823068618774e-02,9.202037751674652100e-02,1.340106278657913208e-01,-9.709288179874420166e-02,6.447697523981332779e-03,-1.064114719629287720e-01,-6.974999606609344482e-02,-1.563052833080291748e-02,4.632583819329738617e-03,-7.017479091882705688e-02,-1.215347349643707275e-01,-1.113500893115997314e-01,-5.991982296109199524e-02,-7.613816298544406891e-03,-6.273066997528076172e-02,7.418373227119445801e-02,8.813428133726119995e-02,1.121115311980247498e-01,-5.432521551847457886e-02,1.572266966104507446e-01,5.670308694243431091e-02,1.764236390590667725e-01,-1.469297558069229126e-01,-4.376406595110893250e-02,9.336210042238235474e-02,1.522045433521270752e-01,-2.451060339808464050e-03,1.125995069742202759e-02,3.962351754307746887e-02,1.249138265848159790e-01,2.868952043354511261e-02,9.032675065100193024e-03,1.047310307621955872e-01,-2.105921804904937744e-01,-1.348653882741928101e-01,1.476357597857713699e-02,-6.472838670015335083e-02,3.272097930312156677e-02,4.658458009362220764e-02,1.356154680252075195e-01,1.161955967545509338e-01,8.251312375068664551e-02,-1.128089651465415955e-01,5.108639597892761230e-02,-1.039960533380508423e-01,-9.107910096645355225e-02,-5.732448771595954895e-02,-3.804036229848861694e-02,-1.425257921218872070e-01,-2.096586376428604126e-01,-3.022828996181488037e-01,-2.197078913450241089e-01,-1.284731775522232056e-01,-4.502491652965545654e-02,-1.107555478811264038e-01,-8.234499394893646240e-02,1.260613501071929932e-01,-1.304352879524230957e-01,-1.187139451503753662e-01,-4.952439293265342712e-02,7.491906639188528061e-03,2.638842724263668060e-02,-4.426436871290206909e-02,-1.004889830946922302e-01,3.478697687387466431e-02,-5.382706224918365479e-02,-1.301231235265731812e-01,1.337917055934667587e-02,4.317096993327140808e-02,-1.321865767240524292e-01,-2.425977587699890137e-02,1.040065214037895203e-01,-2.019422054290771484e-01,-4.158558323979377747e-02,-2.060957066714763641e-02,3.260098025202751160e-02,-1.293900609016418457e-01,1.110289171338081360e-01,-2.460117489099502563e-01,-8.483450114727020264e-02,1.234912052750587463e-01,-6.536607444286346436e-02,-7.759070396423339844e-02,2.242569178342819214e-01,-1.411660164594650269e-01,5.051392316818237305e-02,1.637160629034042358e-01,-2.592594921588897705e-01,4.698432236909866333e-02,7.858079671859741211e-02,-1.196291744709014893e-01,-1.369858384132385254e-01,1.687440723180770874e-01,-2.841803133487701416e-01,-3.982045128941535950e-02,2.776253223419189453e-01,-5.831166356801986694e-02,-2.821797318756580353e-02,-5.834237113595008850e-02,-7.586965709924697876e-02,2.133346050977706909e-01,2.483956515789031982e-01,1.170405000448226929e-01,6.954874843358993530e-02,-1.128698326647281647e-02,-2.235284000635147095e-01,-1.541073666885495186e-03,-2.919138059951364994e-04,2.669720351696014404e-02,-1.461562961339950562e-01,6.236486881971359253e-02,1.714402288198471069e-01,1.717661768198013306e-01,-8.369495719671249390e-02,1.088062450289726257e-01,-2.809747867286205292e-02,2.312258072197437286e-02,-6.379989534616470337e-02,-4.581361636519432068e-02,-3.858690708875656128e-02,6.961124390363693237e-02,-7.474561780691146851e-02,-6.645975261926651001e-02,-1.655655913054943085e-02,-6.931144744157791138e-02,-7.279927283525466919e-02,-1.619183123111724854e-01,-5.182307586073875427e-02,-7.914956659078598022e-02,-7.460145652294158936e-02,-7.585027813911437988e-02,-4.111536964774131775e-02,1.637192070484161377e-01,1.313851028680801392e-01,-8.431382477283477783e-03,1.922889240086078644e-02,6.948786973953247070e-02,2.104055322706699371e-02,-3.802032023668289185e-02,7.087103277444839478e-02,9.129934757947921753e-02,1.852654814720153809e-01,4.194320738315582275e-02,1.308383196592330933e-01,9.018173068761825562e-02,-1.682481169700622559e-01,-6.385924667119979858e-02,-5.005761608481407166e-02,6.952185183763504028e-02,-2.079756408929824829e-01,-6.841912865638732910e-02,-1.470135748386383057e-01,-6.357648223638534546e-02,-1.425550729036331177e-01,-1.050865799188613892e-01,-4.347375780344009399e-02,1.661927439272403717e-02,-9.966597706079483032e-02,-7.124597579240798950e-02,-1.149986311793327332e-01,-2.859080135822296143e-01,-7.061315327882766724e-02,1.931316219270229340e-02,-1.136476472020149231e-01,1.041532233357429504e-01,1.065899804234504700e-01,4.913835972547531128e-02,1.168915629386901855e-01,1.570837013423442841e-02,-1.634357571601867676e-01,-9.222457557916641235e-02,-3.173102438449859619e-02,-8.001817017793655396e-02,-2.433166466653347015e-02,-4.788055270910263062e-02,-7.373781502246856689e-02,-1.713879704475402832e-01,-1.950710825622081757e-02,-2.549965120851993561e-02,-2.388283796608448029e-02,2.284174785017967224e-02,-3.682419657707214355e-02,-1.769082695245742798e-01,-1.765449158847332001e-02,-4.354229941964149475e-02,-5.428808182477951050e-02,6.051044166088104248e-02,-6.530035287141799927e-02,-1.811041682958602905e-02,-7.609211653470993042e-02,1.494537144899368286e-01,-1.886809058487415314e-02,9.799601137638092041e-02,-7.299160212278366089e-02,1.495044492185115814e-02,-1.598805040121078491e-01,3.048625215888023376e-02,-1.387032866477966309e-01,-6.565693765878677368e-02,-1.053282245993614197e-01,1.281244903802871704e-01,1.441477239131927490e-01,-1.649162545800209045e-02,8.677773922681808472e-02
-1.627585291862487793e-01,4.466727003455162048e-02,9.899726510047912598e-02,-1.163108795881271362e-01,-2.875425294041633606e-02,5.376216396689414978e-02,-1.271823793649673462e-01,4.096446186304092407e-02,-4.073313251137733459e-02,1.142771542072296143e-01,2.345798164606094360e-02,1.834576427936553955e-01,1.174179371446371078e-02,1.170572936534881592e-01,5.173068121075630188e-02,2.345457822084426880e-01,9.492196142673492432e-02,8.301850408315658569e-02,-9.723313152790069580e-02,-1.957990527153015137e-01,-4.208168387413024902e-02,-1.164542511105537415e-01,-4.812008701264858246e-03,2.523300983011722565e-02,-8.850305527448654175e-02,8.351486176252365112e-03,8.369515091180801392e-02,-6.894436478614807129e-02,3.163416311144828796e-02,-1.157681718468666077e-01,-4.404799640178680420e-02,-1.290554106235504150e-01,1.307705510407686234e-02,-2.917768061161041260e-02,-9.526374936103820801e-02,-2.557209460064768791e-03,-1.261811703443527222e-01,-7.765159755945205688e-02,1.537088584154844284e-02,-1.801025569438934326e-01,-3.179900348186492920e-03,1.154696121811866760e-01,1.378300935029983521e-01,-6.219847872853279114e-02,1.309710741043090820e-01,-3.639341518282890320e-02,-1.332983672618865967e-01,2.555548250675201416e-01,1.560714468359947205e-02,-9.839628636837005615e-02,-1.790175773203372955e-02,1.376396510750055313e-02,1.574753969907760620e-02,1.498131006956100464e-01,-1.187005415558815002e-01,5.200253799557685852e-02,2.507044747471809387e-02,-5.925481766462326050e-02,-8.895304054021835327e-02,8.526282757520675659e-02,-9.127449244260787964e-03,-1.365412026643753052e-01,7.404766511172056198e-04,-5.374062433838844299e-02,-5.215869098901748657e-02,1.137451976537704468e-01,-1.170786768198013306e-01,-1.616059988737106323e-01,-7.530125230550765991e-02,-1.244639679789543152e-01,-4.018170014023780823e-02,1.250080764293670654e-01,-1.357515305280685425e-01,1.080188667401671410e-03,-3.197098150849342346e-02,-8.811797201633453369e-02,1.517500355839729309e-02,-2.237240970134735107e-02,1.178552582859992981e-01,1.218203082680702209e-01,-1.361583545804023743e-02,3.883828222751617432e-02,-8.951151371002197266e-02,-1.697381883859634399e-01,-6.235385313630104065e-02,-1.390838474035263062e-01,-1.427705585956573486e-01,-8.918873965740203857e-02,1.035141944885253906e-01,1.606861650943756104e-01,7.740566134452819824e-02,2.935204282402992249e-02,-5.228025093674659729e-02,1.407512575387954712e-01,4.685477167367935181e-02,-1.372571885585784912e-01,6.441464275121688843e-02,-1.048015281558036804e-01,-8.035342395305633545e-02,8.071012794971466064e-02,-6.769330054521560669e-02,6.255277246236801147e-02,1.738640367984771729e-01,1.015472337603569031e-01,-8.780395239591598511e-02,-8.026075363159179688e-02,-3.402779251337051392e-02,4.846169799566268921e-02,-1.790574938058853149e-01,-7.066392153501510620e-02,6.372562795877456665e-02,6.610820442438125610e-02,5.747113004326820374e-02,-7.971208542585372925e-02,-9.772136062383651733e-02,1.098380163311958313e-01,1.998030394315719604e-01,-1.196398809552192688e-01,7.383504509925842285e-02,5.107228830456733704e-02,-4.112386330962181091e-02,-1.930093020200729370e-02,-2.866623736917972565e-02,-8.427138626575469971e-02,-2.727521769702434540e-02,2.378554791212081909e-01,-9.120006114244461060e-02,-8.526080101728439331e-02,-1.663794666528701782e-01,-2.379995882511138916e-01,-1.498220488429069519e-02,-1.367306858301162720e-01,-2.680876664817333221e-02,-1.392821520566940308e-01,-1.232304498553276062e-01,-2.511138319969177246e-01,-9.767145663499832153e-02,-2.386802062392234802e-02,-4.349349811673164368e-02,-7.337590306997299194e-02,1.489822473376989365e-02,-7.504758238792419434e-02,1.289234012365341187e-01,6.764369457960128784e-02,1.932949572801589966e-01,-2.758820913732051849e-02,-2.180314809083938599e-01,1.355579122900962830e-03,1.784394681453704834e-02,-8.003447949886322021e-02,-1.346412450075149536e-01,-4.247370362281799316e-02,7.115818560123443604e-03,-7.744921743869781494e-02,-5.862658843398094177e-02,1.100561395287513733e-01,3.590413928031921387e-02,7.180266827344894409e-02,3.064094297587871552e-02,-1.503521800041198730e-01,4.458408430218696594e-02,1.255985051393508911e-01,-3.642072202637791634e-03,1.110176220536231995e-01,3.361965119838714600e-01,-1.637497246265411377e-01,-1.158704906702041626e-01,1.783653199672698975e-01,-1.197981834411621094e-01,-4.368536919355392456e-02,1.474564671516418457e-01,-2.343762665987014771e-01,-2.481484413146972656e-01,-1.553687602281570435e-01,-1.313449144363403320e-01,-2.011006027460098267e-01,-1.681743562221527100e-01,-2.224435210227966309e-01,-6.596829276531934738e-03,-5.545567721128463745e-02,6.186624616384506226e-02,-1.435813261196017265e-03,5.834183469414710999e-02,-1.004349440336227417e-01,6.599871814250946045e-02,1.438808348029851913e-02,1.061173528432846069e-01,1.484739482402801514e-01,2.052731961011886597e-01,-2.202145308256149292e-01,-1.030347496271133423e-01,3.218384832143783569e-02,-3.861989080905914307e-02,-3.607854992151260376e-02,-5.992619786411523819e-03,-3.474894538521766663e-02,-1.555771976709365845e-01,2.029751837253570557e-01,-1.869678348302841187e-01,-2.556548118591308594e-01,-1.124042272567749023e-02,8.913283050060272217e-02,-2.523268759250640869e-02,1.434660516679286957e-02,-8.997507393360137939e-02,-1.970984637737274170e-01,-6.677219271659851074e-02,-4.465936496853828430e-02,9.346632659435272217e-02,3.700997680425643921e-02,-1.411718428134918213e-01,-3.308394551277160645e-02,-5.570857226848602295e-02,-2.926949597895145416e-02,2.155510894954204559e-02,-2.143535017967224121e-02,9.587192535400390625e-02,-6.281064450740814209e-02,-7.580851763486862183e-02,1.366222947835922241e-01,-1.989484205842018127e-02,-7.325355708599090576e-02,2.316371947526931763e-01,2.023646980524063110e-01,-1.334620714187622070e-01,9.132117033004760742e-02,-4.375209286808967590e-02,1.255083084106445312e-01,-1.270797997713088989e-01,8.061829954385757446e-02,5.558043345808982849e-02,-4.120131954550743103e-02,-1.092823520302772522e-01,-1.492019742727279663e-01,2.525969408452510834e-02,4.516355320811271667e-02,5.229981616139411926e-02,-2.137081511318683624e-02,-8.274317532777786255e-02,-1.279640384018421173e-02,2.543238401412963867e-01,8.099400997161865234e-02,-4.572052508592605591e-02,-1.469343453645706177e-01,-4.589493945240974426e-02,-4.570823907852172852e-02,5.962184816598892212e-02,6.523869931697845459e-02,-7.652318570762872696e-03,3.123539984226226807e-01,1.950318962335586548e-01,7.375954836606979370e-02,1.954701915383338928e-02,-8.241119980812072754e-02,6.269878149032592773e-02,5.777512490749359131e-02,1.255451980978250504e-02,3.093391284346580505e-02,2.199835889041423798e-02,-1.053739264607429504e-01,-6.799983233213424683e-02,4.869280755519866943e-02,7.501529157161712646e-02,4.740616679191589355e-02,1.472884118556976318e-01,-2.260415814816951752e-02,5.395657569169998169e-02,3.494857251644134521e-02,-6.320395320653915405e-02,-2.238281629979610443e-02,-2.030734717845916748e-01,-1.203029006719589233e-01,-3.460678085684776306e-02,5.848227441310882568e-02,2.209831215441226959e-02,-6.763441860675811768e-02,1.181737855076789856e-01,1.043206974864006042e-01,8.343501389026641846e-02,-1.783344000577926636e-01,-3.681137785315513611e-02,1.037164703011512756e-01,4.812835529446601868e-02,6.031546369194984436e-02,3.064088895916938782e-02,-4.799904674291610718e-02,6.962306797504425049e-02,6.941782683134078979e-02
1.032004952430725098e-01,9.410133212804794312e-02,1.944377832114696503e-02,4.186389967799186707e-03,4.480464383959770203e-02,-8.485411293804645538e-03,1.346012577414512634e-02,-4.988575726747512817e-02,-7.194681465625762939e-02,-2.218221779912710190e-04,3.991822898387908936e-02,-5.715714767575263977e-02,6.925878673791885376e-02,5.571287870407104492e-02,1.082007363438606262e-01,7.726268470287322998e-02,1.126882955431938171e-01,-4.379260167479515076e-02,5.347515270113945007e-02,3.799904510378837585e-02,-1.106762588024139404e-01,8.565144985914230347e-02,8.339028060436248779e-02,-6.906347721815109253e-02,-4.518943279981613159e-02,6.912510842084884644e-02,-8.214338682591915131e-03,1.123323068022727966e-01,1.350328326225280762e-01,-5.905793607234954834e-02,1.270789355039596558e-01,-1.122215483337640762e-02,3.334217891097068787e-02,-1.199800055474042892e-02,-7.756077498197555542e-02,-1.081126183271408081e-01,-2.434053458273410797e-02,-1.048628464341163635e-01,-6.479214131832122803e-02,-9.242368105333298445e-05,-5.589358508586883545e-02,-1.017354205250740051e-01,-6.859610974788665771e-02,-2.095814198255538940e-01,-1.444866061210632324e-01,-1.564085036516189575e-01,3.972929716110229492e-02,-8.376255631446838379e-02,8.569346368312835693e-02,6.150839850306510925e-02,1.094153299927711487e-01,-7.402365654706954956e-02,5.248393863439559937e-02,-2.777196466922760010e-02,1.387187838554382324e-01,3.601319342851638794e-02,-2.024121284484863281e-01,-7.725163549184799194e-02,-9.366941452026367188e-02,1.327535808086395264e-01,9.129033237695693970e-02,3.109145350754261017e-02,7.974726706743240356e-02,-4.215614497661590576e-02,7.975105196237564087e-02,3.733501210808753967e-02,-4.681817814707756042e-02,5.699357017874717712e-03,-7.117149978876113892e-02,1.434258073568344116e-01,-6.197898462414741516e-02,-4.018981382250785828e-02,-4.038979113101959229e-02,3.429660573601722717e-02,4.417310282588005066e-02,1.531531568616628647e-02,1.424846500158309937e-01,1.442298442125320435e-01,2.651060000061988831e-02,1.102552860975265503e-01,-5.764201283454895020e-02,-1.388345360755920410e-01,-1.292507052421569824e-01,4.188824445009231567e-02,1.461039297282695770e-02,2.454006113111972809e-02,-8.297898620367050171e-02,1.222511008381843567e-01,-3.431830927729606628e-02,4.117488488554954529e-02,8.022774755954742432e-02,-1.534918248653411865e-01,-8.762446045875549316e-02,-3.754809498786926270e-02,-9.575536847114562988e-02,2.659721858799457550e-02,5.552009865641593933e-02,-1.344156414270401001e-01,1.679166406393051147e-02,1.075734570622444153e-01,4.648674279451370239e-02,1.525505483150482178e-01,3.759153932332992554e-02,-2.436425071209669113e-03,1.596520990133285522e-01,6.373867392539978027e-02,4.452910274267196655e-02,9.253711998462677002e-02,4.977664351463317871e-02,-7.960373163223266602e-02,-2.568185329437255859e-02,2.413791418075561523e-02,-9.272608906030654907e-02,-8.522800356149673462e-02,1.342188417911529541e-01,1.295833289623260498e-02,9.612113982439041138e-02,3.705127630382776260e-03,-1.257341653108596802e-01,-6.932576745748519897e-02,-3.871817886829376221e-02,-5.964462831616401672e-02,-3.869591280817985535e-02,-2.012803107500076294e-01,4.997691884636878967e-02,-1.412348747253417969e-01,7.639689370989799500e-03,3.206716105341911316e-02,2.088958919048309326e-01,-1.069032475352287292e-01,1.411936879158020020e-01,-1.755412295460700989e-02,-1.104565411806106567e-01,1.513818055391311646e-01,1.685637384653091431e-01,-5.979380384087562561e-02,1.127938851714134216e-01,-2.688114717602729797e-02,-1.261977106332778931e-01,8.599302731454372406e-03,1.308063864707946777e-01,7.207570225000381470e-02,-1.408588886260986328e-01,3.801230341196060181e-02,-6.127776578068733215e-02,-6.031193211674690247e-02,-1.525420993566513062e-01,5.874996259808540344e-02,-4.656713083386421204e-02,1.261732429265975952e-01,-1.275275051593780518e-01,-4.705852642655372620e-02,-1.593680381774902344e-01,1.939241737127304077e-01,1.336144655942916870e-01,1.527441442012786865e-01,2.211674302816390991e-01,-3.591501712799072266e-02,-5.576364323496818542e-02,7.583526521921157837e-02,1.140703260898590088e-01,5.403786897659301758e-02,2.656272798776626587e-02,6.506367772817611694e-02,-9.704530239105224609e-03,9.581778943538665771e-02,7.651805132627487183e-02,-3.175418823957443237e-02,-9.671357274055480957e-02,-9.484679996967315674e-02,4.909583553671836853e-02,-9.025435149669647217e-02,1.789183765649795532e-01,-1.691612303256988525e-01,-2.795991487801074982e-02,1.424020081758499146e-01,-5.408607050776481628e-02,1.091509610414505005e-01,2.547617442905902863e-02,-5.261412635445594788e-02,-1.084282472729682922e-01,-1.842379197478294373e-02,-1.270169205963611603e-02,9.657999128103256226e-02,-1.512216329574584961e-01,8.262950927019119263e-03,9.573718160390853882e-02,-1.224732846021652222e-01,-2.632690779864788055e-02,-6.237985566258430481e-03,-1.800113171339035034e-02,-7.375407218933105469e-02,-5.749678239226341248e-02,2.732732333242893219e-02,-9.101746231317520142e-02,9.545078128576278687e-02,-1.023384481668472290e-01,-2.750919200479984283e-02,7.762557268142700195e-02,-9.905496984720230103e-02,1.819910854101181030e-02,2.227425575256347656e-02,4.703675955533981323e-02,2.706203795969486237e-02,5.485284700989723206e-02,4.632648080587387085e-02,-1.130134761333465576e-01,-1.504493877291679382e-02,-6.030078977346420288e-02,7.983636111021041870e-02,6.231208518147468567e-02,1.029501017183065414e-02,-8.052310906350612640e-03,-9.368450939655303955e-02,1.824202984571456909e-01,-2.192323207855224609e-01,1.225100457668304443e-01,-1.791377514600753784e-01,1.081896945834159851e-01,-2.707062475383281708e-02,-7.305963896214962006e-03,-4.112820327281951904e-02,6.082790717482566833e-02,-1.762825101613998413e-01,7.091788947582244873e-02,1.481318771839141846e-01,1.012097671627998352e-01,2.909844042733311653e-04,-7.206424325704574585e-02,1.399937421083450317e-01,-6.634312868118286133e-02,2.581166326999664307e-01,1.162182465195655823e-01,-1.524864733219146729e-01,-1.992743648588657379e-02,-1.134115308523178101e-01,-1.272815763950347900e-01,6.690605729818344116e-02,-4.982045665383338928e-02,-2.832879126071929932e-02,-4.201554134488105774e-02,2.094959281384944916e-02,-5.820414796471595764e-02,3.429497033357620239e-02,-7.440999150276184082e-02,-2.186395041644573212e-02,-4.236451163887977600e-02,-5.246632173657417297e-02,-2.297012209892272949e-01,-1.745948940515518188e-01,-1.642449051141738892e-01,-1.976807266473770142e-01,1.428886651992797852e-01,1.284485757350921631e-01,9.195081144571304321e-02,4.776573553681373596e-02,-7.191274315118789673e-02,-8.615366369485855103e-02,1.053746119141578674e-01,5.451389029622077942e-02,-5.809137597680091858e-02,-3.117075935006141663e-02,3.731675818562507629e-02,-5.673702806234359741e-03,8.644226938486099243e-02,6.254362314939498901e-02,9.362982958555221558e-02,7.013642787933349609e-02,1.513706743717193604e-01,1.155473366379737854e-01,1.819253712892532349e-01,-2.110742591321468353e-02,-1.659051328897476196e-01,2.910269498825073242e-01,-1.160541474819183350e-01,-1.339277774095535278e-01,-5.532418191432952881e-02,-7.964769750833511353e-02,-7.325857877731323242e-02,-1.422746181488037109e-01,-1.199668198823928833e-01,1.852457970380783081e-02,-5.818814411759376526e-02,-1.098374351859092712e-01,-9.476137906312942505e-02,4.235864430665969849e-02,-2.203782498836517334e-01,-9.201742708683013916e-02
-1.885322928428649902e-01,-2.939356863498687744e-02,-3.766768425703048706e-02,-1.300604790449142456e-01,7.059323042631149292e-02,4.560300731100142002e-04,-9.443679591640830040e-04,8.544557541608810425e-02,1.212865933775901794e-01,-6.944274902343750000e-02,7.343813776969909668e-02,-8.596611022949218750e-02,-4.220616072416305542e-02,6.971019506454467773e-02,-1.806813292205333710e-02,-6.514641642570495605e-02,-2.340639755129814148e-02,-8.076764643192291260e-02,-1.480358093976974487e-01,-3.671669587492942810e-02,-2.294237464666366577e-01,-1.914196312427520752e-01,3.579159080982208252e-02,6.628349423408508301e-02,-9.405260533094406128e-02,3.566689789295196533e-03,1.165153756737709045e-01,1.219243276864290237e-02,7.899494469165802002e-02,5.685973539948463440e-02,1.306565701961517334e-01,3.908101841807365417e-02,7.570990920066833496e-02,-1.176758762449026108e-02,5.120806768536567688e-02,5.375983566045761108e-02,8.646285533905029297e-02,1.421811431646347046e-01,1.454685926437377930e-01,-2.693039737641811371e-02,2.822441048920154572e-02,-3.516452759504318237e-02,1.408791542053222656e-01,3.683236613869667053e-02,2.632083185017108917e-02,-7.166614383459091187e-02,4.667263943701982498e-03,2.306174337863922119e-01,-4.369384050369262695e-02,-3.892187029123306274e-02,-7.957911491394042969e-02,5.614648386836051941e-02,3.250072598457336426e-01,1.133890151977539062e-01,-6.822929531335830688e-02,-4.607745260000228882e-02,-3.694928064942359924e-02,6.515074521303176880e-02,-5.781938508152961731e-02,-1.592118740081787109e-01,6.396050006151199341e-02,-1.264767646789550781e-01,-3.486336022615432739e-02,1.518463194370269775e-01,-5.784371867775917053e-02,-1.490851491689682007e-01,-9.459885209798812866e-02,2.562758140265941620e-02,2.192626520991325378e-02,1.434195879846811295e-02,8.394628018140792847e-02,-7.608791440725326538e-02,-1.594610512256622314e-02,8.118686079978942871e-02,2.486175624653697014e-03,-2.168706618249416351e-02,3.097674623131752014e-02,-5.426435545086860657e-02,-3.270778059959411621e-02,-7.463113218545913696e-02,-8.432376489508897066e-06,3.034837543964385986e-01,1.977255940437316895e-01,1.277443319559097290e-01,1.807353496551513672e-01,8.725490421056747437e-02,2.452326118946075439e-01,4.013406485319137573e-02,2.774546109139919281e-02,1.266018450260162354e-01,1.226327195763587952e-01,2.539157401770353317e-03,7.879769802093505859e-02,-2.198448590934276581e-02,-7.576697319746017456e-02,-2.522052079439163208e-02,-1.005984097719192505e-01,-6.544102914631366730e-03,7.291047275066375732e-02,-1.003239005804061890e-01,-7.305641472339630127e-02,5.048299580812454224e-02,-1.626659370958805084e-02,1.913601309061050415e-01,7.559422403573989868e-02,1.185823976993560791e-01,3.196572652086615562e-03,1.731418669223785400e-01,-1.922891885042190552e-01,-1.807282269001007080e-01,-1.631654202938079834e-01,-7.116439193487167358e-02,-2.640813887119293213e-01,-2.013045251369476318e-01,7.703392207622528076e-02,-1.578114330768585205e-01,-9.717325866222381592e-02,2.834048122167587280e-02,7.291211187839508057e-02,4.588888958096504211e-02,-5.099990963935852051e-02,1.804700791835784912e-01,-7.308868318796157837e-02,4.395630210638046265e-02,-6.352329254150390625e-02,-5.361238121986389160e-02,7.569745928049087524e-02,-1.376388072967529297e-01,-5.658713728189468384e-02,2.042670547962188721e-01,-1.394703984260559082e-01,9.261622279882431030e-02,1.569443047046661377e-01,-2.245422638952732086e-02,3.706450387835502625e-02,-5.688475444912910461e-02,8.306333422660827637e-02,-2.385316044092178345e-02,-1.003214996308088303e-02,4.474606737494468689e-02,1.391395628452301025e-01,5.605437979102134705e-02,3.861029818654060364e-02,-2.653326466679573059e-02,-3.715479373931884766e-02,-2.063325345516204834e-01,-1.906658411026000977e-01,-4.605188965797424316e-02,-2.238952219486236572e-01,-1.907004415988922119e-01,-1.346467435359954834e-01,-1.826086342334747314e-01,-1.063738167285919189e-01,-6.146178022027015686e-02,-5.980781279504299164e-03,4.022743087261915207e-03,6.647546589374542236e-02,-1.139041315764188766e-02,-2.225115895271301270e-02,1.130538657307624817e-01,1.584640443325042725e-01,1.031382195651531219e-02,5.646088346838951111e-02,-7.422877848148345947e-02,1.535502225160598755e-01,2.801817841827869415e-02,1.579729318618774414e-01,4.367537330836057663e-03,2.770693600177764893e-02,8.496806025505065918e-02,-1.089470647275447845e-02,-5.049206316471099854e-03,-3.108585067093372345e-02,-5.444854125380516052e-02,1.224162578582763672e-01,-5.837892740964889526e-02,-2.231468111276626587e-01,-1.422013938426971436e-01,9.057057648897171021e-02,-9.320324286818504333e-03,3.237081319093704224e-02,-1.007945314049720764e-01,-7.414700835943222046e-02,1.940302364528179169e-02,5.419478565454483032e-02,-1.814913563430309296e-02,3.958483785390853882e-02,1.335014700889587402e-01,1.033983454108238220e-01,-7.536292821168899536e-02,-9.803075809031724930e-04,-1.106848195195198059e-01,2.601799927651882172e-02,7.661377638578414917e-02,6.412222236394882202e-02,7.427330315113067627e-02,5.950967594981193542e-02,7.344177365303039551e-02,-4.789057001471519470e-02,-6.441934406757354736e-02,-1.368632167577743530e-01,7.599388808012008667e-02,2.414333075284957886e-02,-2.183081209659576416e-02,1.478021740913391113e-01,1.163269355893135071e-01,-1.483274251222610474e-01,-4.171241819858551025e-02,-4.919605329632759094e-02,7.956678420305252075e-02,-7.727532833814620972e-02,-2.221507392823696136e-02,-1.062403693795204163e-01,-7.520320266485214233e-02,-9.730251133441925049e-02,-5.720052868127822876e-03,6.020477786660194397e-02,-1.938738524913787842e-01,-6.092812865972518921e-02,-1.032858621329069138e-02,-1.306720823049545288e-01,5.490245297551155090e-02,5.167176946997642517e-03,7.529377471655607224e-03,-8.210720866918563843e-02,-1.381422951817512512e-02,1.599889248609542847e-01,-5.776235833764076233e-02,1.728437654674053192e-02,-4.752885922789573669e-02,9.549698978662490845e-02,-2.108199708163738251e-02,1.388554424047470093e-01,-1.365018635988235474e-01,1.005790904164314270e-01,5.494708195328712463e-02,1.435110718011856079e-01,-2.017159946262836456e-02,-8.849693834781646729e-02,-3.408147022128105164e-02,-1.668462306261062622e-01,-1.061707809567451477e-01,1.555730402469635010e-01,2.126560173928737640e-02,2.122748941183090210e-01,1.754064261913299561e-01,6.247923150658607483e-02,1.441341340541839600e-01,1.346511393785476685e-01,1.229762732982635498e-01,6.457724422216415405e-02,-5.388722196221351624e-02,-4.792781081050634384e-03,1.211932897567749023e-01,-6.698468327522277832e-02,-1.350107491016387939e-01,-8.084472268819808960e-02,-5.231614410877227783e-02,-5.361486971378326416e-02,-1.168018952012062073e-01,1.011780276894569397e-01,-1.582814157009124756e-01,-4.055619239807128906e-02,-1.134665403515100479e-02,1.043187901377677917e-01,1.366361044347286224e-02,-3.999916370958089828e-03,9.814497083425521851e-02,-4.766538739204406738e-02,-2.547609247267246246e-02,1.022228002548217773e-01,2.284836582839488983e-02,-1.434292346239089966e-01,-1.231833472847938538e-01,-9.006182104349136353e-02,-1.519638597965240479e-01,-7.501272857189178467e-02,-5.843409523367881775e-02,-6.914598494768142700e-02,5.035641044378280640e-02,-9.701956296339631081e-04,-4.812911897897720337e-02,-1.438149251043796539e-02,-1.148093044757843018e-01,8.520405739545822144e-02,5.692890658974647522e-02,5.721965059638023376e-02,1.662893407046794891e-02
1.316038332879543304e-02,1.370580494403839111e-01,-2.641950845718383789e-01,7.832768559455871582e-02,1.687749028205871582e-01,-1.499431282281875610e-01,-7.116670906543731689e-02,8.946879953145980835e-02,-1.717268675565719604e-01,-9.611744433641433716e-02,-1.014043316245079041e-01,-6.548642367124557495e-02,-1.131954323500394821e-02,6.227350234985351562e-02,-1.286931186914443970e-01,2.921947278082370758e-02,-3.846778348088264465e-02,-1.816721856594085693e-01,1.024972051382064819e-01,-3.542059659957885742e-02,3.502680361270904541e-02,1.389927417039871216e-01,-1.298955529928207397e-01,-1.777305603027343750e-01,1.652838848531246185e-02,-1.802554726600646973e-01,-1.113853007555007935e-01,-3.528640791773796082e-02,-6.572207808494567871e-02,-1.283767819404602051e-01,-4.895166680216789246e-02,-1.563081443309783936e-01,-5.330618098378181458e-02,-9.312821924686431885e-02,2.486634813249111176e-02,-4.697295278310775757e-02,-6.079727318137884140e-03,-1.189593300223350525e-01,-2.029383368790149689e-02,-2.696141973137855530e-02,-3.814919292926788330e-02,1.230382770299911499e-01,-1.576138311065733433e-05,9.838534891605377197e-02,1.300298720598220825e-01,-6.033673509955406189e-02,-2.083502262830734253e-01,-6.661326438188552856e-02,-1.608564853668212891e-01,-1.959841400384902954e-01,-1.393541395664215088e-01,-1.647803783416748047e-01,-1.662873774766921997e-01,-3.190685436129570007e-02,-1.152196004986763000e-01,-1.830447651445865631e-02,5.369580816477537155e-03,1.354577671736478806e-02,-5.246343463659286499e-02,1.011092737317085266e-01,-8.709178864955902100e-02,-4.977447167038917542e-02,-5.968208611011505127e-02,1.933307498693466187e-01,4.225185140967369080e-02,-6.498827040195465088e-02,-5.411162227392196655e-02,-1.184925138950347900e-01,4.193536564707756042e-02,-1.249999031424522400e-01,9.903515130281448364e-02,-1.884103566408157349e-01,-3.485087677836418152e-02,5.692956596612930298e-02,-7.244616001844406128e-02,8.710609376430511475e-02,6.754355132579803467e-02,5.882244091480970383e-03,9.113190695643424988e-03,-8.250576443970203400e-03,-2.048700302839279175e-01,5.289689823985099792e-02,1.031462773680686951e-01,5.432119593024253845e-02,-2.148777544498443604e-01,-1.670460999011993408e-01,1.060666739940643311e-01,2.822172455489635468e-02,-7.343805581331253052e-02,7.726471871137619019e-02,-1.008356064558029175e-01,1.727002710103988647e-01,2.894677966833114624e-02,-9.664545953273773193e-02,1.029378920793533325e-01,-3.678814321756362915e-02,-3.521319478750228882e-02,2.658292651176452637e-01,9.552009403705596924e-02,1.526452600955963135e-01,4.448611661791801453e-02,1.415420323610305786e-01,-1.327362656593322754e-01,1.671616137027740479e-01,-9.544765949249267578e-02,4.896029084920883179e-02,1.244999095797538757e-01,-3.285950049757957458e-02,1.395255625247955322e-01,-3.585140779614448547e-02,-1.836622804403305054e-01,1.164334341883659363e-01,9.284494817256927490e-02,-1.934452354907989502e-01,-1.759530045092105865e-02,8.720073848962783813e-03,-3.576326370239257812e-02,-1.440185010433197021e-01,-4.826241731643676758e-02,-5.827219039201736450e-02,7.462149485945701599e-03,-1.826637685298919678e-01,-1.508371680974960327e-01,-1.438196152448654175e-01,-1.877798698842525482e-02,2.911107987165451050e-02,-8.154855668544769287e-02,-1.279235333204269409e-01,2.412806451320648193e-01,-1.117347329854965210e-01,3.952437266707420349e-02,6.325664371252059937e-02,6.679318845272064209e-02,5.909747630357742310e-02,-6.561860442161560059e-02,-3.674262017011642456e-02,1.668650284409523010e-02,-2.165102958679199219e-01,-1.589024998247623444e-02,-1.595897972583770752e-01,-9.266291558742523193e-02,-2.157836453989148140e-03,4.339641332626342773e-02,-9.393654763698577881e-02,-1.598575338721275330e-02,6.469897925853729248e-02,-1.561885178089141846e-01,7.261203974485397339e-02,8.515115827322006226e-03,-1.692740023136138916e-01,-1.662216708064079285e-02,-6.280642747879028320e-02,6.521225720643997192e-02,9.923299401998519897e-02,7.594989612698554993e-03,-4.234244115650653839e-03,8.543723076581954956e-02,-1.281031519174575806e-01,3.271895647048950195e-02,-1.611827756278216839e-03,-9.133230894804000854e-02,-9.298048913478851318e-02,-9.940114617347717285e-02,-1.276920884847640991e-01,-8.391468436457216740e-04,-1.818455755710601807e-01,-3.109270893037319183e-02,-1.381412148475646973e-01,3.846551058813929558e-03,-9.998445212841033936e-02,-5.715620890259742737e-02,1.004437953233718872e-01,1.086166054010391235e-01,-4.597641155123710632e-02,9.713451564311981201e-02,4.211842268705368042e-02,6.096021737903356552e-03,-8.791309595108032227e-02,-1.952162384986877441e-01,-2.647913098335266113e-01,-7.451467961072921753e-02,1.283392682671546936e-02,1.697395294904708862e-01,-6.468153744935989380e-02,2.306898683309555054e-01,3.628899157047271729e-02,-2.590621262788772583e-02,2.907894551753997803e-01,3.958116471767425537e-02,-4.186950623989105225e-02,-1.636714041233062744e-01,-1.446414589881896973e-01,1.976102404296398163e-02,3.120267949998378754e-02,6.951244920492172241e-02,3.549999371170997620e-02,6.954670697450637817e-02,-7.514636963605880737e-02,-8.333984762430191040e-02,1.215420588850975037e-01,1.133877784013748169e-01,-1.690323650836944580e-01,-5.986423417925834656e-02,1.511419005692005157e-02,-2.065806388854980469e-01,4.763573780655860901e-02,-3.656755015254020691e-02,3.047406859695911407e-02,-1.494187116622924805e-01,-1.925682425498962402e-01,-7.985300384461879730e-03,-1.301218569278717041e-01,-9.663114696741104126e-02,-1.391831487417221069e-01,-1.269764266908168793e-03,2.814456075429916382e-02,9.895649552345275879e-02,4.575141519308090210e-02,-1.992239356040954590e-01,-2.127435207366943359e-01,-9.844981878995895386e-02,4.569992050528526306e-02,1.236950419843196869e-02,-1.221881285309791565e-01,1.509257405996322632e-02,4.870211239904165268e-03,1.756817847490310669e-01,1.364972889423370361e-01,5.249420180916786194e-02,2.095980644226074219e-01,-9.754686802625656128e-02,-4.289530962705612183e-02,-2.916595339775085449e-02,-6.433361023664474487e-02,8.974926918745040894e-02,-2.492842078208923340e-02,1.774248480796813965e-02,-1.659074127674102783e-01,6.944066286087036133e-02,1.987928524613380432e-02,1.237667538225650787e-02,2.761045657098293304e-02,-1.359959598630666733e-02,-2.520824372768402100e-01,-4.018450900912284851e-02,-5.411111563444137573e-02,-2.993157133460044861e-02,-1.556931138038635254e-01,-1.073234900832176208e-01,-9.955582022666931152e-02,1.111218035221099854e-01,7.757803052663803101e-02,4.315451905131340027e-02,-4.494982212781906128e-02,9.965495765209197998e-02,-8.005503565073013306e-02,6.163045018911361694e-02,-4.610631614923477173e-02,-2.273770794272422791e-02,-1.267816964536905289e-02,-1.161345839500427246e-02,1.516332477331161499e-01,-5.361503735184669495e-02,4.574760422110557556e-02,9.201352298259735107e-02,4.928754270076751709e-02,6.184398755431175232e-02,-2.994451858103275299e-02,2.154190465807914734e-02,-5.211306363344192505e-02,1.642212122678756714e-01,1.149822622537612915e-01,4.490193352103233337e-02,-1.062296181917190552e-01,-1.161643117666244507e-02,-2.454236447811126709e-01,-1.229298412799835205e-01,9.079403430223464966e-02,-8.043302223086357117e-03,-1.676895618438720703e-01,-1.803045868873596191e-01,-1.503895688802003860e-02,6.221267208456993103e-02,-3.028523642569780350e-03,-9.157364070415496826e-02,-4.673086479306221008e-02,-5.722931120544672012e-03,1.755388081073760986e-02
7.798050995916128159e-03,-1.690176427364349365e-01,-5.225982517004013062e-02,1.710106879472732544e-01,9.056622534990310669e-02,1.609349437057971954e-02,-2.310766279697418213e-02,4.497041180729866028e-02,2.192633971571922302e-02,-2.385252267122268677e-01,-6.210015341639518738e-02,-1.223956048488616943e-01,-2.295569516718387604e-02,-1.001272276043891907e-01,-1.039131730794906616e-01,-7.282126694917678833e-02,-2.346777766942977905e-01,-1.669416427612304688e-01,-5.857621505856513977e-02,3.641725331544876099e-02,-1.204712539911270142e-01,2.878708019852638245e-02,-1.167193502187728882e-01,-5.932852625846862793e-02,-5.193385109305381775e-02,4.792458936572074890e-02,7.551286835223436356e-04,2.132310122251510620e-01,1.200874522328376770e-02,-3.653992712497711182e-02,1.142971366643905640e-01,-4.464501515030860901e-02,1.354577839374542236e-01,-6.671288609504699707e-02,-1.790606416761875153e-02,-7.399462163448333740e-02,8.880442380905151367e-02,-7.381632924079895020e-02,-1.861270219087600708e-01,1.909622363746166229e-02,-7.818756252527236938e-02,8.640128374099731445e-02,1.787392199039459229e-01,8.300654590129852295e-02,1.306407451629638672e-01,-1.285785436630249023e-01,-2.492276132106781006e-01,-5.441243574023246765e-02,-1.029781550168991089e-01,-2.365489006042480469e-01,1.071665808558464050e-01,-2.758176922798156738e-01,-1.395789682865142822e-01,1.440241783857345581e-01,1.271922439336776733e-01,1.386189181357622147e-02,-1.782110333442687988e-02,-7.458833605051040649e-02,-3.043246828019618988e-02,9.780353307723999023e-02,1.691077835857868195e-02,-5.160887911915779114e-02,-5.988113954663276672e-02,1.621094904839992523e-02,-1.627529412508010864e-02,5.144983530044555664e-02,-3.525991737842559814e-02,-7.501158118247985840e-02,-1.966465413570404053e-01,1.190833672881126404e-01,-4.605702124536037445e-03,3.719944134354591370e-02,-3.171718120574951172e-02,-3.254447877407073975e-02,6.807377189397811890e-02,-1.163235232234001160e-01,-1.712034828960895538e-02,-1.047897711396217346e-01,-2.172897756099700928e-01,3.999226912856101990e-02,-5.663876235485076904e-02,-1.485064029693603516e-01,-8.606694638729095459e-02,-3.833683952689170837e-02,2.592116594314575195e-02,-4.924077540636062622e-02,-5.448783282190561295e-03,-7.223949581384658813e-02,-8.228750526905059814e-02,1.248534768819808960e-01,-3.611877262592315674e-01,-1.374787986278533936e-01,-1.255630701780319214e-01,-1.155516654253005981e-01,-3.773588538169860840e-01,-1.147909313440322876e-01,-3.288066089153289795e-01,-3.727234899997711182e-01,-8.581254631280899048e-02,5.622101947665214539e-02,-5.374893918633460999e-02,3.583483025431632996e-02,-4.492451250553131104e-02,3.455853089690208435e-02,1.245400905609130859e-01,-4.940517246723175049e-02,2.890677005052566528e-02,1.167379096150398254e-01,-2.350379973649978638e-01,-2.049826085567474365e-01,-3.832198306918144226e-02,-3.330758586525917053e-02,1.019939333200454712e-01,8.756984770298004150e-02,-1.245913933962583542e-02,-2.102911472320556641e-02,9.373679012060165405e-02,-5.051386356353759766e-02,-1.368899494409561157e-01,7.761707529425621033e-03,-1.683271676301956177e-01,-6.344317458570003510e-03,-1.676726639270782471e-01,-1.052832603454589844e-01,-7.760622352361679077e-02,2.496098913252353668e-02,-1.141196638345718384e-01,1.323164850473403931e-01,2.180704176425933838e-01,-2.161150723695755005e-01,1.147725358605384827e-01,8.397391438484191895e-02,-1.636029928922653198e-01,1.190047487616539001e-01,7.839751988649368286e-02,-4.961181432008743286e-02,9.538860991597175598e-03,-1.425267755985260010e-01,1.173488721251487732e-01,-3.131014481186866760e-02,-1.506768316030502319e-01,4.653837531805038452e-02,1.134638413786888123e-01,1.450582593679428101e-01,-1.459786295890808105e-01,1.375844925642013550e-01,1.186384111642837524e-01,-1.249843984842300415e-01,-2.480477243661880493e-01,-3.197737410664558411e-02,-2.345115542411804199e-01,-2.032083868980407715e-01,-1.378310918807983398e-01,1.361879408359527588e-01,1.519325468689203262e-02,-1.562497764825820923e-01,-1.043761223554611206e-01,3.899461030960083008e-02,3.662164881825447083e-02,-1.182988286018371582e-01,-4.862583801150321960e-02,6.048535462468862534e-03,-6.173813715577125549e-02,-2.227440625429153442e-01,3.006806597113609314e-02,-1.408670679666101933e-03,-1.157831698656082153e-01,-1.569479554891586304e-01,-4.411616176366806030e-02,-1.907230317592620850e-01,2.440815046429634094e-02,2.094431221485137939e-01,1.796457916498184204e-01,-8.573979139328002930e-02,1.520134210586547852e-01,1.453595757484436035e-01,4.257210344076156616e-02,-3.471786528825759888e-02,1.058919876813888550e-01,2.527011744678020477e-02,-2.171232551336288452e-01,1.196074560284614563e-01,-9.354002773761749268e-02,-1.009104996919631958e-01,8.958197385072708130e-02,1.193308904767036438e-01,1.244716048240661621e-01,2.555044293403625488e-01,-2.738266251981258392e-02,7.977934181690216064e-02,-2.355480045080184937e-01,-3.665300458669662476e-02,5.656664073467254639e-02,-8.324267715215682983e-02,-8.640076965093612671e-02,1.048026978969573975e-02,-4.215353727340698242e-02,-4.337155073881149292e-02,1.886167824268341064e-01,2.494240254163742065e-01,-1.343022584915161133e-01,1.568085700273513794e-01,7.628126442432403564e-02,4.210753366351127625e-02,-1.307360082864761353e-01,7.497498393058776855e-02,1.684083254076540470e-03,2.002350986003875732e-01,2.698068879544734955e-02,1.398519240319728851e-02,5.651755630970001221e-02,-1.069956123828887939e-01,-8.789937198162078857e-02,-3.641307726502418518e-02,-1.764405965805053711e-01,-1.447825282812118530e-01,1.157020917162299156e-03,5.744430795311927795e-02,-4.257941991090774536e-02,-2.636447846889495850e-01,1.917139291763305664e-01,5.885728821158409119e-02,-2.463884651660919189e-01,2.613282576203346252e-02,2.132127527147531509e-03,-1.494272500276565552e-01,7.958643138408660889e-02,-7.253061234951019287e-02,6.824237853288650513e-02,1.829300373792648315e-01,1.117134466767311096e-01,1.180391572415828705e-02,1.661611348390579224e-01,-4.753287509083747864e-02,-2.160693258047103882e-01,-2.386659681797027588e-01,3.686747746542096138e-03,-4.133743941783905029e-01,-2.362494915723800659e-01,2.135257795453071594e-02,5.506619811058044434e-02,-5.190936475992202759e-02,-1.249255836009979248e-01,2.918618731200695038e-02,-8.048132061958312988e-02,-9.745714813470840454e-02,-4.216465726494789124e-02,-2.239609370008111000e-03,-5.205996334552764893e-02,-2.172061502933502197e-01,-2.293274402618408203e-01,1.283719241619110107e-01,-2.197589958086609840e-03,2.194605302065610886e-03,1.610402911901473999e-01,-5.089171230792999268e-02,-9.666685760021209717e-02,-3.867274895310401917e-02,2.911458909511566162e-02,-9.265564382076263428e-02,-4.073219746351242065e-02,-5.844144150614738464e-02,-7.144627161324024200e-03,-1.780262449756264687e-03,8.952116221189498901e-02,-3.588672727346420288e-02,-4.346690699458122253e-02,-2.037642896175384521e-02,-1.558328419923782349e-01,-1.047767698764801025e-01,5.322730541229248047e-02,-2.084028720855712891e-01,3.226089477539062500e-02,3.638609126210212708e-02,-2.128333598375320435e-02,1.385224796831607819e-02,-2.290592528879642487e-02,7.794251292943954468e-02,-3.229391574859619141e-02,-2.716638147830963135e-01,-4.305418580770492554e-02,-1.472888439893722534e-01,-9.644107520580291748e-02,5.252921953797340393e-03,3.081466630101203918e-02,2.762070391327142715e-03,2.015489712357521057e-02,-1.737057566642761230e-01
